<?xml version="1.0" encoding="UTF-8" standalone="yes"?>
<PMML xmlns="http://www.dmg.org/PMML-4_3" xmlns:data="http://jpmml.org/jpmml-model/InlineTable" version="4.3">
	<Header>
		<Application name="JPMML-SkLearn" version="1.5.13"/>
		<Timestamp>2019-05-09T01:48:24Z</Timestamp>
	</Header>
	<MiningBuildTask>
		<Extension>PMMLPipeline(steps=[('featurizer', PolynomialFeatures(degree=2, include_bias=True, interaction_only=False)),
       ('regressor', GradientBoostingRegressor(alpha=0.9, criterion='friedman_mse', init=None,
             learning_rate=0.01, loss='ls', max_depth=4, max_features=None,
             max_leaf_nodes=None, min_impurity_decrease=0.0,
             min_impurity_split=None, min_samples_leaf=1,
             min_samples_split=2, min_weight_fraction_leaf=0.0,
             n_estimators=500, n_iter_no_change=None, presort='auto',
             random_state=None, subsample=1.0, tol=0.0001,
             validation_fraction=0.1, verbose=0, warm_start=False))])</Extension>
	</MiningBuildTask>
	<DataDictionary>
		<DataField name="y" optype="continuous" dataType="double"/>
		<DataField name="x1" optype="continuous" dataType="double"/>
		<DataField name="x2" optype="continuous" dataType="double"/>
		<DataField name="x3" optype="continuous" dataType="double"/>
		<DataField name="x4" optype="continuous" dataType="double"/>
		<DataField name="x5" optype="continuous" dataType="double"/>
		<DataField name="x6" optype="continuous" dataType="double"/>
		<DataField name="x7" optype="continuous" dataType="double"/>
		<DataField name="x8" optype="continuous" dataType="double"/>
		<DataField name="x9" optype="continuous" dataType="double"/>
		<DataField name="x10" optype="continuous" dataType="double"/>
		<DataField name="x11" optype="continuous" dataType="double"/>
		<DataField name="x12" optype="continuous" dataType="double"/>
		<DataField name="x13" optype="continuous" dataType="double"/>
		<DataField name="x15" optype="continuous" dataType="double"/>
		<DataField name="x16" optype="continuous" dataType="double"/>
		<DataField name="x17" optype="continuous" dataType="double"/>
	</DataDictionary>
	<TransformationDictionary>
		<DerivedField name="float(x3)" optype="continuous" dataType="float">
			<FieldRef field="x3"/>
		</DerivedField>
		<DerivedField name="float(x8)" optype="continuous" dataType="float">
			<FieldRef field="x8"/>
		</DerivedField>
		<DerivedField name="float(x9)" optype="continuous" dataType="float">
			<FieldRef field="x9"/>
		</DerivedField>
		<DerivedField name="float(x10)" optype="continuous" dataType="float">
			<FieldRef field="x10"/>
		</DerivedField>
		<DerivedField name="float(x12)" optype="continuous" dataType="float">
			<FieldRef field="x12"/>
		</DerivedField>
		<DerivedField name="float(x13)" optype="continuous" dataType="float">
			<FieldRef field="x13"/>
		</DerivedField>
		<DerivedField name="float(x17)" optype="continuous" dataType="float">
			<FieldRef field="x17"/>
		</DerivedField>
		<DerivedField name="x1:x3" optype="continuous" dataType="double">
			<Apply function="*">
				<FieldRef field="x1"/>
				<FieldRef field="x3"/>
			</Apply>
		</DerivedField>
		<DerivedField name="float(x1:x3)" optype="continuous" dataType="float">
			<FieldRef field="x1:x3"/>
		</DerivedField>
		<DerivedField name="x1:x8" optype="continuous" dataType="double">
			<Apply function="*">
				<FieldRef field="x1"/>
				<FieldRef field="x8"/>
			</Apply>
		</DerivedField>
		<DerivedField name="float(x1:x8)" optype="continuous" dataType="float">
			<FieldRef field="x1:x8"/>
		</DerivedField>
		<DerivedField name="x1:x9" optype="continuous" dataType="double">
			<Apply function="*">
				<FieldRef field="x1"/>
				<FieldRef field="x9"/>
			</Apply>
		</DerivedField>
		<DerivedField name="float(x1:x9)" optype="continuous" dataType="float">
			<FieldRef field="x1:x9"/>
		</DerivedField>
		<DerivedField name="x1:x10" optype="continuous" dataType="double">
			<Apply function="*">
				<FieldRef field="x1"/>
				<FieldRef field="x10"/>
			</Apply>
		</DerivedField>
		<DerivedField name="float(x1:x10)" optype="continuous" dataType="float">
			<FieldRef field="x1:x10"/>
		</DerivedField>
		<DerivedField name="x1:x12" optype="continuous" dataType="double">
			<Apply function="*">
				<FieldRef field="x1"/>
				<FieldRef field="x12"/>
			</Apply>
		</DerivedField>
		<DerivedField name="float(x1:x12)" optype="continuous" dataType="float">
			<FieldRef field="x1:x12"/>
		</DerivedField>
		<DerivedField name="x1:x13" optype="continuous" dataType="double">
			<Apply function="*">
				<FieldRef field="x1"/>
				<FieldRef field="x13"/>
			</Apply>
		</DerivedField>
		<DerivedField name="float(x1:x13)" optype="continuous" dataType="float">
			<FieldRef field="x1:x13"/>
		</DerivedField>
		<DerivedField name="x1:x17" optype="continuous" dataType="double">
			<Apply function="*">
				<FieldRef field="x1"/>
				<FieldRef field="x17"/>
			</Apply>
		</DerivedField>
		<DerivedField name="float(x1:x17)" optype="continuous" dataType="float">
			<FieldRef field="x1:x17"/>
		</DerivedField>
		<DerivedField name="x2:x3" optype="continuous" dataType="double">
			<Apply function="*">
				<FieldRef field="x2"/>
				<FieldRef field="x3"/>
			</Apply>
		</DerivedField>
		<DerivedField name="float(x2:x3)" optype="continuous" dataType="float">
			<FieldRef field="x2:x3"/>
		</DerivedField>
		<DerivedField name="x2:x8" optype="continuous" dataType="double">
			<Apply function="*">
				<FieldRef field="x2"/>
				<FieldRef field="x8"/>
			</Apply>
		</DerivedField>
		<DerivedField name="float(x2:x8)" optype="continuous" dataType="float">
			<FieldRef field="x2:x8"/>
		</DerivedField>
		<DerivedField name="x2:x9" optype="continuous" dataType="double">
			<Apply function="*">
				<FieldRef field="x2"/>
				<FieldRef field="x9"/>
			</Apply>
		</DerivedField>
		<DerivedField name="float(x2:x9)" optype="continuous" dataType="float">
			<FieldRef field="x2:x9"/>
		</DerivedField>
		<DerivedField name="x2:x10" optype="continuous" dataType="double">
			<Apply function="*">
				<FieldRef field="x2"/>
				<FieldRef field="x10"/>
			</Apply>
		</DerivedField>
		<DerivedField name="float(x2:x10)" optype="continuous" dataType="float">
			<FieldRef field="x2:x10"/>
		</DerivedField>
		<DerivedField name="x2:x11" optype="continuous" dataType="double">
			<Apply function="*">
				<FieldRef field="x2"/>
				<FieldRef field="x11"/>
			</Apply>
		</DerivedField>
		<DerivedField name="float(x2:x11)" optype="continuous" dataType="float">
			<FieldRef field="x2:x11"/>
		</DerivedField>
		<DerivedField name="x2:x12" optype="continuous" dataType="double">
			<Apply function="*">
				<FieldRef field="x2"/>
				<FieldRef field="x12"/>
			</Apply>
		</DerivedField>
		<DerivedField name="float(x2:x12)" optype="continuous" dataType="float">
			<FieldRef field="x2:x12"/>
		</DerivedField>
		<DerivedField name="x2:x13" optype="continuous" dataType="double">
			<Apply function="*">
				<FieldRef field="x2"/>
				<FieldRef field="x13"/>
			</Apply>
		</DerivedField>
		<DerivedField name="float(x2:x13)" optype="continuous" dataType="float">
			<FieldRef field="x2:x13"/>
		</DerivedField>
		<DerivedField name="x2:x17" optype="continuous" dataType="double">
			<Apply function="*">
				<FieldRef field="x2"/>
				<FieldRef field="x17"/>
			</Apply>
		</DerivedField>
		<DerivedField name="float(x2:x17)" optype="continuous" dataType="float">
			<FieldRef field="x2:x17"/>
		</DerivedField>
		<DerivedField name="x3^2" optype="continuous" dataType="double">
			<Apply function="pow">
				<FieldRef field="x3"/>
				<Constant dataType="integer">2</Constant>
			</Apply>
		</DerivedField>
		<DerivedField name="float(x3^2)" optype="continuous" dataType="float">
			<FieldRef field="x3^2"/>
		</DerivedField>
		<DerivedField name="x3:x4" optype="continuous" dataType="double">
			<Apply function="*">
				<FieldRef field="x3"/>
				<FieldRef field="x4"/>
			</Apply>
		</DerivedField>
		<DerivedField name="float(x3:x4)" optype="continuous" dataType="float">
			<FieldRef field="x3:x4"/>
		</DerivedField>
		<DerivedField name="x3:x5" optype="continuous" dataType="double">
			<Apply function="*">
				<FieldRef field="x3"/>
				<FieldRef field="x5"/>
			</Apply>
		</DerivedField>
		<DerivedField name="float(x3:x5)" optype="continuous" dataType="float">
			<FieldRef field="x3:x5"/>
		</DerivedField>
		<DerivedField name="x3:x6" optype="continuous" dataType="double">
			<Apply function="*">
				<FieldRef field="x3"/>
				<FieldRef field="x6"/>
			</Apply>
		</DerivedField>
		<DerivedField name="float(x3:x6)" optype="continuous" dataType="float">
			<FieldRef field="x3:x6"/>
		</DerivedField>
		<DerivedField name="x3:x7" optype="continuous" dataType="double">
			<Apply function="*">
				<FieldRef field="x3"/>
				<FieldRef field="x7"/>
			</Apply>
		</DerivedField>
		<DerivedField name="float(x3:x7)" optype="continuous" dataType="float">
			<FieldRef field="x3:x7"/>
		</DerivedField>
		<DerivedField name="x3:x8" optype="continuous" dataType="double">
			<Apply function="*">
				<FieldRef field="x3"/>
				<FieldRef field="x8"/>
			</Apply>
		</DerivedField>
		<DerivedField name="float(x3:x8)" optype="continuous" dataType="float">
			<FieldRef field="x3:x8"/>
		</DerivedField>
		<DerivedField name="x3:x9" optype="continuous" dataType="double">
			<Apply function="*">
				<FieldRef field="x3"/>
				<FieldRef field="x9"/>
			</Apply>
		</DerivedField>
		<DerivedField name="float(x3:x9)" optype="continuous" dataType="float">
			<FieldRef field="x3:x9"/>
		</DerivedField>
		<DerivedField name="x3:x10" optype="continuous" dataType="double">
			<Apply function="*">
				<FieldRef field="x3"/>
				<FieldRef field="x10"/>
			</Apply>
		</DerivedField>
		<DerivedField name="float(x3:x10)" optype="continuous" dataType="float">
			<FieldRef field="x3:x10"/>
		</DerivedField>
		<DerivedField name="x3:x11" optype="continuous" dataType="double">
			<Apply function="*">
				<FieldRef field="x3"/>
				<FieldRef field="x11"/>
			</Apply>
		</DerivedField>
		<DerivedField name="float(x3:x11)" optype="continuous" dataType="float">
			<FieldRef field="x3:x11"/>
		</DerivedField>
		<DerivedField name="x3:x12" optype="continuous" dataType="double">
			<Apply function="*">
				<FieldRef field="x3"/>
				<FieldRef field="x12"/>
			</Apply>
		</DerivedField>
		<DerivedField name="float(x3:x12)" optype="continuous" dataType="float">
			<FieldRef field="x3:x12"/>
		</DerivedField>
		<DerivedField name="x3:x13" optype="continuous" dataType="double">
			<Apply function="*">
				<FieldRef field="x3"/>
				<FieldRef field="x13"/>
			</Apply>
		</DerivedField>
		<DerivedField name="float(x3:x13)" optype="continuous" dataType="float">
			<FieldRef field="x3:x13"/>
		</DerivedField>
		<DerivedField name="x3:x15" optype="continuous" dataType="double">
			<Apply function="*">
				<FieldRef field="x3"/>
				<FieldRef field="x15"/>
			</Apply>
		</DerivedField>
		<DerivedField name="float(x3:x15)" optype="continuous" dataType="float">
			<FieldRef field="x3:x15"/>
		</DerivedField>
		<DerivedField name="x3:x16" optype="continuous" dataType="double">
			<Apply function="*">
				<FieldRef field="x3"/>
				<FieldRef field="x16"/>
			</Apply>
		</DerivedField>
		<DerivedField name="float(x3:x16)" optype="continuous" dataType="float">
			<FieldRef field="x3:x16"/>
		</DerivedField>
		<DerivedField name="x3:x17" optype="continuous" dataType="double">
			<Apply function="*">
				<FieldRef field="x3"/>
				<FieldRef field="x17"/>
			</Apply>
		</DerivedField>
		<DerivedField name="float(x3:x17)" optype="continuous" dataType="float">
			<FieldRef field="x3:x17"/>
		</DerivedField>
		<DerivedField name="x4:x8" optype="continuous" dataType="double">
			<Apply function="*">
				<FieldRef field="x4"/>
				<FieldRef field="x8"/>
			</Apply>
		</DerivedField>
		<DerivedField name="float(x4:x8)" optype="continuous" dataType="float">
			<FieldRef field="x4:x8"/>
		</DerivedField>
		<DerivedField name="x4:x9" optype="continuous" dataType="double">
			<Apply function="*">
				<FieldRef field="x4"/>
				<FieldRef field="x9"/>
			</Apply>
		</DerivedField>
		<DerivedField name="float(x4:x9)" optype="continuous" dataType="float">
			<FieldRef field="x4:x9"/>
		</DerivedField>
		<DerivedField name="x4:x10" optype="continuous" dataType="double">
			<Apply function="*">
				<FieldRef field="x4"/>
				<FieldRef field="x10"/>
			</Apply>
		</DerivedField>
		<DerivedField name="float(x4:x10)" optype="continuous" dataType="float">
			<FieldRef field="x4:x10"/>
		</DerivedField>
		<DerivedField name="x4:x12" optype="continuous" dataType="double">
			<Apply function="*">
				<FieldRef field="x4"/>
				<FieldRef field="x12"/>
			</Apply>
		</DerivedField>
		<DerivedField name="float(x4:x12)" optype="continuous" dataType="float">
			<FieldRef field="x4:x12"/>
		</DerivedField>
		<DerivedField name="x4:x13" optype="continuous" dataType="double">
			<Apply function="*">
				<FieldRef field="x4"/>
				<FieldRef field="x13"/>
			</Apply>
		</DerivedField>
		<DerivedField name="float(x4:x13)" optype="continuous" dataType="float">
			<FieldRef field="x4:x13"/>
		</DerivedField>
		<DerivedField name="x4:x17" optype="continuous" dataType="double">
			<Apply function="*">
				<FieldRef field="x4"/>
				<FieldRef field="x17"/>
			</Apply>
		</DerivedField>
		<DerivedField name="float(x4:x17)" optype="continuous" dataType="float">
			<FieldRef field="x4:x17"/>
		</DerivedField>
		<DerivedField name="x5:x8" optype="continuous" dataType="double">
			<Apply function="*">
				<FieldRef field="x5"/>
				<FieldRef field="x8"/>
			</Apply>
		</DerivedField>
		<DerivedField name="float(x5:x8)" optype="continuous" dataType="float">
			<FieldRef field="x5:x8"/>
		</DerivedField>
		<DerivedField name="x5:x9" optype="continuous" dataType="double">
			<Apply function="*">
				<FieldRef field="x5"/>
				<FieldRef field="x9"/>
			</Apply>
		</DerivedField>
		<DerivedField name="float(x5:x9)" optype="continuous" dataType="float">
			<FieldRef field="x5:x9"/>
		</DerivedField>
		<DerivedField name="x5:x10" optype="continuous" dataType="double">
			<Apply function="*">
				<FieldRef field="x5"/>
				<FieldRef field="x10"/>
			</Apply>
		</DerivedField>
		<DerivedField name="float(x5:x10)" optype="continuous" dataType="float">
			<FieldRef field="x5:x10"/>
		</DerivedField>
		<DerivedField name="x5:x12" optype="continuous" dataType="double">
			<Apply function="*">
				<FieldRef field="x5"/>
				<FieldRef field="x12"/>
			</Apply>
		</DerivedField>
		<DerivedField name="float(x5:x12)" optype="continuous" dataType="float">
			<FieldRef field="x5:x12"/>
		</DerivedField>
		<DerivedField name="x5:x13" optype="continuous" dataType="double">
			<Apply function="*">
				<FieldRef field="x5"/>
				<FieldRef field="x13"/>
			</Apply>
		</DerivedField>
		<DerivedField name="float(x5:x13)" optype="continuous" dataType="float">
			<FieldRef field="x5:x13"/>
		</DerivedField>
		<DerivedField name="x5:x17" optype="continuous" dataType="double">
			<Apply function="*">
				<FieldRef field="x5"/>
				<FieldRef field="x17"/>
			</Apply>
		</DerivedField>
		<DerivedField name="float(x5:x17)" optype="continuous" dataType="float">
			<FieldRef field="x5:x17"/>
		</DerivedField>
		<DerivedField name="x6:x8" optype="continuous" dataType="double">
			<Apply function="*">
				<FieldRef field="x6"/>
				<FieldRef field="x8"/>
			</Apply>
		</DerivedField>
		<DerivedField name="float(x6:x8)" optype="continuous" dataType="float">
			<FieldRef field="x6:x8"/>
		</DerivedField>
		<DerivedField name="x6:x9" optype="continuous" dataType="double">
			<Apply function="*">
				<FieldRef field="x6"/>
				<FieldRef field="x9"/>
			</Apply>
		</DerivedField>
		<DerivedField name="float(x6:x9)" optype="continuous" dataType="float">
			<FieldRef field="x6:x9"/>
		</DerivedField>
		<DerivedField name="x6:x10" optype="continuous" dataType="double">
			<Apply function="*">
				<FieldRef field="x6"/>
				<FieldRef field="x10"/>
			</Apply>
		</DerivedField>
		<DerivedField name="float(x6:x10)" optype="continuous" dataType="float">
			<FieldRef field="x6:x10"/>
		</DerivedField>
		<DerivedField name="x6:x12" optype="continuous" dataType="double">
			<Apply function="*">
				<FieldRef field="x6"/>
				<FieldRef field="x12"/>
			</Apply>
		</DerivedField>
		<DerivedField name="float(x6:x12)" optype="continuous" dataType="float">
			<FieldRef field="x6:x12"/>
		</DerivedField>
		<DerivedField name="x6:x13" optype="continuous" dataType="double">
			<Apply function="*">
				<FieldRef field="x6"/>
				<FieldRef field="x13"/>
			</Apply>
		</DerivedField>
		<DerivedField name="float(x6:x13)" optype="continuous" dataType="float">
			<FieldRef field="x6:x13"/>
		</DerivedField>
		<DerivedField name="x6:x17" optype="continuous" dataType="double">
			<Apply function="*">
				<FieldRef field="x6"/>
				<FieldRef field="x17"/>
			</Apply>
		</DerivedField>
		<DerivedField name="float(x6:x17)" optype="continuous" dataType="float">
			<FieldRef field="x6:x17"/>
		</DerivedField>
		<DerivedField name="x7:x8" optype="continuous" dataType="double">
			<Apply function="*">
				<FieldRef field="x7"/>
				<FieldRef field="x8"/>
			</Apply>
		</DerivedField>
		<DerivedField name="float(x7:x8)" optype="continuous" dataType="float">
			<FieldRef field="x7:x8"/>
		</DerivedField>
		<DerivedField name="x7:x9" optype="continuous" dataType="double">
			<Apply function="*">
				<FieldRef field="x7"/>
				<FieldRef field="x9"/>
			</Apply>
		</DerivedField>
		<DerivedField name="float(x7:x9)" optype="continuous" dataType="float">
			<FieldRef field="x7:x9"/>
		</DerivedField>
		<DerivedField name="x7:x10" optype="continuous" dataType="double">
			<Apply function="*">
				<FieldRef field="x7"/>
				<FieldRef field="x10"/>
			</Apply>
		</DerivedField>
		<DerivedField name="float(x7:x10)" optype="continuous" dataType="float">
			<FieldRef field="x7:x10"/>
		</DerivedField>
		<DerivedField name="x7:x12" optype="continuous" dataType="double">
			<Apply function="*">
				<FieldRef field="x7"/>
				<FieldRef field="x12"/>
			</Apply>
		</DerivedField>
		<DerivedField name="float(x7:x12)" optype="continuous" dataType="float">
			<FieldRef field="x7:x12"/>
		</DerivedField>
		<DerivedField name="x7:x13" optype="continuous" dataType="double">
			<Apply function="*">
				<FieldRef field="x7"/>
				<FieldRef field="x13"/>
			</Apply>
		</DerivedField>
		<DerivedField name="float(x7:x13)" optype="continuous" dataType="float">
			<FieldRef field="x7:x13"/>
		</DerivedField>
		<DerivedField name="x7:x17" optype="continuous" dataType="double">
			<Apply function="*">
				<FieldRef field="x7"/>
				<FieldRef field="x17"/>
			</Apply>
		</DerivedField>
		<DerivedField name="float(x7:x17)" optype="continuous" dataType="float">
			<FieldRef field="x7:x17"/>
		</DerivedField>
		<DerivedField name="x8^2" optype="continuous" dataType="double">
			<Apply function="pow">
				<FieldRef field="x8"/>
				<Constant dataType="integer">2</Constant>
			</Apply>
		</DerivedField>
		<DerivedField name="float(x8^2)" optype="continuous" dataType="float">
			<FieldRef field="x8^2"/>
		</DerivedField>
		<DerivedField name="x8:x9" optype="continuous" dataType="double">
			<Apply function="*">
				<FieldRef field="x8"/>
				<FieldRef field="x9"/>
			</Apply>
		</DerivedField>
		<DerivedField name="float(x8:x9)" optype="continuous" dataType="float">
			<FieldRef field="x8:x9"/>
		</DerivedField>
		<DerivedField name="x8:x10" optype="continuous" dataType="double">
			<Apply function="*">
				<FieldRef field="x8"/>
				<FieldRef field="x10"/>
			</Apply>
		</DerivedField>
		<DerivedField name="float(x8:x10)" optype="continuous" dataType="float">
			<FieldRef field="x8:x10"/>
		</DerivedField>
		<DerivedField name="x8:x11" optype="continuous" dataType="double">
			<Apply function="*">
				<FieldRef field="x8"/>
				<FieldRef field="x11"/>
			</Apply>
		</DerivedField>
		<DerivedField name="float(x8:x11)" optype="continuous" dataType="float">
			<FieldRef field="x8:x11"/>
		</DerivedField>
		<DerivedField name="x8:x12" optype="continuous" dataType="double">
			<Apply function="*">
				<FieldRef field="x8"/>
				<FieldRef field="x12"/>
			</Apply>
		</DerivedField>
		<DerivedField name="float(x8:x12)" optype="continuous" dataType="float">
			<FieldRef field="x8:x12"/>
		</DerivedField>
		<DerivedField name="x8:x13" optype="continuous" dataType="double">
			<Apply function="*">
				<FieldRef field="x8"/>
				<FieldRef field="x13"/>
			</Apply>
		</DerivedField>
		<DerivedField name="float(x8:x13)" optype="continuous" dataType="float">
			<FieldRef field="x8:x13"/>
		</DerivedField>
		<DerivedField name="x8:x15" optype="continuous" dataType="double">
			<Apply function="*">
				<FieldRef field="x8"/>
				<FieldRef field="x15"/>
			</Apply>
		</DerivedField>
		<DerivedField name="float(x8:x15)" optype="continuous" dataType="float">
			<FieldRef field="x8:x15"/>
		</DerivedField>
		<DerivedField name="x8:x16" optype="continuous" dataType="double">
			<Apply function="*">
				<FieldRef field="x8"/>
				<FieldRef field="x16"/>
			</Apply>
		</DerivedField>
		<DerivedField name="float(x8:x16)" optype="continuous" dataType="float">
			<FieldRef field="x8:x16"/>
		</DerivedField>
		<DerivedField name="x8:x17" optype="continuous" dataType="double">
			<Apply function="*">
				<FieldRef field="x8"/>
				<FieldRef field="x17"/>
			</Apply>
		</DerivedField>
		<DerivedField name="float(x8:x17)" optype="continuous" dataType="float">
			<FieldRef field="x8:x17"/>
		</DerivedField>
		<DerivedField name="x9^2" optype="continuous" dataType="double">
			<Apply function="pow">
				<FieldRef field="x9"/>
				<Constant dataType="integer">2</Constant>
			</Apply>
		</DerivedField>
		<DerivedField name="float(x9^2)" optype="continuous" dataType="float">
			<FieldRef field="x9^2"/>
		</DerivedField>
		<DerivedField name="x9:x10" optype="continuous" dataType="double">
			<Apply function="*">
				<FieldRef field="x9"/>
				<FieldRef field="x10"/>
			</Apply>
		</DerivedField>
		<DerivedField name="float(x9:x10)" optype="continuous" dataType="float">
			<FieldRef field="x9:x10"/>
		</DerivedField>
		<DerivedField name="x9:x11" optype="continuous" dataType="double">
			<Apply function="*">
				<FieldRef field="x9"/>
				<FieldRef field="x11"/>
			</Apply>
		</DerivedField>
		<DerivedField name="float(x9:x11)" optype="continuous" dataType="float">
			<FieldRef field="x9:x11"/>
		</DerivedField>
		<DerivedField name="x9:x12" optype="continuous" dataType="double">
			<Apply function="*">
				<FieldRef field="x9"/>
				<FieldRef field="x12"/>
			</Apply>
		</DerivedField>
		<DerivedField name="float(x9:x12)" optype="continuous" dataType="float">
			<FieldRef field="x9:x12"/>
		</DerivedField>
		<DerivedField name="x9:x13" optype="continuous" dataType="double">
			<Apply function="*">
				<FieldRef field="x9"/>
				<FieldRef field="x13"/>
			</Apply>
		</DerivedField>
		<DerivedField name="float(x9:x13)" optype="continuous" dataType="float">
			<FieldRef field="x9:x13"/>
		</DerivedField>
		<DerivedField name="x9:x15" optype="continuous" dataType="double">
			<Apply function="*">
				<FieldRef field="x9"/>
				<FieldRef field="x15"/>
			</Apply>
		</DerivedField>
		<DerivedField name="float(x9:x15)" optype="continuous" dataType="float">
			<FieldRef field="x9:x15"/>
		</DerivedField>
		<DerivedField name="x9:x16" optype="continuous" dataType="double">
			<Apply function="*">
				<FieldRef field="x9"/>
				<FieldRef field="x16"/>
			</Apply>
		</DerivedField>
		<DerivedField name="float(x9:x16)" optype="continuous" dataType="float">
			<FieldRef field="x9:x16"/>
		</DerivedField>
		<DerivedField name="x9:x17" optype="continuous" dataType="double">
			<Apply function="*">
				<FieldRef field="x9"/>
				<FieldRef field="x17"/>
			</Apply>
		</DerivedField>
		<DerivedField name="float(x9:x17)" optype="continuous" dataType="float">
			<FieldRef field="x9:x17"/>
		</DerivedField>
		<DerivedField name="x10^2" optype="continuous" dataType="double">
			<Apply function="pow">
				<FieldRef field="x10"/>
				<Constant dataType="integer">2</Constant>
			</Apply>
		</DerivedField>
		<DerivedField name="float(x10^2)" optype="continuous" dataType="float">
			<FieldRef field="x10^2"/>
		</DerivedField>
		<DerivedField name="x10:x11" optype="continuous" dataType="double">
			<Apply function="*">
				<FieldRef field="x10"/>
				<FieldRef field="x11"/>
			</Apply>
		</DerivedField>
		<DerivedField name="float(x10:x11)" optype="continuous" dataType="float">
			<FieldRef field="x10:x11"/>
		</DerivedField>
		<DerivedField name="x10:x15" optype="continuous" dataType="double">
			<Apply function="*">
				<FieldRef field="x10"/>
				<FieldRef field="x15"/>
			</Apply>
		</DerivedField>
		<DerivedField name="float(x10:x15)" optype="continuous" dataType="float">
			<FieldRef field="x10:x15"/>
		</DerivedField>
		<DerivedField name="x10:x16" optype="continuous" dataType="double">
			<Apply function="*">
				<FieldRef field="x10"/>
				<FieldRef field="x16"/>
			</Apply>
		</DerivedField>
		<DerivedField name="float(x10:x16)" optype="continuous" dataType="float">
			<FieldRef field="x10:x16"/>
		</DerivedField>
		<DerivedField name="x10:x17" optype="continuous" dataType="double">
			<Apply function="*">
				<FieldRef field="x10"/>
				<FieldRef field="x17"/>
			</Apply>
		</DerivedField>
		<DerivedField name="float(x10:x17)" optype="continuous" dataType="float">
			<FieldRef field="x10:x17"/>
		</DerivedField>
		<DerivedField name="x11:x12" optype="continuous" dataType="double">
			<Apply function="*">
				<FieldRef field="x11"/>
				<FieldRef field="x12"/>
			</Apply>
		</DerivedField>
		<DerivedField name="float(x11:x12)" optype="continuous" dataType="float">
			<FieldRef field="x11:x12"/>
		</DerivedField>
		<DerivedField name="x11:x13" optype="continuous" dataType="double">
			<Apply function="*">
				<FieldRef field="x11"/>
				<FieldRef field="x13"/>
			</Apply>
		</DerivedField>
		<DerivedField name="float(x11:x13)" optype="continuous" dataType="float">
			<FieldRef field="x11:x13"/>
		</DerivedField>
		<DerivedField name="x11:x16" optype="continuous" dataType="double">
			<Apply function="*">
				<FieldRef field="x11"/>
				<FieldRef field="x16"/>
			</Apply>
		</DerivedField>
		<DerivedField name="float(x11:x16)" optype="continuous" dataType="float">
			<FieldRef field="x11:x16"/>
		</DerivedField>
		<DerivedField name="x11:x17" optype="continuous" dataType="double">
			<Apply function="*">
				<FieldRef field="x11"/>
				<FieldRef field="x17"/>
			</Apply>
		</DerivedField>
		<DerivedField name="float(x11:x17)" optype="continuous" dataType="float">
			<FieldRef field="x11:x17"/>
		</DerivedField>
		<DerivedField name="x12^2" optype="continuous" dataType="double">
			<Apply function="pow">
				<FieldRef field="x12"/>
				<Constant dataType="integer">2</Constant>
			</Apply>
		</DerivedField>
		<DerivedField name="float(x12^2)" optype="continuous" dataType="float">
			<FieldRef field="x12^2"/>
		</DerivedField>
		<DerivedField name="x12:x13" optype="continuous" dataType="double">
			<Apply function="*">
				<FieldRef field="x12"/>
				<FieldRef field="x13"/>
			</Apply>
		</DerivedField>
		<DerivedField name="float(x12:x13)" optype="continuous" dataType="float">
			<FieldRef field="x12:x13"/>
		</DerivedField>
		<DerivedField name="x12:x15" optype="continuous" dataType="double">
			<Apply function="*">
				<FieldRef field="x12"/>
				<FieldRef field="x15"/>
			</Apply>
		</DerivedField>
		<DerivedField name="float(x12:x15)" optype="continuous" dataType="float">
			<FieldRef field="x12:x15"/>
		</DerivedField>
		<DerivedField name="x12:x16" optype="continuous" dataType="double">
			<Apply function="*">
				<FieldRef field="x12"/>
				<FieldRef field="x16"/>
			</Apply>
		</DerivedField>
		<DerivedField name="float(x12:x16)" optype="continuous" dataType="float">
			<FieldRef field="x12:x16"/>
		</DerivedField>
		<DerivedField name="x12:x17" optype="continuous" dataType="double">
			<Apply function="*">
				<FieldRef field="x12"/>
				<FieldRef field="x17"/>
			</Apply>
		</DerivedField>
		<DerivedField name="float(x12:x17)" optype="continuous" dataType="float">
			<FieldRef field="x12:x17"/>
		</DerivedField>
		<DerivedField name="x13^2" optype="continuous" dataType="double">
			<Apply function="pow">
				<FieldRef field="x13"/>
				<Constant dataType="integer">2</Constant>
			</Apply>
		</DerivedField>
		<DerivedField name="float(x13^2)" optype="continuous" dataType="float">
			<FieldRef field="x13^2"/>
		</DerivedField>
		<DerivedField name="x13:x15" optype="continuous" dataType="double">
			<Apply function="*">
				<FieldRef field="x13"/>
				<FieldRef field="x15"/>
			</Apply>
		</DerivedField>
		<DerivedField name="float(x13:x15)" optype="continuous" dataType="float">
			<FieldRef field="x13:x15"/>
		</DerivedField>
		<DerivedField name="x13:x16" optype="continuous" dataType="double">
			<Apply function="*">
				<FieldRef field="x13"/>
				<FieldRef field="x16"/>
			</Apply>
		</DerivedField>
		<DerivedField name="float(x13:x16)" optype="continuous" dataType="float">
			<FieldRef field="x13:x16"/>
		</DerivedField>
		<DerivedField name="x13:x17" optype="continuous" dataType="double">
			<Apply function="*">
				<FieldRef field="x13"/>
				<FieldRef field="x17"/>
			</Apply>
		</DerivedField>
		<DerivedField name="float(x13:x17)" optype="continuous" dataType="float">
			<FieldRef field="x13:x17"/>
		</DerivedField>
		<DerivedField name="x15:x17" optype="continuous" dataType="double">
			<Apply function="*">
				<FieldRef field="x15"/>
				<FieldRef field="x17"/>
			</Apply>
		</DerivedField>
		<DerivedField name="float(x15:x17)" optype="continuous" dataType="float">
			<FieldRef field="x15:x17"/>
		</DerivedField>
		<DerivedField name="x16:x17" optype="continuous" dataType="double">
			<Apply function="*">
				<FieldRef field="x16"/>
				<FieldRef field="x17"/>
			</Apply>
		</DerivedField>
		<DerivedField name="float(x16:x17)" optype="continuous" dataType="float">
			<FieldRef field="x16:x17"/>
		</DerivedField>
		<DerivedField name="x17^2" optype="continuous" dataType="double">
			<Apply function="pow">
				<FieldRef field="x17"/>
				<Constant dataType="integer">2</Constant>
			</Apply>
		</DerivedField>
		<DerivedField name="float(x17^2)" optype="continuous" dataType="float">
			<FieldRef field="x17^2"/>
		</DerivedField>
		<DerivedField name="double(float(x3:x4))" optype="continuous" dataType="double">
			<FieldRef field="float(x3:x4)"/>
		</DerivedField>
		<DerivedField name="double(float(x6:x17))" optype="continuous" dataType="double">
			<FieldRef field="float(x6:x17)"/>
		</DerivedField>
		<DerivedField name="double(float(x2:x10))" optype="continuous" dataType="double">
			<FieldRef field="float(x2:x10)"/>
		</DerivedField>
		<DerivedField name="double(float(x10^2))" optype="continuous" dataType="double">
			<FieldRef field="float(x10^2)"/>
		</DerivedField>
		<DerivedField name="double(float(x3:x9))" optype="continuous" dataType="double">
			<FieldRef field="float(x3:x9)"/>
		</DerivedField>
		<DerivedField name="double(float(x10:x15))" optype="continuous" dataType="double">
			<FieldRef field="float(x10:x15)"/>
		</DerivedField>
		<DerivedField name="double(float(x4:x8))" optype="continuous" dataType="double">
			<FieldRef field="float(x4:x8)"/>
		</DerivedField>
		<DerivedField name="double(float(x8:x10))" optype="continuous" dataType="double">
			<FieldRef field="float(x8:x10)"/>
		</DerivedField>
		<DerivedField name="double(float(x3:x8))" optype="continuous" dataType="double">
			<FieldRef field="float(x3:x8)"/>
		</DerivedField>
		<DerivedField name="double(float(x3:x11))" optype="continuous" dataType="double">
			<FieldRef field="float(x3:x11)"/>
		</DerivedField>
		<DerivedField name="double(float(x2:x11))" optype="continuous" dataType="double">
			<FieldRef field="float(x2:x11)"/>
		</DerivedField>
		<DerivedField name="double(float(x8:x11))" optype="continuous" dataType="double">
			<FieldRef field="float(x8:x11)"/>
		</DerivedField>
		<DerivedField name="double(float(x15:x17))" optype="continuous" dataType="double">
			<FieldRef field="float(x15:x17)"/>
		</DerivedField>
		<DerivedField name="double(float(x3:x6))" optype="continuous" dataType="double">
			<FieldRef field="float(x3:x6)"/>
		</DerivedField>
		<DerivedField name="double(float(x5:x10))" optype="continuous" dataType="double">
			<FieldRef field="float(x5:x10)"/>
		</DerivedField>
		<DerivedField name="double(float(x8^2))" optype="continuous" dataType="double">
			<FieldRef field="float(x8^2)"/>
		</DerivedField>
		<DerivedField name="double(float(x12:x16))" optype="continuous" dataType="double">
			<FieldRef field="float(x12:x16)"/>
		</DerivedField>
		<DerivedField name="double(float(x8:x15))" optype="continuous" dataType="double">
			<FieldRef field="float(x8:x15)"/>
		</DerivedField>
		<DerivedField name="double(float(x11:x12))" optype="continuous" dataType="double">
			<FieldRef field="float(x11:x12)"/>
		</DerivedField>
		<DerivedField name="double(float(x8:x16))" optype="continuous" dataType="double">
			<FieldRef field="float(x8:x16)"/>
		</DerivedField>
		<DerivedField name="double(float(x3:x16))" optype="continuous" dataType="double">
			<FieldRef field="float(x3:x16)"/>
		</DerivedField>
		<DerivedField name="double(float(x7:x10))" optype="continuous" dataType="double">
			<FieldRef field="float(x7:x10)"/>
		</DerivedField>
		<DerivedField name="double(float(x8:x17))" optype="continuous" dataType="double">
			<FieldRef field="float(x8:x17)"/>
		</DerivedField>
		<DerivedField name="double(float(x10:x16))" optype="continuous" dataType="double">
			<FieldRef field="float(x10:x16)"/>
		</DerivedField>
		<DerivedField name="double(float(x9:x12))" optype="continuous" dataType="double">
			<FieldRef field="float(x9:x12)"/>
		</DerivedField>
		<DerivedField name="double(float(x9:x13))" optype="continuous" dataType="double">
			<FieldRef field="float(x9:x13)"/>
		</DerivedField>
		<DerivedField name="double(float(x9:x10))" optype="continuous" dataType="double">
			<FieldRef field="float(x9:x10)"/>
		</DerivedField>
		<DerivedField name="double(float(x3:x12))" optype="continuous" dataType="double">
			<FieldRef field="float(x3:x12)"/>
		</DerivedField>
		<DerivedField name="double(float(x3:x10))" optype="continuous" dataType="double">
			<FieldRef field="float(x3:x10)"/>
		</DerivedField>
		<DerivedField name="double(float(x10:x17))" optype="continuous" dataType="double">
			<FieldRef field="float(x10:x17)"/>
		</DerivedField>
		<DerivedField name="double(float(x4:x17))" optype="continuous" dataType="double">
			<FieldRef field="float(x4:x17)"/>
		</DerivedField>
		<DerivedField name="double(float(x17^2))" optype="continuous" dataType="double">
			<FieldRef field="float(x17^2)"/>
		</DerivedField>
		<DerivedField name="double(float(x1:x10))" optype="continuous" dataType="double">
			<FieldRef field="float(x1:x10)"/>
		</DerivedField>
		<DerivedField name="double(float(x12:x17))" optype="continuous" dataType="double">
			<FieldRef field="float(x12:x17)"/>
		</DerivedField>
		<DerivedField name="double(float(x16:x17))" optype="continuous" dataType="double">
			<FieldRef field="float(x16:x17)"/>
		</DerivedField>
		<DerivedField name="double(float(x3^2))" optype="continuous" dataType="double">
			<FieldRef field="float(x3^2)"/>
		</DerivedField>
		<DerivedField name="double(float(x4:x12))" optype="continuous" dataType="double">
			<FieldRef field="float(x4:x12)"/>
		</DerivedField>
		<DerivedField name="double(float(x8:x9))" optype="continuous" dataType="double">
			<FieldRef field="float(x8:x9)"/>
		</DerivedField>
		<DerivedField name="double(float(x8:x12))" optype="continuous" dataType="double">
			<FieldRef field="float(x8:x12)"/>
		</DerivedField>
		<DerivedField name="double(float(x7:x9))" optype="continuous" dataType="double">
			<FieldRef field="float(x7:x9)"/>
		</DerivedField>
		<DerivedField name="double(float(x7:x8))" optype="continuous" dataType="double">
			<FieldRef field="float(x7:x8)"/>
		</DerivedField>
		<DerivedField name="double(float(x6:x12))" optype="continuous" dataType="double">
			<FieldRef field="float(x6:x12)"/>
		</DerivedField>
		<DerivedField name="double(float(x9^2))" optype="continuous" dataType="double">
			<FieldRef field="float(x9^2)"/>
		</DerivedField>
		<DerivedField name="double(float(x5:x8))" optype="continuous" dataType="double">
			<FieldRef field="float(x5:x8)"/>
		</DerivedField>
		<DerivedField name="double(float(x8:x13))" optype="continuous" dataType="double">
			<FieldRef field="float(x8:x13)"/>
		</DerivedField>
		<DerivedField name="double(float(x4:x10))" optype="continuous" dataType="double">
			<FieldRef field="float(x4:x10)"/>
		</DerivedField>
		<DerivedField name="double(float(x9))" optype="continuous" dataType="double">
			<FieldRef field="float(x9)"/>
		</DerivedField>
		<DerivedField name="double(float(x2:x17))" optype="continuous" dataType="double">
			<FieldRef field="float(x2:x17)"/>
		</DerivedField>
		<DerivedField name="double(float(x3))" optype="continuous" dataType="double">
			<FieldRef field="float(x3)"/>
		</DerivedField>
		<DerivedField name="double(float(x6:x10))" optype="continuous" dataType="double">
			<FieldRef field="float(x6:x10)"/>
		</DerivedField>
		<DerivedField name="double(float(x3:x5))" optype="continuous" dataType="double">
			<FieldRef field="float(x3:x5)"/>
		</DerivedField>
		<DerivedField name="double(float(x2:x8))" optype="continuous" dataType="double">
			<FieldRef field="float(x2:x8)"/>
		</DerivedField>
		<DerivedField name="double(float(x12^2))" optype="continuous" dataType="double">
			<FieldRef field="float(x12^2)"/>
		</DerivedField>
		<DerivedField name="double(float(x10))" optype="continuous" dataType="double">
			<FieldRef field="float(x10)"/>
		</DerivedField>
		<DerivedField name="double(float(x1:x8))" optype="continuous" dataType="double">
			<FieldRef field="float(x1:x8)"/>
		</DerivedField>
		<DerivedField name="double(float(x3:x15))" optype="continuous" dataType="double">
			<FieldRef field="float(x3:x15)"/>
		</DerivedField>
		<DerivedField name="double(float(x13))" optype="continuous" dataType="double">
			<FieldRef field="float(x13)"/>
		</DerivedField>
		<DerivedField name="double(float(x9:x11))" optype="continuous" dataType="double">
			<FieldRef field="float(x9:x11)"/>
		</DerivedField>
		<DerivedField name="double(float(x3:x7))" optype="continuous" dataType="double">
			<FieldRef field="float(x3:x7)"/>
		</DerivedField>
		<DerivedField name="double(float(x1:x3))" optype="continuous" dataType="double">
			<FieldRef field="float(x1:x3)"/>
		</DerivedField>
		<DerivedField name="double(float(x6:x8))" optype="continuous" dataType="double">
			<FieldRef field="float(x6:x8)"/>
		</DerivedField>
		<DerivedField name="double(float(x11:x17))" optype="continuous" dataType="double">
			<FieldRef field="float(x11:x17)"/>
		</DerivedField>
		<DerivedField name="double(float(x6:x9))" optype="continuous" dataType="double">
			<FieldRef field="float(x6:x9)"/>
		</DerivedField>
		<DerivedField name="double(float(x5:x12))" optype="continuous" dataType="double">
			<FieldRef field="float(x5:x12)"/>
		</DerivedField>
		<DerivedField name="double(float(x3:x17))" optype="continuous" dataType="double">
			<FieldRef field="float(x3:x17)"/>
		</DerivedField>
		<DerivedField name="double(float(x12))" optype="continuous" dataType="double">
			<FieldRef field="float(x12)"/>
		</DerivedField>
		<DerivedField name="double(float(x6:x13))" optype="continuous" dataType="double">
			<FieldRef field="float(x6:x13)"/>
		</DerivedField>
		<DerivedField name="double(float(x17))" optype="continuous" dataType="double">
			<FieldRef field="float(x17)"/>
		</DerivedField>
		<DerivedField name="double(float(x4:x9))" optype="continuous" dataType="double">
			<FieldRef field="float(x4:x9)"/>
		</DerivedField>
		<DerivedField name="double(float(x1:x9))" optype="continuous" dataType="double">
			<FieldRef field="float(x1:x9)"/>
		</DerivedField>
		<DerivedField name="double(float(x1:x17))" optype="continuous" dataType="double">
			<FieldRef field="float(x1:x17)"/>
		</DerivedField>
		<DerivedField name="double(float(x5:x17))" optype="continuous" dataType="double">
			<FieldRef field="float(x5:x17)"/>
		</DerivedField>
		<DerivedField name="double(float(x9:x15))" optype="continuous" dataType="double">
			<FieldRef field="float(x9:x15)"/>
		</DerivedField>
		<DerivedField name="double(float(x8))" optype="continuous" dataType="double">
			<FieldRef field="float(x8)"/>
		</DerivedField>
		<DerivedField name="double(float(x2:x9))" optype="continuous" dataType="double">
			<FieldRef field="float(x2:x9)"/>
		</DerivedField>
		<DerivedField name="double(float(x2:x3))" optype="continuous" dataType="double">
			<FieldRef field="float(x2:x3)"/>
		</DerivedField>
		<DerivedField name="double(float(x13^2))" optype="continuous" dataType="double">
			<FieldRef field="float(x13^2)"/>
		</DerivedField>
		<DerivedField name="double(float(x13:x15))" optype="continuous" dataType="double">
			<FieldRef field="float(x13:x15)"/>
		</DerivedField>
		<DerivedField name="double(float(x2:x12))" optype="continuous" dataType="double">
			<FieldRef field="float(x2:x12)"/>
		</DerivedField>
		<DerivedField name="double(float(x1:x13))" optype="continuous" dataType="double">
			<FieldRef field="float(x1:x13)"/>
		</DerivedField>
		<DerivedField name="double(float(x12:x15))" optype="continuous" dataType="double">
			<FieldRef field="float(x12:x15)"/>
		</DerivedField>
		<DerivedField name="double(float(x7:x17))" optype="continuous" dataType="double">
			<FieldRef field="float(x7:x17)"/>
		</DerivedField>
		<DerivedField name="double(float(x5:x13))" optype="continuous" dataType="double">
			<FieldRef field="float(x5:x13)"/>
		</DerivedField>
		<DerivedField name="double(float(x5:x9))" optype="continuous" dataType="double">
			<FieldRef field="float(x5:x9)"/>
		</DerivedField>
		<DerivedField name="double(float(x9:x17))" optype="continuous" dataType="double">
			<FieldRef field="float(x9:x17)"/>
		</DerivedField>
		<DerivedField name="double(float(x3:x13))" optype="continuous" dataType="double">
			<FieldRef field="float(x3:x13)"/>
		</DerivedField>
		<DerivedField name="double(float(x12:x13))" optype="continuous" dataType="double">
			<FieldRef field="float(x12:x13)"/>
		</DerivedField>
		<DerivedField name="double(float(x7:x12))" optype="continuous" dataType="double">
			<FieldRef field="float(x7:x12)"/>
		</DerivedField>
		<DerivedField name="double(float(x9:x16))" optype="continuous" dataType="double">
			<FieldRef field="float(x9:x16)"/>
		</DerivedField>
		<DerivedField name="double(float(x11:x13))" optype="continuous" dataType="double">
			<FieldRef field="float(x11:x13)"/>
		</DerivedField>
		<DerivedField name="double(float(x13:x17))" optype="continuous" dataType="double">
			<FieldRef field="float(x13:x17)"/>
		</DerivedField>
		<DerivedField name="double(float(x4:x13))" optype="continuous" dataType="double">
			<FieldRef field="float(x4:x13)"/>
		</DerivedField>
		<DerivedField name="double(float(x1:x12))" optype="continuous" dataType="double">
			<FieldRef field="float(x1:x12)"/>
		</DerivedField>
		<DerivedField name="double(float(x2:x13))" optype="continuous" dataType="double">
			<FieldRef field="float(x2:x13)"/>
		</DerivedField>
		<DerivedField name="double(float(x13:x16))" optype="continuous" dataType="double">
			<FieldRef field="float(x13:x16)"/>
		</DerivedField>
		<DerivedField name="double(float(x11:x16))" optype="continuous" dataType="double">
			<FieldRef field="float(x11:x16)"/>
		</DerivedField>
		<DerivedField name="double(float(x7:x13))" optype="continuous" dataType="double">
			<FieldRef field="float(x7:x13)"/>
		</DerivedField>
		<DerivedField name="double(float(x10:x11))" optype="continuous" dataType="double">
			<FieldRef field="float(x10:x11)"/>
		</DerivedField>
	</TransformationDictionary>
	<MiningModel functionName="regression">
		<MiningSchema>
			<MiningField name="y" usageType="target"/>
			<MiningField name="x1"/>
			<MiningField name="x2"/>
			<MiningField name="x3"/>
			<MiningField name="x4"/>
			<MiningField name="x5"/>
			<MiningField name="x6"/>
			<MiningField name="x7"/>
			<MiningField name="x8"/>
			<MiningField name="x9"/>
			<MiningField name="x10"/>
			<MiningField name="x11"/>
			<MiningField name="x12"/>
			<MiningField name="x13"/>
			<MiningField name="x15"/>
			<MiningField name="x16"/>
			<MiningField name="x17"/>
		</MiningSchema>
		<Targets>
			<Target field="y" rescaleConstant="2440.625" rescaleFactor="0.01"/>
		</Targets>
		<Segmentation multipleModelMethod="sum">
			<Segment id="1">
				<True/>
				<TreeModel functionName="regression" missingValueStrategy="nullPrediction" noTrueChildStrategy="returnLastPrediction" splitCharacteristic="multiSplit">
					<MiningSchema>
						<MiningField name="x3"/>
						<MiningField name="x4"/>
						<MiningField name="x6"/>
						<MiningField name="x17"/>
						<MiningField name="x2"/>
						<MiningField name="x10"/>
					</MiningSchema>
					<Node score="2574.375">
						<True/>
						<Node score="607.375">
							<SimplePredicate field="double(float(x3:x4))" operator="lessOrEqual" value="12.0"/>
							<Node score="-877.625">
								<SimplePredicate field="double(float(x6:x17))" operator="lessOrEqual" value="192.0"/>
								<Node score="-1957.625">
									<SimplePredicate field="double(float(x2:x10))" operator="lessOrEqual" value="8.5"/>
								</Node>
								<Node score="-1165.625">
									<SimplePredicate field="double(float(x10^2))" operator="lessOrEqual" value="45.0"/>
								</Node>
							</Node>
						</Node>
					</Node>
				</TreeModel>
			</Segment>
			<Segment id="2">
				<True/>
				<TreeModel functionName="regression" missingValueStrategy="nullPrediction" noTrueChildStrategy="returnLastPrediction" splitCharacteristic="multiSplit">
					<MiningSchema>
						<MiningField name="x3"/>
						<MiningField name="x9"/>
						<MiningField name="x10"/>
						<MiningField name="x15"/>
						<MiningField name="x4"/>
						<MiningField name="x8"/>
					</MiningSchema>
					<Node score="2548.63125">
						<True/>
						<Node score="-868.8487500000001">
							<SimplePredicate field="double(float(x3:x9))" operator="lessOrEqual" value="48.0"/>
							<Node score="601.30125">
								<SimplePredicate field="double(float(x10:x15))" operator="lessOrEqual" value="1.0"/>
							</Node>
							<Node score="-1938.04875">
								<SimplePredicate field="double(float(x4:x8))" operator="lessOrEqual" value="20.0"/>
							</Node>
							<Node score="-1153.96875">
								<SimplePredicate field="double(float(x8:x10))" operator="lessOrEqual" value="204.0"/>
							</Node>
						</Node>
					</Node>
				</TreeModel>
			</Segment>
			<Segment id="3">
				<True/>
				<TreeModel functionName="regression" missingValueStrategy="nullPrediction" noTrueChildStrategy="returnLastPrediction" splitCharacteristic="multiSplit">
					<MiningSchema>
						<MiningField name="x3"/>
						<MiningField name="x8"/>
						<MiningField name="x11"/>
						<MiningField name="x2"/>
					</MiningSchema>
					<Node score="2523.1449374999997">
						<True/>
						<Node score="595.2882374999999">
							<SimplePredicate field="double(float(x3:x8))" operator="lessOrEqual" value="1408.0"/>
							<Node score="-1918.6682624999999">
								<SimplePredicate field="double(float(x3:x11))" operator="lessOrEqual" value="6.0"/>
								<Node score="-1142.4290624999999">
									<SimplePredicate field="double(float(x2:x11))" operator="lessOrEqual" value="4.5"/>
									<Node score="-860.1602625">
										<SimplePredicate field="double(float(x8:x11))" operator="lessOrEqual" value="44.0"/>
									</Node>
								</Node>
							</Node>
						</Node>
					</Node>
				</TreeModel>
			</Segment>
			<Segment id="4">
				<True/>
				<TreeModel functionName="regression" missingValueStrategy="nullPrediction" noTrueChildStrategy="returnLastPrediction" splitCharacteristic="multiSplit">
					<MiningSchema>
						<MiningField name="x15"/>
						<MiningField name="x17"/>
						<MiningField name="x3"/>
						<MiningField name="x6"/>
						<MiningField name="x5"/>
						<MiningField name="x10"/>
						<MiningField name="x8"/>
					</MiningSchema>
					<Node score="2497.9134881249997">
						<True/>
						<Node score="589.3353551249998">
							<SimplePredicate field="double(float(x15:x17))" operator="lessOrEqual" value="24.0"/>
							<Node score="-1131.0047718749997">
								<SimplePredicate field="double(float(x3:x6))" operator="lessOrEqual" value="192.0"/>
								<Node score="-1899.481579875">
									<SimplePredicate field="double(float(x5:x10))" operator="lessOrEqual" value="2.0"/>
								</Node>
								<Node score="-851.5586598750001">
									<SimplePredicate field="double(float(x8^2))" operator="lessOrEqual" value="2336.0"/>
								</Node>
							</Node>
						</Node>
					</Node>
				</TreeModel>
			</Segment>
			<Segment id="5">
				<True/>
				<TreeModel functionName="regression" missingValueStrategy="nullPrediction" noTrueChildStrategy="returnLastPrediction" splitCharacteristic="multiSplit">
					<MiningSchema>
						<MiningField name="x3"/>
						<MiningField name="x6"/>
						<MiningField name="x5"/>
						<MiningField name="x10"/>
						<MiningField name="x12"/>
						<MiningField name="x16"/>
						<MiningField name="x8"/>
						<MiningField name="x15"/>
					</MiningSchema>
					<Node score="2472.9343532437497">
						<True/>
						<Node score="-1119.6947241562498">
							<SimplePredicate field="double(float(x12:x16))" operator="lessOrEqual" value="13.0"/>
							<Node score="583.4420015737496">
								<SimplePredicate field="double(float(x5:x10))" operator="lessOrEqual" value="0.5"/>
							</Node>
							<Node score="-1880.48676407625">
								<SimplePredicate field="double(float(x3:x6))" operator="lessOrEqual" value="64.0"/>
							</Node>
							<Node score="-843.0430732762502">
								<SimplePredicate field="double(float(x8:x15))" operator="lessOrEqual" value="88.0"/>
							</Node>
						</Node>
					</Node>
				</TreeModel>
			</Segment>
			<Segment id="6">
				<True/>
				<TreeModel functionName="regression" missingValueStrategy="nullPrediction" noTrueChildStrategy="returnLastPrediction" splitCharacteristic="multiSplit">
					<MiningSchema>
						<MiningField name="x11"/>
						<MiningField name="x12"/>
						<MiningField name="x8"/>
						<MiningField name="x16"/>
						<MiningField name="x3"/>
						<MiningField name="x7"/>
						<MiningField name="x10"/>
					</MiningSchema>
					<Node score="2448.2050097113124">
						<True/>
						<Node score="-834.6126425434877">
							<SimplePredicate field="double(float(x11:x12))" operator="lessOrEqual" value="12.0"/>
							<Node score="577.607581558012">
								<SimplePredicate field="double(float(x8:x16))" operator="lessOrEqual" value="20.0"/>
							</Node>
							<Node score="-1861.6818964354875">
								<SimplePredicate field="double(float(x3:x16))" operator="lessOrEqual" value="3.0"/>
							</Node>
							<Node score="-1108.4977769146872">
								<SimplePredicate field="double(float(x7:x10))" operator="lessOrEqual" value="18.0"/>
							</Node>
						</Node>
					</Node>
				</TreeModel>
			</Segment>
			<Segment id="7">
				<True/>
				<TreeModel functionName="regression" missingValueStrategy="nullPrediction" noTrueChildStrategy="returnLastPrediction" splitCharacteristic="multiSplit">
					<MiningSchema>
						<MiningField name="x10"/>
						<MiningField name="x8"/>
						<MiningField name="x16"/>
						<MiningField name="x17"/>
					</MiningSchema>
					<Node score="2423.722959614199">
						<True/>
						<Node score="-1097.4127991455402">
							<SimplePredicate field="double(float(x8:x17))" operator="lessOrEqual" value="1408.0"/>
							<Node score="571.831505742432">
								<SimplePredicate field="double(float(x10:x16))" operator="lessOrEqual" value="1.0"/>
							</Node>
							<Node score="-1843.0650774711326">
								<SimplePredicate field="double(float(x10^2))" operator="lessOrEqual" value="5.0"/>
							</Node>
							<Node score="-826.266516118053">
								<SimplePredicate field="double(float(x8:x16))" operator="lessOrEqual" value="56.0"/>
							</Node>
						</Node>
					</Node>
				</TreeModel>
			</Segment>
			<Segment id="8">
				<True/>
				<TreeModel functionName="regression" missingValueStrategy="nullPrediction" noTrueChildStrategy="returnLastPrediction" splitCharacteristic="multiSplit">
					<MiningSchema>
						<MiningField name="x10"/>
						<MiningField name="x9"/>
						<MiningField name="x12"/>
						<MiningField name="x13"/>
					</MiningSchema>
					<Node score="2399.4857300180574">
						<True/>
						<Node score="566.1131906850078">
							<SimplePredicate field="double(float(x9:x12))" operator="lessOrEqual" value="48.0"/>
							<Node score="-818.0038509568726">
								<SimplePredicate field="double(float(x9:x13))" operator="lessOrEqual" value="18.0"/>
								<Node score="-1824.634426696421">
									<SimplePredicate field="double(float(x9:x10))" operator="lessOrEqual" value="7.0"/>
								</Node>
								<Node score="-1086.4386711540847">
									<SimplePredicate field="double(float(x10^2))" operator="lessOrEqual" value="45.0"/>
								</Node>
							</Node>
						</Node>
					</Node>
				</TreeModel>
			</Segment>
			<Segment id="9">
				<True/>
				<TreeModel functionName="regression" missingValueStrategy="nullPrediction" noTrueChildStrategy="returnLastPrediction" splitCharacteristic="multiSplit">
					<MiningSchema>
						<MiningField name="x8"/>
						<MiningField name="x15"/>
						<MiningField name="x3"/>
						<MiningField name="x12"/>
						<MiningField name="x10"/>
						<MiningField name="x17"/>
					</MiningSchema>
					<Node score="2375.4908727178768">
						<True/>
						<Node score="-809.8238124473037">
							<SimplePredicate field="double(float(x3:x12))" operator="lessOrEqual" value="160.0"/>
							<Node score="560.4520587781576">
								<SimplePredicate field="double(float(x3:x10))" operator="lessOrEqual" value="0.5"/>
							</Node>
							<Node score="-1806.388082429457">
								<SimplePredicate field="double(float(x8:x15))" operator="lessOrEqual" value="40.0"/>
							</Node>
							<Node score="-1075.574284442544">
								<SimplePredicate field="double(float(x10:x17))" operator="lessOrEqual" value="19.5"/>
							</Node>
						</Node>
					</Node>
				</TreeModel>
			</Segment>
			<Segment id="10">
				<True/>
				<TreeModel functionName="regression" missingValueStrategy="nullPrediction" noTrueChildStrategy="returnLastPrediction" splitCharacteristic="multiSplit">
					<MiningSchema>
						<MiningField name="x2"/>
						<MiningField name="x10"/>
						<MiningField name="x4"/>
						<MiningField name="x17"/>
						<MiningField name="x1"/>
					</MiningSchema>
					<Node score="2351.735963990698">
						<True/>
						<Node score="-801.7255743228307">
							<SimplePredicate field="double(float(x4:x17))" operator="lessOrEqual" value="12.0"/>
							<Node score="554.8475381903759">
								<SimplePredicate field="double(float(x2:x10))" operator="lessOrEqual" value="2.5"/>
							</Node>
							<Node score="-1788.3242016051622">
								<SimplePredicate field="double(float(x17^2))" operator="lessOrEqual" value="5.0"/>
							</Node>
							<Node score="-1064.8185415981184">
								<SimplePredicate field="double(float(x1:x10))" operator="lessOrEqual" value="6.0"/>
							</Node>
						</Node>
					</Node>
				</TreeModel>
			</Segment>
			<Segment id="11">
				<True/>
				<TreeModel functionName="regression" missingValueStrategy="nullPrediction" noTrueChildStrategy="returnLastPrediction" splitCharacteristic="multiSplit">
					<MiningSchema>
						<MiningField name="x5"/>
						<MiningField name="x10"/>
						<MiningField name="x12"/>
						<MiningField name="x17"/>
						<MiningField name="x16"/>
						<MiningField name="x3"/>
					</MiningSchema>
					<Node score="2328.2186043507913">
						<True/>
						<Node score="549.2990628084722">
							<SimplePredicate field="double(float(x12:x17))" operator="lessOrEqual" value="160.0"/>
							<Node score="-793.7083185796023">
								<SimplePredicate field="double(float(x16:x17))" operator="lessOrEqual" value="7.0"/>
								<Node score="-1770.4409595891107">
									<SimplePredicate field="double(float(x3^2))" operator="lessOrEqual" value="5.0"/>
								</Node>
								<Node score="-1054.1703561821373">
									<SimplePredicate field="double(float(x5:x10))" operator="lessOrEqual" value="6.0"/>
								</Node>
							</Node>
						</Node>
					</Node>
				</TreeModel>
			</Segment>
			<Segment id="12">
				<True/>
				<TreeModel functionName="regression" missingValueStrategy="nullPrediction" noTrueChildStrategy="returnLastPrediction" splitCharacteristic="multiSplit">
					<MiningSchema>
						<MiningField name="x4"/>
						<MiningField name="x8"/>
						<MiningField name="x1"/>
						<MiningField name="x10"/>
						<MiningField name="x12"/>
						<MiningField name="x9"/>
					</MiningSchema>
					<Node score="2304.9364183072835">
						<True/>
						<Node score="-1043.6286526203157">
							<SimplePredicate field="double(float(x4:x12))" operator="lessOrEqual" value="12.0"/>
							<Node score="543.8060721803877">
								<SimplePredicate field="double(float(x1:x10))" operator="lessOrEqual" value="0.5"/>
							</Node>
							<Node score="-1752.7365499932193">
								<SimplePredicate field="double(float(x4:x8))" operator="lessOrEqual" value="20.0"/>
							</Node>
							<Node score="-785.7712353938064">
								<SimplePredicate field="double(float(x8:x9))" operator="lessOrEqual" value="176.0"/>
							</Node>
						</Node>
					</Node>
				</TreeModel>
			</Segment>
			<Segment id="13">
				<True/>
				<TreeModel functionName="regression" missingValueStrategy="nullPrediction" noTrueChildStrategy="returnLastPrediction" splitCharacteristic="multiSplit">
					<MiningSchema>
						<MiningField name="x3"/>
						<MiningField name="x9"/>
						<MiningField name="x8"/>
						<MiningField name="x12"/>
						<MiningField name="x7"/>
					</MiningSchema>
					<Node score="2281.887054124211">
						<True/>
						<Node score="538.3680114585836">
							<SimplePredicate field="double(float(x8:x12))" operator="lessOrEqual" value="1344.0"/>
							<Node score="-1735.209184493287">
								<SimplePredicate field="double(float(x3:x9))" operator="lessOrEqual" value="24.0"/>
								<Node score="-1033.1923660941125">
									<SimplePredicate field="double(float(x7:x9))" operator="lessOrEqual" value="13.5"/>
									<Node score="-777.9135230398683">
										<SimplePredicate field="double(float(x3:x8))" operator="lessOrEqual" value="176.0"/>
									</Node>
								</Node>
							</Node>
						</Node>
					</Node>
				</TreeModel>
			</Segment>
			<Segment id="14">
				<True/>
				<TreeModel functionName="regression" missingValueStrategy="nullPrediction" noTrueChildStrategy="returnLastPrediction" splitCharacteristic="multiSplit">
					<MiningSchema>
						<MiningField name="x10"/>
						<MiningField name="x15"/>
						<MiningField name="x3"/>
						<MiningField name="x16"/>
						<MiningField name="x7"/>
						<MiningField name="x8"/>
						<MiningField name="x6"/>
						<MiningField name="x12"/>
					</MiningSchema>
					<Node score="2259.0681835829687">
						<True/>
						<Node score="532.9843313439978">
							<SimplePredicate field="double(float(x7:x8))" operator="lessOrEqual" value="336.0"/>
							<Node score="-770.1343878094694">
								<SimplePredicate field="double(float(x6:x12))" operator="lessOrEqual" value="208.0"/>
								<Node score="-1717.857092648354">
									<SimplePredicate field="double(float(x3:x16))" operator="lessOrEqual" value="3.0"/>
								</Node>
								<Node score="-1022.8604424331716">
									<SimplePredicate field="double(float(x10:x15))" operator="lessOrEqual" value="12.0"/>
								</Node>
							</Node>
						</Node>
					</Node>
				</TreeModel>
			</Segment>
			<Segment id="15">
				<True/>
				<TreeModel functionName="regression" missingValueStrategy="nullPrediction" noTrueChildStrategy="returnLastPrediction" splitCharacteristic="multiSplit">
					<MiningSchema>
						<MiningField name="x15"/>
						<MiningField name="x17"/>
						<MiningField name="x3"/>
						<MiningField name="x10"/>
						<MiningField name="x1"/>
						<MiningField name="x9"/>
					</MiningSchema>
					<Node score="2236.477501747139">
						<True/>
						<Node score="-1700.6785217218703">
							<SimplePredicate field="double(float(x15:x17))" operator="lessOrEqual" value="24.0"/>
							<Node score="527.6544880305578">
								<SimplePredicate field="double(float(x3:x10))" operator="lessOrEqual" value="0.5"/>
							</Node>
							<Node score="-762.4330439313749">
								<SimplePredicate field="double(float(x9^2))" operator="lessOrEqual" value="20.5"/>
								<Node score="-1012.6318380088396">
									<SimplePredicate field="double(float(x1:x10))" operator="lessOrEqual" value="6.0"/>
								</Node>
							</Node>
						</Node>
					</Node>
				</TreeModel>
			</Segment>
			<Segment id="16">
				<True/>
				<TreeModel functionName="regression" missingValueStrategy="nullPrediction" noTrueChildStrategy="returnLastPrediction" splitCharacteristic="multiSplit">
					<MiningSchema>
						<MiningField name="x10"/>
						<MiningField name="x15"/>
						<MiningField name="x3"/>
						<MiningField name="x8"/>
						<MiningField name="x9"/>
						<MiningField name="x5"/>
					</MiningSchema>
					<Node score="2214.1127267296674">
						<True/>
						<Node score="-1683.6717365046516">
							<SimplePredicate field="double(float(x3:x8))" operator="lessOrEqual" value="1408.0"/>
							<Node score="522.3779431502521">
								<SimplePredicate field="double(float(x10:x15))" operator="lessOrEqual" value="1.0"/>
							</Node>
							<Node score="-1002.5055196287512">
								<SimplePredicate field="double(float(x9^2))" operator="lessOrEqual" value="20.5"/>
								<Node score="-754.8087134920611">
									<SimplePredicate field="double(float(x5:x8))" operator="lessOrEqual" value="44.0"/>
								</Node>
							</Node>
						</Node>
					</Node>
				</TreeModel>
			</Segment>
			<Segment id="17">
				<True/>
				<TreeModel functionName="regression" missingValueStrategy="nullPrediction" noTrueChildStrategy="returnLastPrediction" splitCharacteristic="multiSplit">
					<MiningSchema>
						<MiningField name="x15"/>
						<MiningField name="x17"/>
						<MiningField name="x5"/>
						<MiningField name="x10"/>
						<MiningField name="x7"/>
						<MiningField name="x8"/>
						<MiningField name="x13"/>
					</MiningSchema>
					<Node score="2191.9715994623707">
						<True/>
						<Node score="-747.2606263571406">
							<SimplePredicate field="double(float(x8:x13))" operator="lessOrEqual" value="312.0"/>
							<Node score="517.1541637187497">
								<SimplePredicate field="double(float(x5:x10))" operator="lessOrEqual" value="0.5"/>
							</Node>
							<Node score="-1666.8350191396053">
								<SimplePredicate field="double(float(x15:x17))" operator="lessOrEqual" value="4.0"/>
							</Node>
							<Node score="-992.4804644324636">
								<SimplePredicate field="double(float(x7:x10))" operator="lessOrEqual" value="18.0"/>
							</Node>
						</Node>
					</Node>
				</TreeModel>
			</Segment>
			<Segment id="18">
				<True/>
				<TreeModel functionName="regression" missingValueStrategy="nullPrediction" noTrueChildStrategy="returnLastPrediction" splitCharacteristic="multiSplit">
					<MiningSchema>
						<MiningField name="x9"/>
						<MiningField name="x8"/>
						<MiningField name="x15"/>
						<MiningField name="x16"/>
						<MiningField name="x4"/>
						<MiningField name="x10"/>
					</MiningSchema>
					<Node score="2170.051883467747">
						<True/>
						<Node score="-1650.166668948209">
							<SimplePredicate field="double(float(x8:x15))" operator="lessOrEqual" value="224.0"/>
							<Node score="511.9826220815621">
								<SimplePredicate field="double(float(x4:x10))" operator="lessOrEqual" value="0.5"/>
							</Node>
							<Node score="-982.5556597881391">
								<SimplePredicate field="double(float(x9))" operator="lessOrEqual" value="4.5"/>
								<Node score="-739.7880200935692">
									<SimplePredicate field="double(float(x8:x16))" operator="lessOrEqual" value="56.0"/>
								</Node>
							</Node>
						</Node>
					</Node>
				</TreeModel>
			</Segment>
			<Segment id="19">
				<True/>
				<TreeModel functionName="regression" missingValueStrategy="nullPrediction" noTrueChildStrategy="returnLastPrediction" splitCharacteristic="multiSplit">
					<MiningSchema>
						<MiningField name="x2"/>
						<MiningField name="x10"/>
						<MiningField name="x3"/>
						<MiningField name="x8"/>
						<MiningField name="x9"/>
						<MiningField name="x17"/>
					</MiningSchema>
					<Node score="2148.3513646330694">
						<True/>
						<Node score="-732.3901398926337">
							<SimplePredicate field="double(float(x8:x9))" operator="lessOrEqual" value="448.0"/>
							<Node score="506.8627958607467">
								<SimplePredicate field="double(float(x2:x10))" operator="lessOrEqual" value="2.5"/>
							</Node>
							<Node score="-1633.6650022587269">
								<SimplePredicate field="double(float(x2:x17))" operator="lessOrEqual" value="10.0"/>
							</Node>
							<Node score="-972.7301031902575">
								<SimplePredicate field="double(float(x3:x10))" operator="lessOrEqual" value="19.5"/>
							</Node>
						</Node>
					</Node>
				</TreeModel>
			</Segment>
			<Segment id="20">
				<True/>
				<TreeModel functionName="regression" missingValueStrategy="nullPrediction" noTrueChildStrategy="returnLastPrediction" splitCharacteristic="multiSplit">
					<MiningSchema>
						<MiningField name="x3"/>
						<MiningField name="x10"/>
						<MiningField name="x17"/>
						<MiningField name="x6"/>
						<MiningField name="x5"/>
					</MiningSchema>
					<Node score="2126.8678509867386">
						<True/>
						<Node score="-725.0662384937073">
							<SimplePredicate field="double(float(x3))" operator="lessOrEqual" value="12.0"/>
							<Node score="501.7941679021392">
								<SimplePredicate field="double(float(x6:x10))" operator="lessOrEqual" value="16.0"/>
							</Node>
							<Node score="-1617.3283522361394">
								<SimplePredicate field="double(float(x3:x5))" operator="lessOrEqual" value="2.0"/>
							</Node>
							<Node score="-963.0028021583548">
								<SimplePredicate field="double(float(x10:x17))" operator="lessOrEqual" value="19.5"/>
							</Node>
						</Node>
					</Node>
				</TreeModel>
			</Segment>
			<Segment id="21">
				<True/>
				<TreeModel functionName="regression" missingValueStrategy="nullPrediction" noTrueChildStrategy="returnLastPrediction" splitCharacteristic="multiSplit">
					<MiningSchema>
						<MiningField name="x3"/>
						<MiningField name="x8"/>
						<MiningField name="x10"/>
						<MiningField name="x16"/>
						<MiningField name="x2"/>
					</MiningSchema>
					<Node score="2105.5991724768714">
						<True/>
						<Node score="-953.3727741367711">
							<SimplePredicate field="double(float(x2:x8))" operator="lessOrEqual" value="448.0"/>
							<Node score="496.77622622311765">
								<SimplePredicate field="double(float(x10:x16))" operator="lessOrEqual" value="1.0"/>
							</Node>
							<Node score="-1601.1550687137778">
								<SimplePredicate field="double(float(x10:x16))" operator="lessOrEqual" value="2.5"/>
							</Node>
							<Node score="-717.8155761087701">
								<SimplePredicate field="double(float(x3:x8))" operator="lessOrEqual" value="176.0"/>
							</Node>
						</Node>
					</Node>
				</TreeModel>
			</Segment>
			<Segment id="22">
				<True/>
				<TreeModel functionName="regression" missingValueStrategy="nullPrediction" noTrueChildStrategy="returnLastPrediction" splitCharacteristic="multiSplit">
					<MiningSchema>
						<MiningField name="x10"/>
						<MiningField name="x3"/>
						<MiningField name="x12"/>
					</MiningSchema>
					<Node score="2084.5431807521027">
						<True/>
						<Node score="491.80846396088646">
							<SimplePredicate field="double(float(x3^2))" operator="lessOrEqual" value="160.0"/>
							<Node score="-710.6374203476826">
								<SimplePredicate field="double(float(x12^2))" operator="lessOrEqual" value="44.5"/>
								<Node score="-1585.1435180266399">
									<SimplePredicate field="double(float(x3^2))" operator="lessOrEqual" value="5.0"/>
								</Node>
								<Node score="-943.8390463954033">
									<SimplePredicate field="double(float(x10))" operator="lessOrEqual" value="6.0"/>
								</Node>
							</Node>
						</Node>
					</Node>
				</TreeModel>
			</Segment>
			<Segment id="23">
				<True/>
				<TreeModel functionName="regression" missingValueStrategy="nullPrediction" noTrueChildStrategy="returnLastPrediction" splitCharacteristic="multiSplit">
					<MiningSchema>
						<MiningField name="x17"/>
						<MiningField name="x16"/>
						<MiningField name="x6"/>
						<MiningField name="x10"/>
						<MiningField name="x1"/>
						<MiningField name="x8"/>
					</MiningSchema>
					<Node score="2063.6977489445817">
						<True/>
						<Node score="486.8903793212776">
							<SimplePredicate field="double(float(x16:x17))" operator="lessOrEqual" value="12.0"/>
							<Node score="-934.4006559314494">
								<SimplePredicate field="double(float(x17^2))" operator="lessOrEqual" value="40.0"/>
								<Node score="-1569.2920828463734">
									<SimplePredicate field="double(float(x6:x10))" operator="lessOrEqual" value="64.0"/>
								</Node>
								<Node score="-703.5310461442059">
									<SimplePredicate field="double(float(x1:x8))" operator="lessOrEqual" value="44.0"/>
								</Node>
							</Node>
						</Node>
					</Node>
				</TreeModel>
			</Segment>
			<Segment id="24">
				<True/>
				<TreeModel functionName="regression" missingValueStrategy="nullPrediction" noTrueChildStrategy="returnLastPrediction" splitCharacteristic="multiSplit">
					<MiningSchema>
						<MiningField name="x17"/>
						<MiningField name="x1"/>
						<MiningField name="x10"/>
						<MiningField name="x8"/>
						<MiningField name="x13"/>
						<MiningField name="x3"/>
						<MiningField name="x15"/>
					</MiningSchema>
					<Node score="2043.060771455136">
						<True/>
						<Node score="482.0214755280649">
							<SimplePredicate field="double(float(x17^2))" operator="lessOrEqual" value="160.0"/>
							<Node score="-696.495735682764">
								<SimplePredicate field="double(float(x8:x13))" operator="lessOrEqual" value="72.0"/>
								<Node score="-1553.5991620179097">
									<SimplePredicate field="double(float(x3:x15))" operator="lessOrEqual" value="4.0"/>
								</Node>
								<Node score="-925.0566493721349">
									<SimplePredicate field="double(float(x1:x10))" operator="lessOrEqual" value="6.0"/>
								</Node>
							</Node>
						</Node>
					</Node>
				</TreeModel>
			</Segment>
			<Segment id="25">
				<True/>
				<TreeModel functionName="regression" missingValueStrategy="nullPrediction" noTrueChildStrategy="returnLastPrediction" splitCharacteristic="multiSplit">
					<MiningSchema>
						<MiningField name="x10"/>
						<MiningField name="x15"/>
						<MiningField name="x17"/>
						<MiningField name="x8"/>
						<MiningField name="x16"/>
					</MiningSchema>
					<Node score="2022.6301637405845">
						<True/>
						<Node score="-689.5307783259364">
							<SimplePredicate field="double(float(x8:x15))" operator="lessOrEqual" value="224.0"/>
							<Node score="477.2012607727843">
								<SimplePredicate field="double(float(x10:x15))" operator="lessOrEqual" value="1.0"/>
							</Node>
							<Node score="-1538.0631703977306">
								<SimplePredicate field="double(float(x15:x17))" operator="lessOrEqual" value="4.0"/>
							</Node>
							<Node score="-915.8060828784137">
								<SimplePredicate field="double(float(x10:x16))" operator="lessOrEqual" value="6.0"/>
							</Node>
						</Node>
					</Node>
				</TreeModel>
			</Segment>
			<Segment id="26">
				<True/>
				<TreeModel functionName="regression" missingValueStrategy="nullPrediction" noTrueChildStrategy="returnLastPrediction" splitCharacteristic="multiSplit">
					<MiningSchema>
						<MiningField name="x13"/>
						<MiningField name="x5"/>
						<MiningField name="x10"/>
						<MiningField name="x12"/>
						<MiningField name="x17"/>
						<MiningField name="x9"/>
						<MiningField name="x11"/>
					</MiningSchema>
					<Node score="2002.4038621031787">
						<True/>
						<Node score="472.4292481650564">
							<SimplePredicate field="double(float(x12:x17))" operator="lessOrEqual" value="160.0"/>
							<Node score="-1522.6825386937533">
								<SimplePredicate field="double(float(x13))" operator="lessOrEqual" value="4.5"/>
								<Node score="-682.635470542677">
									<SimplePredicate field="double(float(x9:x11))" operator="lessOrEqual" value="4.5"/>
									<Node score="-906.6480220496296">
										<SimplePredicate field="double(float(x5:x10))" operator="lessOrEqual" value="6.0"/>
									</Node>
								</Node>
							</Node>
						</Node>
					</Node>
				</TreeModel>
			</Segment>
			<Segment id="27">
				<True/>
				<TreeModel functionName="regression" missingValueStrategy="nullPrediction" noTrueChildStrategy="returnLastPrediction" splitCharacteristic="multiSplit">
					<MiningSchema>
						<MiningField name="x3"/>
						<MiningField name="x10"/>
						<MiningField name="x4"/>
						<MiningField name="x17"/>
						<MiningField name="x5"/>
						<MiningField name="x7"/>
					</MiningSchema>
					<Node score="1982.379823482147">
						<True/>
						<Node score="467.70495568340584">
							<SimplePredicate field="double(float(x3:x7))" operator="lessOrEqual" value="36.0"/>
							<Node score="-675.8091158372504">
								<SimplePredicate field="double(float(x3:x5))" operator="lessOrEqual" value="6.0"/>
								<Node score="-1507.4557133068158">
									<SimplePredicate field="double(float(x4:x17))" operator="lessOrEqual" value="2.0"/>
								</Node>
								<Node score="-897.5815418291331">
									<SimplePredicate field="double(float(x3:x10))" operator="lessOrEqual" value="19.5"/>
								</Node>
							</Node>
						</Node>
					</Node>
				</TreeModel>
			</Segment>
			<Segment id="28">
				<True/>
				<TreeModel functionName="regression" missingValueStrategy="nullPrediction" noTrueChildStrategy="returnLastPrediction" splitCharacteristic="multiSplit">
					<MiningSchema>
						<MiningField name="x8"/>
						<MiningField name="x17"/>
						<MiningField name="x4"/>
						<MiningField name="x1"/>
						<MiningField name="x3"/>
						<MiningField name="x6"/>
					</MiningSchema>
					<Node score="1962.5560252473256">
						<True/>
						<Node score="463.0279061265719">
							<SimplePredicate field="double(float(x4:x17))" operator="lessOrEqual" value="12.0"/>
							<Node score="-888.6057264108417">
								<SimplePredicate field="double(float(x1:x3))" operator="lessOrEqual" value="6.0"/>
								<Node score="-1492.3811561737477">
									<SimplePredicate field="double(float(x6:x8))" operator="lessOrEqual" value="640.0"/>
								</Node>
								<Node score="-669.0510246788781">
									<SimplePredicate field="double(float(x8:x17))" operator="lessOrEqual" value="176.0"/>
								</Node>
							</Node>
						</Node>
					</Node>
				</TreeModel>
			</Segment>
			<Segment id="29">
				<True/>
				<TreeModel functionName="regression" missingValueStrategy="nullPrediction" noTrueChildStrategy="returnLastPrediction" splitCharacteristic="multiSplit">
					<MiningSchema>
						<MiningField name="x8"/>
						<MiningField name="x11"/>
						<MiningField name="x1"/>
						<MiningField name="x10"/>
						<MiningField name="x7"/>
						<MiningField name="x17"/>
					</MiningSchema>
					<Node score="1942.9304649948522">
						<True/>
						<Node score="-879.7196691467334">
							<SimplePredicate field="double(float(x11:x17))" operator="lessOrEqual" value="12.0"/>
							<Node score="458.3976270653061">
								<SimplePredicate field="double(float(x1:x10))" operator="lessOrEqual" value="0.5"/>
							</Node>
							<Node score="-1477.4573446120103">
								<SimplePredicate field="double(float(x7:x8))" operator="lessOrEqual" value="60.0"/>
							</Node>
							<Node score="-662.3605144320895">
								<SimplePredicate field="double(float(x8:x11))" operator="lessOrEqual" value="44.0"/>
							</Node>
						</Node>
					</Node>
				</TreeModel>
			</Segment>
			<Segment id="30">
				<True/>
				<TreeModel functionName="regression" missingValueStrategy="nullPrediction" noTrueChildStrategy="returnLastPrediction" splitCharacteristic="multiSplit">
					<MiningSchema>
						<MiningField name="x10"/>
						<MiningField name="x15"/>
						<MiningField name="x8"/>
						<MiningField name="x4"/>
						<MiningField name="x17"/>
						<MiningField name="x6"/>
						<MiningField name="x9"/>
					</MiningSchema>
					<Node score="1923.5011603449038">
						<True/>
						<Node score="-1462.6827711658902">
							<SimplePredicate field="double(float(x4:x17))" operator="lessOrEqual" value="12.0"/>
							<Node score="453.81365079465286">
								<SimplePredicate field="double(float(x10:x15))" operator="lessOrEqual" value="1.0"/>
							</Node>
							<Node score="-870.922472455266">
								<SimplePredicate field="double(float(x6:x9))" operator="lessOrEqual" value="144.0"/>
								<Node score="-655.7369092877684">
									<SimplePredicate field="double(float(x8:x15))" operator="lessOrEqual" value="88.0"/>
								</Node>
							</Node>
						</Node>
					</Node>
				</TreeModel>
			</Segment>
			<Segment id="31">
				<True/>
				<TreeModel functionName="regression" missingValueStrategy="nullPrediction" noTrueChildStrategy="returnLastPrediction" splitCharacteristic="multiSplit">
					<MiningSchema>
						<MiningField name="x13"/>
						<MiningField name="x8"/>
						<MiningField name="x11"/>
						<MiningField name="x16"/>
						<MiningField name="x17"/>
						<MiningField name="x5"/>
						<MiningField name="x12"/>
					</MiningSchema>
					<Node score="1904.2661487414548">
						<True/>
						<Node score="449.2755142867063">
							<SimplePredicate field="double(float(x5:x12))" operator="lessOrEqual" value="12.0"/>
							<Node score="-862.2132477307132">
								<SimplePredicate field="double(float(x13))" operator="lessOrEqual" value="4.5"/>
								<Node score="-1448.0559434542313">
									<SimplePredicate field="double(float(x16:x17))" operator="lessOrEqual" value="3.0"/>
								</Node>
								<Node score="-649.1795401948907">
									<SimplePredicate field="double(float(x8:x11))" operator="lessOrEqual" value="44.0"/>
								</Node>
							</Node>
						</Node>
					</Node>
				</TreeModel>
			</Segment>
			<Segment id="32">
				<True/>
				<TreeModel functionName="regression" missingValueStrategy="nullPrediction" noTrueChildStrategy="returnLastPrediction" splitCharacteristic="multiSplit">
					<MiningSchema>
						<MiningField name="x8"/>
						<MiningField name="x10"/>
						<MiningField name="x7"/>
						<MiningField name="x1"/>
						<MiningField name="x3"/>
						<MiningField name="x17"/>
					</MiningSchema>
					<Node score="1885.2234872540403">
						<True/>
						<Node score="-642.6877447929419">
							<SimplePredicate field="double(float(x1:x3))" operator="lessOrEqual" value="12.0"/>
							<Node score="444.78275914383903">
								<SimplePredicate field="double(float(x8:x10))" operator="lessOrEqual" value="8.0"/>
							</Node>
							<Node score="-1433.575384019689">
								<SimplePredicate field="double(float(x3:x17))" operator="lessOrEqual" value="5.0"/>
							</Node>
							<Node score="-853.5911152534059">
								<SimplePredicate field="double(float(x7:x10))" operator="lessOrEqual" value="18.0"/>
							</Node>
						</Node>
					</Node>
				</TreeModel>
			</Segment>
			<Segment id="33">
				<True/>
				<TreeModel functionName="regression" missingValueStrategy="nullPrediction" noTrueChildStrategy="returnLastPrediction" splitCharacteristic="multiSplit">
					<MiningSchema>
						<MiningField name="x10"/>
						<MiningField name="x17"/>
						<MiningField name="x8"/>
						<MiningField name="x9"/>
						<MiningField name="x7"/>
					</MiningSchema>
					<Node score="1866.3712523814997">
						<True/>
						<Node score="-845.0552041008718">
							<SimplePredicate field="double(float(x7:x8))" operator="lessOrEqual" value="336.0"/>
							<Node score="440.3349315524006">
								<SimplePredicate field="double(float(x10^2))" operator="lessOrEqual" value="0.5"/>
							</Node>
							<Node score="-1419.239630179492">
								<SimplePredicate field="double(float(x10:x17))" operator="lessOrEqual" value="6.5"/>
							</Node>
							<Node score="-636.2608673450127">
								<SimplePredicate field="double(float(x8:x9))" operator="lessOrEqual" value="176.0"/>
							</Node>
						</Node>
					</Node>
				</TreeModel>
			</Segment>
			<Segment id="34">
				<True/>
				<TreeModel functionName="regression" missingValueStrategy="nullPrediction" noTrueChildStrategy="returnLastPrediction" splitCharacteristic="multiSplit">
					<MiningSchema>
						<MiningField name="x12"/>
						<MiningField name="x5"/>
						<MiningField name="x10"/>
						<MiningField name="x6"/>
						<MiningField name="x13"/>
					</MiningSchema>
					<Node score="1847.7075398576849">
						<True/>
						<Node score="435.9315822368767">
							<SimplePredicate field="double(float(x12))" operator="lessOrEqual" value="12.0"/>
							<Node score="-629.8982586715624">
								<SimplePredicate field="double(float(x6:x13))" operator="lessOrEqual" value="144.0"/>
								<Node score="-1405.0472338776972">
									<SimplePredicate field="double(float(x5:x10))" operator="lessOrEqual" value="2.0"/>
								</Node>
								<Node score="-836.6046520598629">
									<SimplePredicate field="double(float(x5:x10))" operator="lessOrEqual" value="6.0"/>
								</Node>
							</Node>
						</Node>
					</Node>
				</TreeModel>
			</Segment>
			<Segment id="35">
				<True/>
				<TreeModel functionName="regression" missingValueStrategy="nullPrediction" noTrueChildStrategy="returnLastPrediction" splitCharacteristic="multiSplit">
					<MiningSchema>
						<MiningField name="x4"/>
						<MiningField name="x8"/>
						<MiningField name="x17"/>
						<MiningField name="x6"/>
						<MiningField name="x9"/>
					</MiningSchema>
					<Node score="1829.2304644591081">
						<True/>
						<Node score="431.5722664145078">
							<SimplePredicate field="double(float(x4:x8))" operator="lessOrEqual" value="112.0"/>
							<Node score="-1390.9967615389203">
								<SimplePredicate field="double(float(x17^2))" operator="lessOrEqual" value="40.0"/>
								<Node score="-828.2386055392644">
									<SimplePredicate field="double(float(x6:x9))" operator="lessOrEqual" value="144.0"/>
									<Node score="-623.5992760848467">
										<SimplePredicate field="double(float(x8^2))" operator="lessOrEqual" value="2336.0"/>
									</Node>
								</Node>
							</Node>
						</Node>
					</Node>
				</TreeModel>
			</Segment>
			<Segment id="36">
				<True/>
				<TreeModel functionName="regression" missingValueStrategy="nullPrediction" noTrueChildStrategy="returnLastPrediction" splitCharacteristic="multiSplit">
					<MiningSchema>
						<MiningField name="x17"/>
						<MiningField name="x8"/>
						<MiningField name="x10"/>
						<MiningField name="x4"/>
						<MiningField name="x9"/>
					</MiningSchema>
					<Node score="1810.938159814517">
						<True/>
						<Node score="427.25654375036265">
							<SimplePredicate field="double(float(x8^2))" operator="lessOrEqual" value="14848.0"/>
							<Node score="-1377.086793923531">
								<SimplePredicate field="double(float(x17))" operator="lessOrEqual" value="6.0"/>
								<Node score="-617.3632833239981">
									<SimplePredicate field="double(float(x4:x9))" operator="lessOrEqual" value="4.5"/>
									<Node score="-819.9562194838718">
										<SimplePredicate field="double(float(x10:x17))" operator="lessOrEqual" value="19.5"/>
									</Node>
								</Node>
							</Node>
						</Node>
					</Node>
				</TreeModel>
			</Segment>
			<Segment id="37">
				<True/>
				<TreeModel functionName="regression" missingValueStrategy="nullPrediction" noTrueChildStrategy="returnLastPrediction" splitCharacteristic="multiSplit">
					<MiningSchema>
						<MiningField name="x12"/>
						<MiningField name="x16"/>
						<MiningField name="x8"/>
						<MiningField name="x15"/>
						<MiningField name="x4"/>
						<MiningField name="x9"/>
					</MiningSchema>
					<Node score="1792.8287782163716">
						<True/>
						<Node score="-1363.3159259842957">
							<SimplePredicate field="double(float(x12:x16))" operator="lessOrEqual" value="13.0"/>
							<Node score="422.9839783128591">
								<SimplePredicate field="double(float(x8:x16))" operator="lessOrEqual" value="20.0"/>
							</Node>
							<Node score="-811.7566572890332">
								<SimplePredicate field="double(float(x4:x9))" operator="lessOrEqual" value="4.5"/>
								<Node score="-611.1896504907581">
									<SimplePredicate field="double(float(x8:x15))" operator="lessOrEqual" value="88.0"/>
								</Node>
							</Node>
						</Node>
					</Node>
				</TreeModel>
			</Segment>
			<Segment id="38">
				<True/>
				<TreeModel functionName="regression" missingValueStrategy="nullPrediction" noTrueChildStrategy="returnLastPrediction" splitCharacteristic="multiSplit">
					<MiningSchema>
						<MiningField name="x17"/>
						<MiningField name="x12"/>
						<MiningField name="x6"/>
						<MiningField name="x10"/>
						<MiningField name="x1"/>
						<MiningField name="x9"/>
					</MiningSchema>
					<Node score="1774.9004904342078">
						<True/>
						<Node score="418.7541385297304">
							<SimplePredicate field="double(float(x12:x17))" operator="lessOrEqual" value="160.0"/>
							<Node score="-1349.6827667244527">
								<SimplePredicate field="double(float(x17))" operator="lessOrEqual" value="6.0"/>
								<Node score="-605.0777539858504">
									<SimplePredicate field="double(float(x1:x9))" operator="lessOrEqual" value="4.5"/>
									<Node score="-803.6390907161431">
										<SimplePredicate field="double(float(x6:x10))" operator="lessOrEqual" value="192.0"/>
									</Node>
								</Node>
							</Node>
						</Node>
					</Node>
				</TreeModel>
			</Segment>
			<Segment id="39">
				<True/>
				<TreeModel functionName="regression" missingValueStrategy="nullPrediction" noTrueChildStrategy="returnLastPrediction" splitCharacteristic="multiSplit">
					<MiningSchema>
						<MiningField name="x3"/>
						<MiningField name="x16"/>
						<MiningField name="x10"/>
						<MiningField name="x17"/>
						<MiningField name="x2"/>
						<MiningField name="x8"/>
					</MiningSchema>
					<Node score="1757.1514855298656">
						<True/>
						<Node score="-795.6026998089815">
							<SimplePredicate field="double(float(x3^2))" operator="lessOrEqual" value="160.0"/>
							<Node score="414.5665971444332">
								<SimplePredicate field="double(float(x10:x17))" operator="lessOrEqual" value="0.5"/>
							</Node>
							<Node score="-1336.185939057208">
								<SimplePredicate field="double(float(x3:x16))" operator="lessOrEqual" value="3.0"/>
							</Node>
							<Node score="-599.0269764459917">
								<SimplePredicate field="double(float(x2:x8))" operator="lessOrEqual" value="188.0"/>
							</Node>
						</Node>
					</Node>
				</TreeModel>
			</Segment>
			<Segment id="40">
				<True/>
				<TreeModel functionName="regression" missingValueStrategy="nullPrediction" noTrueChildStrategy="returnLastPrediction" splitCharacteristic="multiSplit">
					<MiningSchema>
						<MiningField name="x10"/>
						<MiningField name="x17"/>
						<MiningField name="x1"/>
						<MiningField name="x5"/>
						<MiningField name="x9"/>
						<MiningField name="x15"/>
					</MiningSchema>
					<Node score="1739.579970674567">
						<True/>
						<Node score="410.42093117298873">
							<SimplePredicate field="double(float(x1:x17))" operator="lessOrEqual" value="12.0"/>
							<Node score="-1322.824079666636">
								<SimplePredicate field="double(float(x5:x17))" operator="lessOrEqual" value="6.0"/>
								<Node score="-593.036706681532">
									<SimplePredicate field="double(float(x9:x15))" operator="lessOrEqual" value="9.0"/>
									<Node score="-787.6466728108917">
										<SimplePredicate field="double(float(x10:x17))" operator="lessOrEqual" value="19.5"/>
									</Node>
								</Node>
							</Node>
						</Node>
					</Node>
				</TreeModel>
			</Segment>
			<Segment id="41">
				<True/>
				<TreeModel functionName="regression" missingValueStrategy="nullPrediction" noTrueChildStrategy="returnLastPrediction" splitCharacteristic="multiSplit">
					<MiningSchema>
						<MiningField name="x4"/>
						<MiningField name="x8"/>
						<MiningField name="x11"/>
						<MiningField name="x16"/>
						<MiningField name="x17"/>
						<MiningField name="x3"/>
						<MiningField name="x15"/>
					</MiningSchema>
					<Node score="1722.1841709678215">
						<True/>
						<Node score="406.3167218612589">
							<SimplePredicate field="double(float(x4:x8))" operator="lessOrEqual" value="112.0"/>
							<Node score="-779.7702060827828">
								<SimplePredicate field="double(float(x16:x17))" operator="lessOrEqual" value="7.0"/>
								<Node score="-1309.5958388699696">
									<SimplePredicate field="double(float(x3:x15))" operator="lessOrEqual" value="4.0"/>
								</Node>
								<Node score="-587.1063396147165">
									<SimplePredicate field="double(float(x8:x11))" operator="lessOrEqual" value="44.0"/>
								</Node>
							</Node>
						</Node>
					</Node>
				</TreeModel>
			</Segment>
			<Segment id="42">
				<True/>
				<TreeModel functionName="regression" missingValueStrategy="nullPrediction" noTrueChildStrategy="returnLastPrediction" splitCharacteristic="multiSplit">
					<MiningSchema>
						<MiningField name="x12"/>
						<MiningField name="x17"/>
						<MiningField name="x6"/>
						<MiningField name="x10"/>
						<MiningField name="x3"/>
						<MiningField name="x5"/>
						<MiningField name="x7"/>
					</MiningSchema>
					<Node score="1704.9623292581432">
						<True/>
						<Node score="402.2535546426461">
							<SimplePredicate field="double(float(x3:x5))" operator="lessOrEqual" value="12.0"/>
							<Node score="-581.2352762185692">
								<SimplePredicate field="double(float(x12:x17))" operator="lessOrEqual" value="39.5"/>
								<Node score="-1296.4998804812699">
									<SimplePredicate field="double(float(x3:x7))" operator="lessOrEqual" value="6.0"/>
								</Node>
								<Node score="-771.972504021955">
									<SimplePredicate field="double(float(x6:x10))" operator="lessOrEqual" value="192.0"/>
								</Node>
							</Node>
						</Node>
					</Node>
				</TreeModel>
			</Segment>
			<Segment id="43">
				<True/>
				<TreeModel functionName="regression" missingValueStrategy="nullPrediction" noTrueChildStrategy="returnLastPrediction" splitCharacteristic="multiSplit">
					<MiningSchema>
						<MiningField name="x8"/>
						<MiningField name="x4"/>
						<MiningField name="x12"/>
						<MiningField name="x5"/>
						<MiningField name="x10"/>
					</MiningSchema>
					<Node score="1687.9127059655616">
						<True/>
						<Node score="398.2310190962198">
							<SimplePredicate field="double(float(x5:x8))" operator="lessOrEqual" value="112.0"/>
							<Node score="-764.2527789817354">
								<SimplePredicate field="double(float(x4:x12))" operator="lessOrEqual" value="6.5"/>
								<Node score="-1283.5348816764572">
									<SimplePredicate field="double(float(x4:x10))" operator="lessOrEqual" value="2.0"/>
								</Node>
								<Node score="-575.4229234563836">
									<SimplePredicate field="double(float(x8))" operator="lessOrEqual" value="44.0"/>
								</Node>
							</Node>
						</Node>
					</Node>
				</TreeModel>
			</Segment>
			<Segment id="44">
				<True/>
				<TreeModel functionName="regression" missingValueStrategy="nullPrediction" noTrueChildStrategy="returnLastPrediction" splitCharacteristic="multiSplit">
					<MiningSchema>
						<MiningField name="x10"/>
						<MiningField name="x3"/>
						<MiningField name="x2"/>
						<MiningField name="x8"/>
						<MiningField name="x5"/>
						<MiningField name="x17"/>
					</MiningSchema>
					<Node score="1671.0335789059059">
						<True/>
						<Node score="-756.610251191918">
							<SimplePredicate field="double(float(x5:x17))" operator="lessOrEqual" value="12.0"/>
							<Node score="394.24870890525744">
								<SimplePredicate field="double(float(x3:x10))" operator="lessOrEqual" value="0.5"/>
							</Node>
							<Node score="-1270.6995328596927">
								<SimplePredicate field="double(float(x10))" operator="lessOrEqual" value="2.0"/>
							</Node>
							<Node score="-569.6686942218198">
								<SimplePredicate field="double(float(x2:x8))" operator="lessOrEqual" value="188.0"/>
							</Node>
						</Node>
					</Node>
				</TreeModel>
			</Segment>
			<Segment id="45">
				<True/>
				<TreeModel functionName="regression" missingValueStrategy="nullPrediction" noTrueChildStrategy="returnLastPrediction" splitCharacteristic="multiSplit">
					<MiningSchema>
						<MiningField name="x17"/>
						<MiningField name="x6"/>
						<MiningField name="x8"/>
						<MiningField name="x11"/>
						<MiningField name="x16"/>
					</MiningSchema>
					<Node score="1654.3232431168467">
						<True/>
						<Node score="390.3062218162049">
							<SimplePredicate field="double(float(x8:x11))" operator="lessOrEqual" value="112.0"/>
							<Node score="-749.0441486799989">
								<SimplePredicate field="double(float(x6:x17))" operator="lessOrEqual" value="192.0"/>
								<Node score="-1257.9925375310956">
									<SimplePredicate field="double(float(x17))" operator="lessOrEqual" value="2.0"/>
								</Node>
								<Node score="-563.9720072796017">
									<SimplePredicate field="double(float(x8:x16))" operator="lessOrEqual" value="56.0"/>
								</Node>
							</Node>
						</Node>
					</Node>
				</TreeModel>
			</Segment>
			<Segment id="46">
				<True/>
				<TreeModel functionName="regression" missingValueStrategy="nullPrediction" noTrueChildStrategy="returnLastPrediction" splitCharacteristic="multiSplit">
					<MiningSchema>
						<MiningField name="x10"/>
						<MiningField name="x15"/>
						<MiningField name="x17"/>
						<MiningField name="x11"/>
						<MiningField name="x12"/>
						<MiningField name="x2"/>
						<MiningField name="x9"/>
					</MiningSchema>
					<Node score="1637.780010685678">
						<True/>
						<Node score="386.40315959804275">
							<SimplePredicate field="double(float(x15:x17))" operator="lessOrEqual" value="24.0"/>
							<Node score="-1245.4126121557847">
								<SimplePredicate field="double(float(x11:x12))" operator="lessOrEqual" value="4.0"/>
								<Node score="-558.3322872068056">
									<SimplePredicate field="double(float(x2:x9))" operator="lessOrEqual" value="20.5"/>
									<Node score="-741.553707193199">
										<SimplePredicate field="double(float(x10))" operator="lessOrEqual" value="6.0"/>
									</Node>
								</Node>
							</Node>
						</Node>
					</Node>
				</TreeModel>
			</Segment>
			<Segment id="47">
				<True/>
				<TreeModel functionName="regression" missingValueStrategy="nullPrediction" noTrueChildStrategy="returnLastPrediction" splitCharacteristic="multiSplit">
					<MiningSchema>
						<MiningField name="x8"/>
						<MiningField name="x16"/>
						<MiningField name="x4"/>
						<MiningField name="x17"/>
						<MiningField name="x5"/>
						<MiningField name="x12"/>
						<MiningField name="x1"/>
					</MiningSchema>
					<Node score="1621.4022105788213">
						<True/>
						<Node score="382.53912800206217">
							<SimplePredicate field="double(float(x5:x12))" operator="lessOrEqual" value="12.0"/>
							<Node score="-734.138170121267">
								<SimplePredicate field="double(float(x1:x17))" operator="lessOrEqual" value="6.0"/>
								<Node score="-1232.9584860342268">
									<SimplePredicate field="double(float(x4:x17))" operator="lessOrEqual" value="2.0"/>
								</Node>
								<Node score="-552.7489643347376">
									<SimplePredicate field="double(float(x8:x16))" operator="lessOrEqual" value="56.0"/>
								</Node>
							</Node>
						</Node>
					</Node>
				</TreeModel>
			</Segment>
			<Segment id="48">
				<True/>
				<TreeModel functionName="regression" missingValueStrategy="nullPrediction" noTrueChildStrategy="returnLastPrediction" splitCharacteristic="multiSplit">
					<MiningSchema>
						<MiningField name="x10"/>
						<MiningField name="x4"/>
						<MiningField name="x8"/>
						<MiningField name="x3"/>
						<MiningField name="x17"/>
						<MiningField name="x2"/>
					</MiningSchema>
					<Node score="1605.1881884730333">
						<True/>
						<Node score="378.71373672204163">
							<SimplePredicate field="double(float(x4:x8))" operator="lessOrEqual" value="112.0"/>
							<Node score="-547.2214746913901">
								<SimplePredicate field="double(float(x3:x17))" operator="lessOrEqual" value="40.0"/>
								<Node score="-1220.6289011738845">
									<SimplePredicate field="double(float(x2:x3))" operator="lessOrEqual" value="10.0"/>
								</Node>
								<Node score="-726.7967884200543">
									<SimplePredicate field="double(float(x10))" operator="lessOrEqual" value="6.0"/>
								</Node>
							</Node>
						</Node>
					</Node>
				</TreeModel>
			</Segment>
			<Segment id="49">
				<True/>
				<TreeModel functionName="regression" missingValueStrategy="nullPrediction" noTrueChildStrategy="returnLastPrediction" splitCharacteristic="multiSplit">
					<MiningSchema>
						<MiningField name="x6"/>
						<MiningField name="x12"/>
						<MiningField name="x8"/>
						<MiningField name="x13"/>
						<MiningField name="x4"/>
						<MiningField name="x10"/>
					</MiningSchema>
					<Node score="1589.136306588303">
						<True/>
						<Node score="374.92659935482106">
							<SimplePredicate field="double(float(x6:x12))" operator="lessOrEqual" value="384.0"/>
							<Node score="-541.7492599444763">
								<SimplePredicate field="double(float(x8:x13))" operator="lessOrEqual" value="72.0"/>
								<Node score="-1208.4226121621457">
									<SimplePredicate field="double(float(x6:x10))" operator="lessOrEqual" value="64.0"/>
								</Node>
								<Node score="-719.5288205358538">
									<SimplePredicate field="double(float(x4:x10))" operator="lessOrEqual" value="6.0"/>
								</Node>
							</Node>
						</Node>
					</Node>
				</TreeModel>
			</Segment>
			<Segment id="50">
				<True/>
				<TreeModel functionName="regression" missingValueStrategy="nullPrediction" noTrueChildStrategy="returnLastPrediction" splitCharacteristic="multiSplit">
					<MiningSchema>
						<MiningField name="x3"/>
						<MiningField name="x8"/>
						<MiningField name="x11"/>
						<MiningField name="x13"/>
					</MiningSchema>
					<Node score="1573.2449435224198">
						<True/>
						<Node score="371.17733336127276">
							<SimplePredicate field="double(float(x3))" operator="lessOrEqual" value="12.0"/>
							<Node score="-712.3335323304952">
								<SimplePredicate field="double(float(x13^2))" operator="lessOrEqual" value="40.5"/>
								<Node score="-1196.3383860405243">
									<SimplePredicate field="double(float(x3))" operator="lessOrEqual" value="2.0"/>
								</Node>
								<Node score="-536.3317673450315">
									<SimplePredicate field="double(float(x8:x11))" operator="lessOrEqual" value="44.0"/>
								</Node>
							</Node>
						</Node>
					</Node>
				</TreeModel>
			</Segment>
			<Segment id="51">
				<True/>
