<?xml version="1.0" encoding="UTF-8" standalone="yes"?>
<PMML xmlns="http://www.dmg.org/PMML-4_3" xmlns:data="http://jpmml.org/jpmml-model/InlineTable" version="4.3">
	<Header>
		<Application name="JPMML-SkLearn" version="1.5.13"/>
		<Timestamp>2019-05-09T01:48:39Z</Timestamp>
	</Header>
	<MiningBuildTask>
		<Extension>PMMLPipeline(steps=[('regressor', GradientBoostingRegressor(alpha=0.9, criterion='friedman_mse', init=None,
             learning_rate=0.01, loss='ls', max_depth=4, max_features=None,
             max_leaf_nodes=None, min_impurity_decrease=0.0,
             min_impurity_split=None, min_samples_leaf=1,
             min_samples_split=2, min_weight_fraction_leaf=0.0,
             n_estimators=500, n_iter_no_change=None, presort='auto',
             random_state=None, subsample=1.0, tol=0.0001,
             validation_fraction=0.1, verbose=0, warm_start=False))])</Extension>
	</MiningBuildTask>
	<DataDictionary>
		<DataField name="y" optype="continuous" dataType="double"/>
		<DataField name="x1" optype="continuous" dataType="float"/>
		<DataField name="x2" optype="continuous" dataType="float"/>
		<DataField name="x3" optype="continuous" dataType="float"/>
	</DataDictionary>
	<TransformationDictionary>
		<DerivedField name="double(x3)" optype="continuous" dataType="double">
			<FieldRef field="x3"/>
		</DerivedField>
		<DerivedField name="double(x1)" optype="continuous" dataType="double">
			<FieldRef field="x1"/>
		</DerivedField>
		<DerivedField name="double(x2)" optype="continuous" dataType="double">
			<FieldRef field="x2"/>
		</DerivedField>
	</TransformationDictionary>
	<MiningModel functionName="regression">
		<MiningSchema>
			<MiningField name="y" usageType="target"/>
			<MiningField name="x1"/>
			<MiningField name="x2"/>
			<MiningField name="x3"/>
		</MiningSchema>
		<Targets>
			<Target field="y" rescaleConstant="14.5" rescaleFactor="0.01"/>
		</Targets>
		<Segmentation multipleModelMethod="sum">
			<Segment id="1">
				<True/>
				<TreeModel functionName="regression" missingValueStrategy="nullPrediction" noTrueChildStrategy="returnLastPrediction" splitCharacteristic="multiSplit">
					<MiningSchema>
						<MiningField name="x3"/>
						<MiningField name="x1"/>
					</MiningSchema>
					<Node score="-7.5">
						<True/>
						<Node score="-4.5">
							<SimplePredicate field="double(x3)" operator="lessOrEqual" value="1.5"/>
							<Node score="3.0">
								<SimplePredicate field="double(x1)" operator="lessOrEqual" value="2.5"/>
							</Node>
						</Node>
					</Node>
				</TreeModel>
			</Segment>
			<Segment id="2">
				<True/>
				<TreeModel functionName="regression" missingValueStrategy="nullPrediction" noTrueChildStrategy="returnLastPrediction" splitCharacteristic="multiSplit">
					<MiningSchema>
						<MiningField name="x3"/>
						<MiningField name="x1"/>
					</MiningSchema>
					<Node score="-7.425000000000001">
						<True/>
						<Node score="-4.455">
							<SimplePredicate field="double(x3)" operator="lessOrEqual" value="1.5"/>
							<Node score="2.9700000000000006">
								<SimplePredicate field="double(x1)" operator="lessOrEqual" value="2.5"/>
							</Node>
						</Node>
					</Node>
				</TreeModel>
			</Segment>
			<Segment id="3">
				<True/>
				<TreeModel functionName="regression" missingValueStrategy="nullPrediction" noTrueChildStrategy="returnLastPrediction" splitCharacteristic="multiSplit">
					<MiningSchema>
						<MiningField name="x1"/>
						<MiningField name="x2"/>
					</MiningSchema>
					<Node score="-7.3507500000000014">
						<True/>
						<Node score="-4.410450000000001">
							<SimplePredicate field="double(x2)" operator="lessOrEqual" value="0.5"/>
							<Node score="2.9403000000000006">
								<SimplePredicate field="double(x1)" operator="lessOrEqual" value="2.5"/>
							</Node>
						</Node>
					</Node>
				</TreeModel>
			</Segment>
			<Segment id="4">
				<True/>
				<TreeModel functionName="regression" missingValueStrategy="nullPrediction" noTrueChildStrategy="returnLastPrediction" splitCharacteristic="multiSplit">
					<MiningSchema>
						<MiningField name="x3"/>
						<MiningField name="x1"/>
					</MiningSchema>
					<Node score="-7.277242500000002">
						<True/>
						<Node score="-4.366345500000001">
							<SimplePredicate field="double(x3)" operator="lessOrEqual" value="1.5"/>
							<Node score="2.9108970000000003">
								<SimplePredicate field="double(x1)" operator="lessOrEqual" value="2.5"/>
							</Node>
						</Node>
					</Node>
				</TreeModel>
			</Segment>
			<Segment id="5">
				<True/>
				<TreeModel functionName="regression" missingValueStrategy="nullPrediction" noTrueChildStrategy="returnLastPrediction" splitCharacteristic="multiSplit">
					<MiningSchema>
						<MiningField name="x1"/>
						<MiningField name="x2"/>
					</MiningSchema>
					<Node score="-7.2044700750000015">
						<True/>
						<Node score="-4.3226820450000005">
							<SimplePredicate field="double(x2)" operator="lessOrEqual" value="0.5"/>
							<Node score="2.881788030000001">
								<SimplePredicate field="double(x1)" operator="lessOrEqual" value="2.5"/>
							</Node>
						</Node>
					</Node>
				</TreeModel>
			</Segment>
			<Segment id="6">
				<True/>
				<TreeModel functionName="regression" missingValueStrategy="nullPrediction" noTrueChildStrategy="returnLastPrediction" splitCharacteristic="multiSplit">
					<MiningSchema>
						<MiningField name="x1"/>
						<MiningField name="x2"/>
					</MiningSchema>
					<Node score="-7.132425374250001">
						<True/>
						<Node score="-4.27945522455">
							<SimplePredicate field="double(x2)" operator="lessOrEqual" value="0.5"/>
							<Node score="2.852970149700001">
								<SimplePredicate field="double(x1)" operator="lessOrEqual" value="2.5"/>
							</Node>
						</Node>
					</Node>
				</TreeModel>
			</Segment>
			<Segment id="7">
				<True/>
				<TreeModel functionName="regression" missingValueStrategy="nullPrediction" noTrueChildStrategy="returnLastPrediction" splitCharacteristic="multiSplit">
					<MiningSchema>
						<MiningField name="x3"/>
						<MiningField name="x1"/>
					</MiningSchema>
					<Node score="-7.061101120507502">
						<True/>
						<Node score="-4.236660672304501">
							<SimplePredicate field="double(x3)" operator="lessOrEqual" value="1.5"/>
							<Node score="2.824440448203001">
								<SimplePredicate field="double(x1)" operator="lessOrEqual" value="2.5"/>
							</Node>
						</Node>
					</Node>
				</TreeModel>
			</Segment>
			<Segment id="8">
				<True/>
				<TreeModel functionName="regression" missingValueStrategy="nullPrediction" noTrueChildStrategy="returnLastPrediction" splitCharacteristic="multiSplit">
					<MiningSchema>
						<MiningField name="x1"/>
						<MiningField name="x2"/>
					</MiningSchema>
					<Node score="-6.990490109302426">
						<True/>
						<Node score="-4.194294065581456">
							<SimplePredicate field="double(x2)" operator="lessOrEqual" value="0.5"/>
							<Node score="2.796196043720972">
								<SimplePredicate field="double(x1)" operator="lessOrEqual" value="2.5"/>
							</Node>
						</Node>
					</Node>
				</TreeModel>
			</Segment>
			<Segment id="9">
				<True/>
				<TreeModel functionName="regression" missingValueStrategy="nullPrediction" noTrueChildStrategy="returnLastPrediction" splitCharacteristic="multiSplit">
					<MiningSchema>
						<MiningField name="x3"/>
						<MiningField name="x1"/>
					</MiningSchema>
					<Node score="-6.920585208209403">
						<True/>
						<Node score="-4.152351124925641">
							<SimplePredicate field="double(x3)" operator="lessOrEqual" value="1.5"/>
							<Node score="2.7682340832837617">
								<SimplePredicate field="double(x1)" operator="lessOrEqual" value="2.5"/>
							</Node>
						</Node>
					</Node>
				</TreeModel>
			</Segment>
			<Segment id="10">
				<True/>
				<TreeModel functionName="regression" missingValueStrategy="nullPrediction" noTrueChildStrategy="returnLastPrediction" splitCharacteristic="multiSplit">
					<MiningSchema>
						<MiningField name="x1"/>
						<MiningField name="x2"/>
					</MiningSchema>
					<Node score="-6.851379356127309">
						<True/>
						<Node score="-4.110827613676385">
							<SimplePredicate field="double(x2)" operator="lessOrEqual" value="0.5"/>
							<Node score="2.740551742450924">
								<SimplePredicate field="double(x1)" operator="lessOrEqual" value="2.5"/>
							</Node>
						</Node>
					</Node>
				</TreeModel>
			</Segment>
			<Segment id="11">
				<True/>
				<TreeModel functionName="regression" missingValueStrategy="nullPrediction" noTrueChildStrategy="returnLastPrediction" splitCharacteristic="multiSplit">
					<MiningSchema>
						<MiningField name="x3"/>
						<MiningField name="x1"/>
					</MiningSchema>
					<Node score="-6.782865562566036">
						<True/>
						<Node score="-4.06971933753962">
							<SimplePredicate field="double(x3)" operator="lessOrEqual" value="1.5"/>
							<Node score="2.7131462250264153">
								<SimplePredicate field="double(x1)" operator="lessOrEqual" value="2.5"/>
							</Node>
						</Node>
					</Node>
				</TreeModel>
			</Segment>
			<Segment id="12">
				<True/>
				<TreeModel functionName="regression" missingValueStrategy="nullPrediction" noTrueChildStrategy="returnLastPrediction" splitCharacteristic="multiSplit">
					<MiningSchema>
						<MiningField name="x1"/>
						<MiningField name="x2"/>
					</MiningSchema>
					<Node score="-6.715036906940375">
						<True/>
						<Node score="-4.029022144164225">
							<SimplePredicate field="double(x2)" operator="lessOrEqual" value="0.5"/>
							<Node score="2.6860147627761517">
								<SimplePredicate field="double(x1)" operator="lessOrEqual" value="2.5"/>
							</Node>
						</Node>
					</Node>
				</TreeModel>
			</Segment>
			<Segment id="13">
				<True/>
				<TreeModel functionName="regression" missingValueStrategy="nullPrediction" noTrueChildStrategy="returnLastPrediction" splitCharacteristic="multiSplit">
					<MiningSchema>
						<MiningField name="x3"/>
						<MiningField name="x1"/>
					</MiningSchema>
					<Node score="-6.647886537870971">
						<True/>
						<Node score="-3.9887319227225824">
							<SimplePredicate field="double(x3)" operator="lessOrEqual" value="1.5"/>
							<Node score="2.65915461514839">
								<SimplePredicate field="double(x1)" operator="lessOrEqual" value="2.5"/>
							</Node>
						</Node>
					</Node>
				</TreeModel>
			</Segment>
			<Segment id="14">
				<True/>
				<TreeModel functionName="regression" missingValueStrategy="nullPrediction" noTrueChildStrategy="returnLastPrediction" splitCharacteristic="multiSplit">
					<MiningSchema>
						<MiningField name="x3"/>
						<MiningField name="x1"/>
					</MiningSchema>
					<Node score="-6.581407672492261">
						<True/>
						<Node score="-3.948844603495356">
							<SimplePredicate field="double(x3)" operator="lessOrEqual" value="1.5"/>
							<Node score="2.6325630689969053">
								<SimplePredicate field="double(x1)" operator="lessOrEqual" value="2.5"/>
							</Node>
						</Node>
					</Node>
				</TreeModel>
			</Segment>
			<Segment id="15">
				<True/>
				<TreeModel functionName="regression" missingValueStrategy="nullPrediction" noTrueChildStrategy="returnLastPrediction" splitCharacteristic="multiSplit">
					<MiningSchema>
						<MiningField name="x3"/>
						<MiningField name="x1"/>
					</MiningSchema>
					<Node score="-6.5155935957673385">
						<True/>
						<Node score="-3.9093561574604028">
							<SimplePredicate field="double(x3)" operator="lessOrEqual" value="1.5"/>
							<Node score="2.6062374383069358">
								<SimplePredicate field="double(x1)" operator="lessOrEqual" value="2.5"/>
							</Node>
						</Node>
					</Node>
				</TreeModel>
			</Segment>
			<Segment id="16">
				<True/>
				<TreeModel functionName="regression" missingValueStrategy="nullPrediction" noTrueChildStrategy="returnLastPrediction" splitCharacteristic="multiSplit">
					<MiningSchema>
						<MiningField name="x1"/>
						<MiningField name="x2"/>
					</MiningSchema>
					<Node score="-6.4504376598096655">
						<True/>
						<Node score="-3.870262595885798">
							<SimplePredicate field="double(x2)" operator="lessOrEqual" value="0.5"/>
							<Node score="2.580175063923866">
								<SimplePredicate field="double(x1)" operator="lessOrEqual" value="2.5"/>
							</Node>
						</Node>
					</Node>
				</TreeModel>
			</Segment>
			<Segment id="17">
				<True/>
				<TreeModel functionName="regression" missingValueStrategy="nullPrediction" noTrueChildStrategy="returnLastPrediction" splitCharacteristic="multiSplit">
					<MiningSchema>
						<MiningField name="x1"/>
						<MiningField name="x2"/>
					</MiningSchema>
					<Node score="-6.385933283211569">
						<True/>
						<Node score="-3.831559969926939">
							<SimplePredicate field="double(x2)" operator="lessOrEqual" value="0.5"/>
							<Node score="2.5543733132846267">
								<SimplePredicate field="double(x1)" operator="lessOrEqual" value="2.5"/>
							</Node>
						</Node>
					</Node>
				</TreeModel>
			</Segment>
			<Segment id="18">
				<True/>
				<TreeModel functionName="regression" missingValueStrategy="nullPrediction" noTrueChildStrategy="returnLastPrediction" splitCharacteristic="multiSplit">
					<MiningSchema>
						<MiningField name="x1"/>
						<MiningField name="x2"/>
					</MiningSchema>
					<Node score="-6.322073950379453">
						<True/>
						<Node score="-3.7932443702276704">
							<SimplePredicate field="double(x2)" operator="lessOrEqual" value="0.5"/>
							<Node score="2.528829580151781">
								<SimplePredicate field="double(x1)" operator="lessOrEqual" value="2.5"/>
							</Node>
						</Node>
					</Node>
				</TreeModel>
			</Segment>
			<Segment id="19">
				<True/>
				<TreeModel functionName="regression" missingValueStrategy="nullPrediction" noTrueChildStrategy="returnLastPrediction" splitCharacteristic="multiSplit">
					<MiningSchema>
						<MiningField name="x1"/>
						<MiningField name="x2"/>
					</MiningSchema>
					<Node score="-6.2588532108756585">
						<True/>
						<Node score="-3.755311926525394">
							<SimplePredicate field="double(x2)" operator="lessOrEqual" value="0.5"/>
							<Node score="2.5035412843502627">
								<SimplePredicate field="double(x1)" operator="lessOrEqual" value="2.5"/>
							</Node>
						</Node>
					</Node>
				</TreeModel>
			</Segment>
			<Segment id="20">
				<True/>
				<TreeModel functionName="regression" missingValueStrategy="nullPrediction" noTrueChildStrategy="returnLastPrediction" splitCharacteristic="multiSplit">
					<MiningSchema>
						<MiningField name="x3"/>
						<MiningField name="x1"/>
					</MiningSchema>
					<Node score="-6.196264678766902">
						<True/>
						<Node score="-3.7177588072601395">
							<SimplePredicate field="double(x3)" operator="lessOrEqual" value="1.5"/>
							<Node score="2.4785058715067603">
								<SimplePredicate field="double(x1)" operator="lessOrEqual" value="2.5"/>
							</Node>
						</Node>
					</Node>
				</TreeModel>
			</Segment>
			<Segment id="21">
				<True/>
				<TreeModel functionName="regression" missingValueStrategy="nullPrediction" noTrueChildStrategy="returnLastPrediction" splitCharacteristic="multiSplit">
					<MiningSchema>
						<MiningField name="x3"/>
						<MiningField name="x1"/>
					</MiningSchema>
					<Node score="-6.134302031979233">
						<True/>
						<Node score="-3.6805812191875376">
							<SimplePredicate field="double(x3)" operator="lessOrEqual" value="1.5"/>
							<Node score="2.4537208127916923">
								<SimplePredicate field="double(x1)" operator="lessOrEqual" value="2.5"/>
							</Node>
						</Node>
					</Node>
				</TreeModel>
			</Segment>
			<Segment id="22">
				<True/>
				<TreeModel functionName="regression" missingValueStrategy="nullPrediction" noTrueChildStrategy="returnLastPrediction" splitCharacteristic="multiSplit">
					<MiningSchema>
						<MiningField name="x3"/>
						<MiningField name="x1"/>
					</MiningSchema>
					<Node score="-6.0729590116594405">
						<True/>
						<Node score="-3.643775406995662">
							<SimplePredicate field="double(x3)" operator="lessOrEqual" value="1.5"/>
							<Node score="2.429183604663775">
								<SimplePredicate field="double(x1)" operator="lessOrEqual" value="2.5"/>
							</Node>
						</Node>
					</Node>
				</TreeModel>
			</Segment>
			<Segment id="23">
				<True/>
				<TreeModel functionName="regression" missingValueStrategy="nullPrediction" noTrueChildStrategy="returnLastPrediction" splitCharacteristic="multiSplit">
					<MiningSchema>
						<MiningField name="x3"/>
						<MiningField name="x1"/>
					</MiningSchema>
					<Node score="-6.0122294215428465">
						<True/>
						<Node score="-3.6073376529257057">
							<SimplePredicate field="double(x3)" operator="lessOrEqual" value="1.5"/>
							<Node score="2.404891768617137">
								<SimplePredicate field="double(x1)" operator="lessOrEqual" value="2.5"/>
							</Node>
						</Node>
					</Node>
				</TreeModel>
			</Segment>
			<Segment id="24">
				<True/>
				<TreeModel functionName="regression" missingValueStrategy="nullPrediction" noTrueChildStrategy="returnLastPrediction" splitCharacteristic="multiSplit">
					<MiningSchema>
						<MiningField name="x1"/>
						<MiningField name="x2"/>
					</MiningSchema>
					<Node score="-5.952107127327418">
						<True/>
						<Node score="-3.571264276396448">
							<SimplePredicate field="double(x2)" operator="lessOrEqual" value="0.5"/>
							<Node score="2.380842850930966">
								<SimplePredicate field="double(x1)" operator="lessOrEqual" value="2.5"/>
							</Node>
						</Node>
					</Node>
				</TreeModel>
			</Segment>
			<Segment id="25">
				<True/>
				<TreeModel functionName="regression" missingValueStrategy="nullPrediction" noTrueChildStrategy="returnLastPrediction" splitCharacteristic="multiSplit">
					<MiningSchema>
						<MiningField name="x1"/>
						<MiningField name="x2"/>
					</MiningSchema>
					<Node score="-5.892586056054144">
						<True/>
						<Node score="-3.5355516336324833">
							<SimplePredicate field="double(x2)" operator="lessOrEqual" value="0.5"/>
							<Node score="2.3570344224216555">
								<SimplePredicate field="double(x1)" operator="lessOrEqual" value="2.5"/>
							</Node>
						</Node>
					</Node>
				</TreeModel>
			</Segment>
			<Segment id="26">
				<True/>
				<TreeModel functionName="regression" missingValueStrategy="nullPrediction" noTrueChildStrategy="returnLastPrediction" splitCharacteristic="multiSplit">
					<MiningSchema>
						<MiningField name="x1"/>
						<MiningField name="x2"/>
					</MiningSchema>
					<Node score="-5.833660195493602">
						<True/>
						<Node score="-3.5001961172961593">
							<SimplePredicate field="double(x2)" operator="lessOrEqual" value="0.5"/>
							<Node score="2.333464078197439">
								<SimplePredicate field="double(x1)" operator="lessOrEqual" value="2.5"/>
							</Node>
						</Node>
					</Node>
				</TreeModel>
			</Segment>
			<Segment id="27">
				<True/>
				<TreeModel functionName="regression" missingValueStrategy="nullPrediction" noTrueChildStrategy="returnLastPrediction" splitCharacteristic="multiSplit">
					<MiningSchema>
						<MiningField name="x3"/>
						<MiningField name="x1"/>
					</MiningSchema>
					<Node score="-5.7753235935386655">
						<True/>
						<Node score="-3.4651941561231983">
							<SimplePredicate field="double(x3)" operator="lessOrEqual" value="1.5"/>
							<Node score="2.3101294374154637">
								<SimplePredicate field="double(x1)" operator="lessOrEqual" value="2.5"/>
							</Node>
						</Node>
					</Node>
				</TreeModel>
			</Segment>
			<Segment id="28">
				<True/>
				<TreeModel functionName="regression" missingValueStrategy="nullPrediction" noTrueChildStrategy="returnLastPrediction" splitCharacteristic="multiSplit">
					<MiningSchema>
						<MiningField name="x1"/>
						<MiningField name="x2"/>
					</MiningSchema>
					<Node score="-5.717570357603279">
						<True/>
						<Node score="-3.4305422145619655">
							<SimplePredicate field="double(x2)" operator="lessOrEqual" value="0.5"/>
							<Node score="2.2870281430413097">
								<SimplePredicate field="double(x1)" operator="lessOrEqual" value="2.5"/>
							</Node>
						</Node>
					</Node>
				</TreeModel>
			</Segment>
			<Segment id="29">
				<True/>
				<TreeModel functionName="regression" missingValueStrategy="nullPrediction" noTrueChildStrategy="returnLastPrediction" splitCharacteristic="multiSplit">
					<MiningSchema>
						<MiningField name="x3"/>
						<MiningField name="x1"/>
					</MiningSchema>
					<Node score="-5.660394654027247">
						<True/>
						<Node score="-3.396236792416346">
							<SimplePredicate field="double(x3)" operator="lessOrEqual" value="1.5"/>
							<Node score="2.2641578616108973">
								<SimplePredicate field="double(x1)" operator="lessOrEqual" value="2.5"/>
							</Node>
						</Node>
					</Node>
				</TreeModel>
			</Segment>
			<Segment id="30">
				<True/>
				<TreeModel functionName="regression" missingValueStrategy="nullPrediction" noTrueChildStrategy="returnLastPrediction" splitCharacteristic="multiSplit">
					<MiningSchema>
						<MiningField name="x3"/>
						<MiningField name="x1"/>
					</MiningSchema>
					<Node score="-5.603790707486974">
						<True/>
						<Node score="-3.362274424492183">
							<SimplePredicate field="double(x3)" operator="lessOrEqual" value="1.5"/>
							<Node score="2.2415162829947874">
								<SimplePredicate field="double(x1)" operator="lessOrEqual" value="2.5"/>
							</Node>
						</Node>
					</Node>
				</TreeModel>
			</Segment>
			<Segment id="31">
				<True/>
				<TreeModel functionName="regression" missingValueStrategy="nullPrediction" noTrueChildStrategy="returnLastPrediction" splitCharacteristic="multiSplit">
					<MiningSchema>
						<MiningField name="x1"/>
						<MiningField name="x2"/>
					</MiningSchema>
					<Node score="-5.547752800412104">
						<True/>
						<Node score="-3.328651680247262">
							<SimplePredicate field="double(x2)" operator="lessOrEqual" value="0.5"/>
							<Node score="2.21910112016484">
								<SimplePredicate field="double(x1)" operator="lessOrEqual" value="2.5"/>
							</Node>
						</Node>
					</Node>
				</TreeModel>
			</Segment>
			<Segment id="32">
				<True/>
				<TreeModel functionName="regression" missingValueStrategy="nullPrediction" noTrueChildStrategy="returnLastPrediction" splitCharacteristic="multiSplit">
					<MiningSchema>
						<MiningField name="x3"/>
						<MiningField name="x1"/>
					</MiningSchema>
					<Node score="-5.4922752724079835">
						<True/>
						<Node score="-3.2953651634447887">
							<SimplePredicate field="double(x3)" operator="lessOrEqual" value="1.5"/>
							<Node score="2.1969101089631913">
								<SimplePredicate field="double(x1)" operator="lessOrEqual" value="2.5"/>
							</Node>
						</Node>
					</Node>
				</TreeModel>
			</Segment>
			<Segment id="33">
				<True/>
				<TreeModel functionName="regression" missingValueStrategy="nullPrediction" noTrueChildStrategy="returnLastPrediction" splitCharacteristic="multiSplit">
					<MiningSchema>
						<MiningField name="x3"/>
						<MiningField name="x1"/>
					</MiningSchema>
					<Node score="-5.437352519683904">
						<True/>
						<Node score="-3.26241151181034">
							<SimplePredicate field="double(x3)" operator="lessOrEqual" value="1.5"/>
							<Node score="2.17494100787356">
								<SimplePredicate field="double(x1)" operator="lessOrEqual" value="2.5"/>
							</Node>
						</Node>
					</Node>
				</TreeModel>
			</Segment>
			<Segment id="34">
				<True/>
				<TreeModel functionName="regression" missingValueStrategy="nullPrediction" noTrueChildStrategy="returnLastPrediction" splitCharacteristic="multiSplit">
					<MiningSchema>
						<MiningField name="x3"/>
						<MiningField name="x1"/>
					</MiningSchema>
					<Node score="-5.382978994487065">
						<True/>
						<Node score="-3.2297873966922364">
							<SimplePredicate field="double(x3)" operator="lessOrEqual" value="1.5"/>
							<Node score="2.153191597794825">
								<SimplePredicate field="double(x1)" operator="lessOrEqual" value="2.5"/>
							</Node>
						</Node>
					</Node>
				</TreeModel>
			</Segment>
			<Segment id="35">
				<True/>
				<TreeModel functionName="regression" missingValueStrategy="nullPrediction" noTrueChildStrategy="returnLastPrediction" splitCharacteristic="multiSplit">
					<MiningSchema>
						<MiningField name="x1"/>
						<MiningField name="x2"/>
					</MiningSchema>
					<Node score="-5.329149204542194">
						<True/>
						<Node score="-3.1974895227253146">
							<SimplePredicate field="double(x2)" operator="lessOrEqual" value="0.5"/>
							<Node score="2.131659681816876">
								<SimplePredicate field="double(x1)" operator="lessOrEqual" value="2.5"/>
							</Node>
						</Node>
					</Node>
				</TreeModel>
			</Segment>
			<Segment id="36">
				<True/>
				<TreeModel functionName="regression" missingValueStrategy="nullPrediction" noTrueChildStrategy="returnLastPrediction" splitCharacteristic="multiSplit">
					<MiningSchema>
						<MiningField name="x1"/>
						<MiningField name="x2"/>
					</MiningSchema>
					<Node score="-5.275857712496773">
						<True/>
						<Node score="-3.1655146274980623">
							<SimplePredicate field="double(x2)" operator="lessOrEqual" value="0.5"/>
							<Node score="2.110343084998707">
								<SimplePredicate field="double(x1)" operator="lessOrEqual" value="2.5"/>
							</Node>
						</Node>
					</Node>
				</TreeModel>
			</Segment>
			<Segment id="37">
				<True/>
				<TreeModel functionName="regression" missingValueStrategy="nullPrediction" noTrueChildStrategy="returnLastPrediction" splitCharacteristic="multiSplit">
					<MiningSchema>
						<MiningField name="x3"/>
						<MiningField name="x1"/>
					</MiningSchema>
					<Node score="-5.223099135371806">
						<True/>
						<Node score="-3.133859481223082">
							<SimplePredicate field="double(x3)" operator="lessOrEqual" value="1.5"/>
							<Node score="2.08923965414872">
								<SimplePredicate field="double(x1)" operator="lessOrEqual" value="2.5"/>
							</Node>
						</Node>
					</Node>
				</TreeModel>
			</Segment>
			<Segment id="38">
				<True/>
				<TreeModel functionName="regression" missingValueStrategy="nullPrediction" noTrueChildStrategy="returnLastPrediction" splitCharacteristic="multiSplit">
					<MiningSchema>
						<MiningField name="x1"/>
						<MiningField name="x2"/>
					</MiningSchema>
					<Node score="-5.170868144018087">
						<True/>
						<Node score="-3.1025208864108507">
							<SimplePredicate field="double(x2)" operator="lessOrEqual" value="0.5"/>
							<Node score="2.0683472576072326">
								<SimplePredicate field="double(x1)" operator="lessOrEqual" value="2.5"/>
							</Node>
						</Node>
					</Node>
				</TreeModel>
			</Segment>
			<Segment id="39">
				<True/>
				<TreeModel functionName="regression" missingValueStrategy="nullPrediction" noTrueChildStrategy="returnLastPrediction" splitCharacteristic="multiSplit">
					<MiningSchema>
						<MiningField name="x3"/>
						<MiningField name="x1"/>
					</MiningSchema>
					<Node score="-5.119159462577906">
						<True/>
						<Node score="-3.071495677546743">
							<SimplePredicate field="double(x3)" operator="lessOrEqual" value="1.5"/>
							<Node score="2.04766378503116">
								<SimplePredicate field="double(x1)" operator="lessOrEqual" value="2.5"/>
							</Node>
						</Node>
					</Node>
				</TreeModel>
			</Segment>
			<Segment id="40">
				<True/>
				<TreeModel functionName="regression" missingValueStrategy="nullPrediction" noTrueChildStrategy="returnLastPrediction" splitCharacteristic="multiSplit">
					<MiningSchema>
						<MiningField name="x3"/>
						<MiningField name="x1"/>
					</MiningSchema>
					<Node score="-5.067967867952127">
						<True/>
						<Node score="-3.0407807207712754">
							<SimplePredicate field="double(x3)" operator="lessOrEqual" value="1.5"/>
							<Node score="2.0271871471808485">
								<SimplePredicate field="double(x1)" operator="lessOrEqual" value="2.5"/>
							</Node>
						</Node>
					</Node>
				</TreeModel>
			</Segment>
			<Segment id="41">
				<True/>
				<TreeModel functionName="regression" missingValueStrategy="nullPrediction" noTrueChildStrategy="returnLastPrediction" splitCharacteristic="multiSplit">
					<MiningSchema>
						<MiningField name="x1"/>
						<MiningField name="x2"/>
					</MiningSchema>
					<Node score="-5.017288189272605">
						<True/>
						<Node score="-3.010372913563563">
							<SimplePredicate field="double(x2)" operator="lessOrEqual" value="0.5"/>
							<Node score="2.0069152757090407">
								<SimplePredicate field="double(x1)" operator="lessOrEqual" value="2.5"/>
							</Node>
						</Node>
					</Node>
				</TreeModel>
			</Segment>
			<Segment id="42">
				<True/>
				<TreeModel functionName="regression" missingValueStrategy="nullPrediction" noTrueChildStrategy="returnLastPrediction" splitCharacteristic="multiSplit">
					<MiningSchema>
						<MiningField name="x3"/>
						<MiningField name="x1"/>
					</MiningSchema>
					<Node score="-4.9671153073798795">
						<True/>
						<Node score="-2.980269184427927">
							<SimplePredicate field="double(x3)" operator="lessOrEqual" value="1.5"/>
							<Node score="1.9868461229519507">
								<SimplePredicate field="double(x1)" operator="lessOrEqual" value="2.5"/>
							</Node>
						</Node>
					</Node>
				</TreeModel>
			</Segment>
			<Segment id="43">
				<True/>
				<TreeModel functionName="regression" missingValueStrategy="nullPrediction" noTrueChildStrategy="returnLastPrediction" splitCharacteristic="multiSplit">
					<MiningSchema>
						<MiningField name="x1"/>
						<MiningField name="x2"/>
					</MiningSchema>
					<Node score="-4.9174441543060805">
						<True/>
						<Node score="-2.9504664925836472">
							<SimplePredicate field="double(x2)" operator="lessOrEqual" value="0.5"/>
							<Node score="1.9669776617224315">
								<SimplePredicate field="double(x1)" operator="lessOrEqual" value="2.5"/>
							</Node>
						</Node>
					</Node>
				</TreeModel>
			</Segment>
			<Segment id="44">
				<True/>
				<TreeModel functionName="regression" missingValueStrategy="nullPrediction" noTrueChildStrategy="returnLastPrediction" splitCharacteristic="multiSplit">
					<MiningSchema>
						<MiningField name="x3"/>
						<MiningField name="x1"/>
					</MiningSchema>
					<Node score="-4.86826971276302">
						<True/>
						<Node score="-2.920961827657811">
							<SimplePredicate field="double(x3)" operator="lessOrEqual" value="1.5"/>
							<Node score="1.9473078851052072">
								<SimplePredicate field="double(x1)" operator="lessOrEqual" value="2.5"/>
							</Node>
						</Node>
					</Node>
				</TreeModel>
			</Segment>
			<Segment id="45">
				<True/>
				<TreeModel functionName="regression" missingValueStrategy="nullPrediction" noTrueChildStrategy="returnLastPrediction" splitCharacteristic="multiSplit">
					<MiningSchema>
						<MiningField name="x1"/>
						<MiningField name="x2"/>
					</MiningSchema>
					<Node score="-4.81958701563539">
						<True/>
						<Node score="-2.8917522093812327">
							<SimplePredicate field="double(x2)" operator="lessOrEqual" value="0.5"/>
							<Node score="1.9278348062541557">
								<SimplePredicate field="double(x1)" operator="lessOrEqual" value="2.5"/>
							</Node>
						</Node>
					</Node>
				</TreeModel>
			</Segment>
			<Segment id="46">
				<True/>
				<TreeModel functionName="regression" missingValueStrategy="nullPrediction" noTrueChildStrategy="returnLastPrediction" splitCharacteristic="multiSplit">
					<MiningSchema>
						<MiningField name="x3"/>
						<MiningField name="x1"/>
					</MiningSchema>
					<Node score="-4.771391145479036">
						<True/>
						<Node score="-2.862834687287421">
							<SimplePredicate field="double(x3)" operator="lessOrEqual" value="1.5"/>
							<Node score="1.9085564581916135">
								<SimplePredicate field="double(x1)" operator="lessOrEqual" value="2.5"/>
							</Node>
						</Node>
					</Node>
				</TreeModel>
			</Segment>
			<Segment id="47">
				<True/>
				<TreeModel functionName="regression" missingValueStrategy="nullPrediction" noTrueChildStrategy="returnLastPrediction" splitCharacteristic="multiSplit">
					<MiningSchema>
						<MiningField name="x3"/>
						<MiningField name="x1"/>
					</MiningSchema>
					<Node score="-4.723677234024246">
						<True/>
						<Node score="-2.8342063404145463">
							<SimplePredicate field="double(x3)" operator="lessOrEqual" value="1.5"/>
							<Node score="1.8894708936096976">
								<SimplePredicate field="double(x1)" operator="lessOrEqual" value="2.5"/>
							</Node>
						</Node>
					</Node>
				</TreeModel>
			</Segment>
			<Segment id="48">
				<True/>
				<TreeModel functionName="regression" missingValueStrategy="nullPrediction" noTrueChildStrategy="returnLastPrediction" splitCharacteristic="multiSplit">
					<MiningSchema>
						<MiningField name="x3"/>
						<MiningField name="x1"/>
					</MiningSchema>
					<Node score="-4.6764404616840025">
						<True/>
						<Node score="-2.8058642770104">
							<SimplePredicate field="double(x3)" operator="lessOrEqual" value="1.5"/>
							<Node score="1.8705761846736007">
								<SimplePredicate field="double(x1)" operator="lessOrEqual" value="2.5"/>
							</Node>
						</Node>
					</Node>
				</TreeModel>
			</Segment>
			<Segment id="49">
				<True/>
				<TreeModel functionName="regression" missingValueStrategy="nullPrediction" noTrueChildStrategy="returnLastPrediction" splitCharacteristic="multiSplit">
					<MiningSchema>
						<MiningField name="x1"/>
						<MiningField name="x2"/>
					</MiningSchema>
					<Node score="-4.629676057067163">
						<True/>
						<Node score="-2.7778056342402966">
							<SimplePredicate field="double(x2)" operator="lessOrEqual" value="0.5"/>
							<Node score="1.851870422826865">
								<SimplePredicate field="double(x1)" operator="lessOrEqual" value="2.5"/>
							</Node>
						</Node>
					</Node>
				</TreeModel>
			</Segment>
			<Segment id="50">
				<True/>
				<TreeModel functionName="regression" missingValueStrategy="nullPrediction" noTrueChildStrategy="returnLastPrediction" splitCharacteristic="multiSplit">
					<MiningSchema>
						<MiningField name="x3"/>
						<MiningField name="x1"/>
					</MiningSchema>
					<Node score="-4.583379296496492">
						<True/>
						<Node score="-2.750027577897894">
							<SimplePredicate field="double(x3)" operator="lessOrEqual" value="1.5"/>
							<Node score="1.8333517185985961">
								<SimplePredicate field="double(x1)" operator="lessOrEqual" value="2.5"/>
							</Node>
						</Node>
					</Node>
				</TreeModel>
			</Segment>
			<Segment id="51">
				<True/>
				<TreeModel functionName="regression" missingValueStrategy="nullPrediction" noTrueChildStrategy="returnLastPrediction" splitCharacteristic="multiSplit">
					<MiningSchema>
						<MiningField name="x1"/>
						<MiningField name="x2"/>
					</MiningSchema>
					<Node score="-4.537545503531527">
						<True/>
						<Node score="-2.722527302118916">
							<SimplePredicate field="double(x2)" operator="lessOrEqual" value="0.5"/>
							<Node score="1.8150182014126095">
								<SimplePredicate field="double(x1)" operator="lessOrEqual" value="2.5"/>
							</Node>
						</Node>
					</Node>
				</TreeModel>
			</Segment>
			<Segment id="52">
				<True/>
				<TreeModel functionName="regression" missingValueStrategy="nullPrediction" noTrueChildStrategy="returnLastPrediction" splitCharacteristic="multiSplit">
					<MiningSchema>
						<MiningField name="x1"/>
						<MiningField name="x2"/>
					</MiningSchema>
					<Node score="-4.492170048496211">
						<True/>
						<Node score="-2.6953020290977268">
							<SimplePredicate field="double(x2)" operator="lessOrEqual" value="0.5"/>
							<Node score="1.7968680193984827">
								<SimplePredicate field="double(x1)" operator="lessOrEqual" value="2.5"/>
							</Node>
						</Node>
					</Node>
				</TreeModel>
			</Segment>
			<Segment id="53">
				<True/>
				<TreeModel functionName="regression" missingValueStrategy="nullPrediction" noTrueChildStrategy="returnLastPrediction" splitCharacteristic="multiSplit">
					<MiningSchema>
						<MiningField name="x1"/>
						<MiningField name="x2"/>
					</MiningSchema>
					<Node score="-4.447248348011248">
						<True/>
						<Node score="-2.66834900880675">
							<SimplePredicate field="double(x2)" operator="lessOrEqual" value="0.5"/>
							<Node score="1.7788993392044983">
								<SimplePredicate field="double(x1)" operator="lessOrEqual" value="2.5"/>
							</Node>
						</Node>
					</Node>
				</TreeModel>
			</Segment>
			<Segment id="54">
				<True/>
				<TreeModel functionName="regression" missingValueStrategy="nullPrediction" noTrueChildStrategy="returnLastPrediction" splitCharacteristic="multiSplit">
					<MiningSchema>
						<MiningField name="x1"/>
						<MiningField name="x2"/>
					</MiningSchema>
					<Node score="-4.402775864531137">
						<True/>
						<Node score="-2.641665518718682">
							<SimplePredicate field="double(x2)" operator="lessOrEqual" value="0.5"/>
							<Node score="1.7611103458124528">
								<SimplePredicate field="double(x1)" operator="lessOrEqual" value="2.5"/>
							</Node>
						</Node>
					</Node>
				</TreeModel>
			</Segment>
			<Segment id="55">
				<True/>
				<TreeModel functionName="regression" missingValueStrategy="nullPrediction" noTrueChildStrategy="returnLastPrediction" splitCharacteristic="multiSplit">
					<MiningSchema>
						<MiningField name="x3"/>
						<MiningField name="x1"/>
					</MiningSchema>
					<Node score="-4.358748105885825">
						<True/>
						<Node score="-2.6152488635314945">
							<SimplePredicate field="double(x3)" operator="lessOrEqual" value="1.5"/>
							<Node score="1.7434992423543285">
								<SimplePredicate field="double(x1)" operator="lessOrEqual" value="2.5"/>
							</Node>
						</Node>
					</Node>
				</TreeModel>
			</Segment>
			<Segment id="56">
				<True/>
				<TreeModel functionName="regression" missingValueStrategy="nullPrediction" noTrueChildStrategy="returnLastPrediction" splitCharacteristic="multiSplit">
					<MiningSchema>
						<MiningField name="x1"/>
						<MiningField name="x2"/>
					</MiningSchema>
					<Node score="-4.315160624826966">
						<True/>
						<Node score="-2.5890963748961795">
							<SimplePredicate field="double(x2)" operator="lessOrEqual" value="0.5"/>
							<Node score="1.7260642499307846">
								<SimplePredicate field="double(x1)" operator="lessOrEqual" value="2.5"/>
							</Node>
						</Node>
					</Node>
				</TreeModel>
			</Segment>
			<Segment id="57">
				<True/>
				<TreeModel functionName="regression" missingValueStrategy="nullPrediction" noTrueChildStrategy="returnLastPrediction" splitCharacteristic="multiSplit">
					<MiningSchema>
						<MiningField name="x1"/>
						<MiningField name="x2"/>
					</MiningSchema>
					<Node score="-4.2720090185786965">
						<True/>
						<Node score="-2.5632054111472176">
							<SimplePredicate field="double(x2)" operator="lessOrEqual" value="0.5"/>
							<Node score="1.7088036074314772">
								<SimplePredicate field="double(x1)" operator="lessOrEqual" value="2.5"/>
							</Node>
						</Node>
					</Node>
				</TreeModel>
			</Segment>
			<Segment id="58">
				<True/>
				<TreeModel functionName="regression" missingValueStrategy="nullPrediction" noTrueChildStrategy="returnLastPrediction" splitCharacteristic="multiSplit">
					<MiningSchema>
						<MiningField name="x1"/>
						<MiningField name="x2"/>
					</MiningSchema>
					<Node score="-4.22928892839291">
						<True/>
						<Node score="-2.537573357035745">
							<SimplePredicate field="double(x2)" operator="lessOrEqual" value="0.5"/>
							<Node score="1.6917155713571628">
								<SimplePredicate field="double(x1)" operator="lessOrEqual" value="2.5"/>
							</Node>
						</Node>
					</Node>
				</TreeModel>
			</Segment>
			<Segment id="59">
				<True/>
				<TreeModel functionName="regression" missingValueStrategy="nullPrediction" noTrueChildStrategy="returnLastPrediction" splitCharacteristic="multiSplit">
					<MiningSchema>
						<MiningField name="x3"/>
						<MiningField name="x1"/>
					</MiningSchema>
					<Node score="-4.18699603910898">
						<True/>
						<Node score="-2.512197623465388">
							<SimplePredicate field="double(x3)" operator="lessOrEqual" value="1.5"/>
							<Node score="1.6747984156435916">
								<SimplePredicate field="double(x1)" operator="lessOrEqual" value="2.5"/>
							</Node>
						</Node>
					</Node>
				</TreeModel>
			</Segment>
			<Segment id="60">
				<True/>
				<TreeModel functionName="regression" missingValueStrategy="nullPrediction" noTrueChildStrategy="returnLastPrediction" splitCharacteristic="multiSplit">
					<MiningSchema>
						<MiningField name="x1"/>
						<MiningField name="x2"/>
					</MiningSchema>
					<Node score="-4.14512607871789">
						<True/>
						<Node score="-2.487075647230734">
							<SimplePredicate field="double(x2)" operator="lessOrEqual" value="0.5"/>
							<Node score="1.6580504314871565">
								<SimplePredicate field="double(x1)" operator="lessOrEqual" value="2.5"/>
							</Node>
						</Node>
					</Node>
				</TreeModel>
			</Segment>
			<Segment id="61">
				<True/>
				<TreeModel functionName="regression" missingValueStrategy="nullPrediction" noTrueChildStrategy="returnLastPrediction" splitCharacteristic="multiSplit">
					<MiningSchema>
						<MiningField name="x3"/>
						<MiningField name="x1"/>
					</MiningSchema>
					<Node score="-4.103674817930711">
						<True/>
						<Node score="-2.462204890758427">
							<SimplePredicate field="double(x3)" operator="lessOrEqual" value="1.5"/>
							<Node score="1.6414699271722846">
								<SimplePredicate field="double(x1)" operator="lessOrEqual" value="2.5"/>
							</Node>
						</Node>
					</Node>
				</TreeModel>
			</Segment>
			<Segment id="62">
				<True/>
				<TreeModel functionName="regression" missingValueStrategy="nullPrediction" noTrueChildStrategy="returnLastPrediction" splitCharacteristic="multiSplit">
					<MiningSchema>
						<MiningField name="x1"/>
						<MiningField name="x2"/>
					</MiningSchema>
					<Node score="-4.062638069751404">
						<True/>
						<Node score="-2.4375828418508423">
							<SimplePredicate field="double(x2)" operator="lessOrEqual" value="0.5"/>
							<Node score="1.6250552279005621">
								<SimplePredicate field="double(x1)" operator="lessOrEqual" value="2.5"/>
							</Node>
						</Node>
					</Node>
				</TreeModel>
			</Segment>
			<Segment id="63">
				<True/>
				<TreeModel functionName="regression" missingValueStrategy="nullPrediction" noTrueChildStrategy="returnLastPrediction" splitCharacteristic="multiSplit">
					<MiningSchema>
						<MiningField name="x1"/>
						<MiningField name="x2"/>
					</MiningSchema>
					<Node score="-4.02201168905389">
						<True/>
						<Node score="-2.4132070134323342">
							<SimplePredicate field="double(x2)" operator="lessOrEqual" value="0.5"/>
							<Node score="1.6088046756215562">
								<SimplePredicate field="double(x1)" operator="lessOrEqual" value="2.5"/>
							</Node>
						</Node>
					</Node>
				</TreeModel>
			</Segment>
			<Segment id="64">
				<True/>
				<TreeModel functionName="regression" missingValueStrategy="nullPrediction" noTrueChildStrategy="returnLastPrediction" splitCharacteristic="multiSplit">
					<MiningSchema>
						<MiningField name="x1"/>
						<MiningField name="x2"/>
					</MiningSchema>
					<Node score="-3.981791572163351">
						<True/>
						<Node score="-2.389074943298011">
							<SimplePredicate field="double(x2)" operator="lessOrEqual" value="0.5"/>
							<Node score="1.5927166288653414">
								<SimplePredicate field="double(x1)" operator="lessOrEqual" value="2.5"/>
							</Node>
						</Node>
					</Node>
				</TreeModel>
			</Segment>
			<Segment id="65">
				<True/>
				<TreeModel functionName="regression" missingValueStrategy="nullPrediction" noTrueChildStrategy="returnLastPrediction" splitCharacteristic="multiSplit">
					<MiningSchema>
						<MiningField name="x1"/>
						<MiningField name="x2"/>
					</MiningSchema>
					<Node score="-3.941973656441718">
						<True/>
						<Node score="-2.3651841938650318">
							<SimplePredicate field="double(x2)" operator="lessOrEqual" value="0.5"/>
							<Node score="1.5767894625766878">
								<SimplePredicate field="double(x1)" operator="lessOrEqual" value="2.5"/>
							</Node>
						</Node>
					</Node>
				</TreeModel>
			</Segment>
			<Segment id="66">
				<True/>
				<TreeModel functionName="regression" missingValueStrategy="nullPrediction" noTrueChildStrategy="returnLastPrediction" splitCharacteristic="multiSplit">
					<MiningSchema>
						<MiningField name="x3"/>
						<MiningField name="x1"/>
					</MiningSchema>
					<Node score="-3.9025539198773007">
						<True/>
						<Node score="-2.341532351926382">
							<SimplePredicate field="double(x3)" operator="lessOrEqual" value="1.5"/>
							<Node score="1.5610215679509203">
								<SimplePredicate field="double(x1)" operator="lessOrEqual" value="2.5"/>
							</Node>
						</Node>
					</Node>
				</TreeModel>
			</Segment>
			<Segment id="67">
				<True/>
				<TreeModel functionName="regression" missingValueStrategy="nullPrediction" noTrueChildStrategy="returnLastPrediction" splitCharacteristic="multiSplit">
					<MiningSchema>
						<MiningField name="x1"/>
						<MiningField name="x2"/>
					</MiningSchema>
					<Node score="-3.8635283806785274">
						<True/>
						<Node score="-2.3181170284071175">
							<SimplePredicate field="double(x2)" operator="lessOrEqual" value="0.5"/>
							<Node score="1.5454113522714117">
								<SimplePredicate field="double(x1)" operator="lessOrEqual" value="2.5"/>
							</Node>
						</Node>
					</Node>
				</TreeModel>
			</Segment>
			<Segment id="68">
				<True/>
				<TreeModel functionName="regression" missingValueStrategy="nullPrediction" noTrueChildStrategy="returnLastPrediction" splitCharacteristic="multiSplit">
					<MiningSchema>
						<MiningField name="x3"/>
						<MiningField name="x1"/>
					</MiningSchema>
					<Node score="-3.824893096871742">
						<True/>
						<Node score="-2.294935858123047">
							<SimplePredicate field="double(x3)" operator="lessOrEqual" value="1.5"/>
							<Node score="1.5299572387486968">
								<SimplePredicate field="double(x1)" operator="lessOrEqual" value="2.5"/>
							</Node>
						</Node>
					</Node>
				</TreeModel>
			</Segment>
			<Segment id="69">
				<True/>
				<TreeModel functionName="regression" missingValueStrategy="nullPrediction" noTrueChildStrategy="returnLastPrediction" splitCharacteristic="multiSplit">
					<MiningSchema>
						<MiningField name="x1"/>
						<MiningField name="x2"/>
					</MiningSchema>
					<Node score="-3.7866441659030254">
						<True/>
						<Node score="-2.271986499541816">
							<SimplePredicate field="double(x2)" operator="lessOrEqual" value="0.5"/>
							<Node score="1.5146576663612095">
								<SimplePredicate field="double(x1)" operator="lessOrEqual" value="2.5"/>
							</Node>
						</Node>
					</Node>
				</TreeModel>
			</Segment>
			<Segment id="70">
				<True/>
				<TreeModel functionName="regression" missingValueStrategy="nullPrediction" noTrueChildStrategy="returnLastPrediction" splitCharacteristic="multiSplit">
					<MiningSchema>
						<MiningField name="x3"/>
						<MiningField name="x1"/>
					</MiningSchema>
					<Node score="-3.748777724243995">
						<True/>
						<Node score="-2.249266634546398">
							<SimplePredicate field="double(x3)" operator="lessOrEqual" value="1.5"/>
							<Node score="1.4995110896975987">
								<SimplePredicate field="double(x1)" operator="lessOrEqual" value="2.5"/>
							</Node>
						</Node>
					</Node>
				</TreeModel>
			</Segment>
			<Segment id="71">
				<True/>
				<TreeModel functionName="regression" missingValueStrategy="nullPrediction" noTrueChildStrategy="returnLastPrediction" splitCharacteristic="multiSplit">
					<MiningSchema>
						<MiningField name="x3"/>
						<MiningField name="x1"/>
					</MiningSchema>
					<Node score="-3.7112899470015552">
						<True/>
						<Node score="-2.226773968200934">
							<SimplePredicate field="double(x3)" operator="lessOrEqual" value="1.5"/>
							<Node score="1.4845159788006228">
								<SimplePredicate field="double(x1)" operator="lessOrEqual" value="2.5"/>
							</Node>
						</Node>
					</Node>
				</TreeModel>
			</Segment>
			<Segment id="72">
				<True/>
				<TreeModel functionName="regression" missingValueStrategy="nullPrediction" noTrueChildStrategy="returnLastPrediction" splitCharacteristic="multiSplit">
					<MiningSchema>
						<MiningField name="x1"/>
						<MiningField name="x2"/>
					</MiningSchema>
					<Node score="-3.67417704753154">
						<True/>
						<Node score="-2.204506228518925">
							<SimplePredicate field="double(x2)" operator="lessOrEqual" value="0.5"/>
							<Node score="1.4696708190126166">
								<SimplePredicate field="double(x1)" operator="lessOrEqual" value="2.5"/>
							</Node>
						</Node>
					</Node>
				</TreeModel>
			</Segment>
			<Segment id="73">
				<True/>
				<TreeModel functionName="regression" missingValueStrategy="nullPrediction" noTrueChildStrategy="returnLastPrediction" splitCharacteristic="multiSplit">
					<MiningSchema>
						<MiningField name="x1"/>
						<MiningField name="x2"/>
					</MiningSchema>
					<Node score="-3.637435277056225">
						<True/>
						<Node score="-2.182461166233736">
							<SimplePredicate field="double(x2)" operator="lessOrEqual" value="0.5"/>
							<Node score="1.4549741108224907">
								<SimplePredicate field="double(x1)" operator="lessOrEqual" value="2.5"/>
							</Node>
						</Node>
					</Node>
				</TreeModel>
			</Segment>
			<Segment id="74">
				<True/>
				<TreeModel functionName="regression" missingValueStrategy="nullPrediction" noTrueChildStrategy="returnLastPrediction" splitCharacteristic="multiSplit">
					<MiningSchema>
						<MiningField name="x3"/>
						<MiningField name="x1"/>
					</MiningSchema>
					<Node score="-3.6010609242856635">
						<True/>
						<Node score="-2.160636554571399">
							<SimplePredicate field="double(x3)" operator="lessOrEqual" value="1.5"/>
							<Node score="1.4404243697142647">
								<SimplePredicate field="double(x1)" operator="lessOrEqual" value="2.5"/>
							</Node>
						</Node>
					</Node>
				</TreeModel>
			</Segment>
			<Segment id="75">
				<True/>
				<TreeModel functionName="regression" missingValueStrategy="nullPrediction" noTrueChildStrategy="returnLastPrediction" splitCharacteristic="multiSplit">
					<MiningSchema>
						<MiningField name="x1"/>
						<MiningField name="x2"/>
					</MiningSchema>
					<Node score="-3.5650503150428072">
						<True/>
						<Node score="-2.139030189025684">
							<SimplePredicate field="double(x2)" operator="lessOrEqual" value="0.5"/>
							<Node score="1.4260201260171215">
								<SimplePredicate field="double(x1)" operator="lessOrEqual" value="2.5"/>
							</Node>
						</Node>
					</Node>
				</TreeModel>
			</Segment>
			<Segment id="76">
				<True/>
				<TreeModel functionName="regression" missingValueStrategy="nullPrediction" noTrueChildStrategy="returnLastPrediction" splitCharacteristic="multiSplit">
					<MiningSchema>
						<MiningField name="x3"/>
						<MiningField name="x1"/>
					</MiningSchema>
					<Node score="-3.529399811892379">
						<True/>
						<Node score="-2.117639887135427">
							<SimplePredicate field="double(x3)" operator="lessOrEqual" value="1.5"/>
							<Node score="1.4117599247569501">
								<SimplePredicate field="double(x1)" operator="lessOrEqual" value="2.5"/>
							</Node>
						</Node>
					</Node>
				</TreeModel>
			</Segment>
			<Segment id="77">
				<True/>
				<TreeModel functionName="regression" missingValueStrategy="nullPrediction" noTrueChildStrategy="returnLastPrediction" splitCharacteristic="multiSplit">
					<MiningSchema>
						<MiningField name="x3"/>
						<MiningField name="x1"/>
					</MiningSchema>
					<Node score="-3.494105813773455">
						<True/>
						<Node score="-2.0964634882640727">
							<SimplePredicate field="double(x3)" operator="lessOrEqual" value="1.5"/>
							<Node score="1.3976423255093806">
								<SimplePredicate field="double(x1)" operator="lessOrEqual" value="2.5"/>
							</Node>
						</Node>
					</Node>
				</TreeModel>
			</Segment>
			<Segment id="78">
				<True/>
				<TreeModel functionName="regression" missingValueStrategy="nullPrediction" noTrueChildStrategy="returnLastPrediction" splitCharacteristic="multiSplit">
					<MiningSchema>
						<MiningField name="x3"/>
						<MiningField name="x1"/>
					</MiningSchema>
					<Node score="-3.4591647556357206">
						<True/>
						<Node score="-2.0754988533814327">
							<SimplePredicate field="double(x3)" operator="lessOrEqual" value="1.5"/>
							<Node score="1.383665902254286">
								<SimplePredicate field="double(x1)" operator="lessOrEqual" value="2.5"/>
							</Node>
						</Node>
					</Node>
				</TreeModel>
			</Segment>
			<Segment id="79">
				<True/>
				<TreeModel functionName="regression" missingValueStrategy="nullPrediction" noTrueChildStrategy="returnLastPrediction" splitCharacteristic="multiSplit">
					<MiningSchema>
						<MiningField name="x1"/>
						<MiningField name="x2"/>
					</MiningSchema>
					<Node score="-3.424573108079363">
						<True/>
						<Node score="-2.0547438648476177">
							<SimplePredicate field="double(x2)" operator="lessOrEqual" value="0.5"/>
							<Node score="1.3698292432317416">
								<SimplePredicate field="double(x1)" operator="lessOrEqual" value="2.5"/>
							</Node>
						</Node>
					</Node>
				</TreeModel>
			</Segment>
			<Segment id="80">
				<True/>
				<TreeModel functionName="regression" missingValueStrategy="nullPrediction" noTrueChildStrategy="returnLastPrediction" splitCharacteristic="multiSplit">
					<MiningSchema>
						<MiningField name="x3"/>
						<MiningField name="x1"/>
					</MiningSchema>
					<Node score="-3.3903273769985685">
						<True/>
						<Node score="-2.0341964261991414">
							<SimplePredicate field="double(x3)" operator="lessOrEqual" value="1.5"/>
							<Node score="1.3561309507994252">
								<SimplePredicate field="double(x1)" operator="lessOrEqual" value="2.5"/>
							</Node>
						</Node>
					</Node>
				</TreeModel>
			</Segment>
			<Segment id="81">
				<True/>
				<TreeModel functionName="regression" missingValueStrategy="nullPrediction" noTrueChildStrategy="returnLastPrediction" splitCharacteristic="multiSplit">
					<MiningSchema>
						<MiningField name="x3"/>
						<MiningField name="x1"/>
					</MiningSchema>
					<Node score="-3.3564241032285835">
						<True/>
						<Node score="-2.01385446193715">
							<SimplePredicate field="double(x3)" operator="lessOrEqual" value="1.5"/>
							<Node score="1.3425696412914299">
								<SimplePredicate field="double(x1)" operator="lessOrEqual" value="2.5"/>
							</Node>
						</Node>
					</Node>
				</TreeModel>
			</Segment>
			<Segment id="82">
				<True/>
				<TreeModel functionName="regression" missingValueStrategy="nullPrediction" noTrueChildStrategy="returnLastPrediction" splitCharacteristic="multiSplit">
					<MiningSchema>
						<MiningField name="x3"/>
						<MiningField name="x1"/>
					</MiningSchema>
					<Node score="-3.3228598621962977">
						<True/>
						<Node score="-1.993715917317779">
							<SimplePredicate field="double(x3)" operator="lessOrEqual" value="1.5"/>
							<Node score="1.329143944878517">
								<SimplePredicate field="double(x1)" operator="lessOrEqual" value="2.5"/>
							</Node>
						</Node>
					</Node>
				</TreeModel>
			</Segment>
			<Segment id="83">
				<True/>
				<TreeModel functionName="regression" missingValueStrategy="nullPrediction" noTrueChildStrategy="returnLastPrediction" splitCharacteristic="multiSplit">
					<MiningSchema>
						<MiningField name="x1"/>
						<MiningField name="x2"/>
					</MiningSchema>
					<Node score="-3.289631263574334">
						<True/>
						<Node score="-1.9737787581446007">
							<SimplePredicate field="double(x2)" operator="lessOrEqual" value="0.5"/>
							<Node score="1.3158525054297314">
								<SimplePredicate field="double(x1)" operator="lessOrEqual" value="2.5"/>
							</Node>
						</Node>
					</Node>
				</TreeModel>
			</Segment>
			<Segment id="84">
				<True/>
				<TreeModel functionName="regression" missingValueStrategy="nullPrediction" noTrueChildStrategy="returnLastPrediction" splitCharacteristic="multiSplit">
					<MiningSchema>
						<MiningField name="x1"/>
						<MiningField name="x2"/>
					</MiningSchema>
					<Node score="-3.25673495093859">
						<True/>
						<Node score="-1.9540409705631543">
							<SimplePredicate field="double(x2)" operator="lessOrEqual" value="0.5"/>
							<Node score="1.3026939803754338">
								<SimplePredicate field="double(x1)" operator="lessOrEqual" value="2.5"/>
							</Node>
						</Node>
					</Node>
				</TreeModel>
			</Segment>
			<Segment id="85">
				<True/>
				<TreeModel functionName="regression" missingValueStrategy="nullPrediction" noTrueChildStrategy="returnLastPrediction" splitCharacteristic="multiSplit">
					<MiningSchema>
						<MiningField name="x1"/>
						<MiningField name="x2"/>
					</MiningSchema>
					<Node score="-3.2241676014292047">
						<True/>
						<Node score="-1.934500560857522">
							<SimplePredicate field="double(x2)" operator="lessOrEqual" value="0.5"/>
							<Node score="1.289667040571679">
								<SimplePredicate field="double(x1)" operator="lessOrEqual" value="2.5"/>
							</Node>
						</Node>
					</Node>
				</TreeModel>
			</Segment>
			<Segment id="86">
				<True/>
				<TreeModel functionName="regression" missingValueStrategy="nullPrediction" noTrueChildStrategy="returnLastPrediction" splitCharacteristic="multiSplit">
					<MiningSchema>
						<MiningField name="x1"/>
						<MiningField name="x2"/>
					</MiningSchema>
					<Node score="-3.191925925414912">
						<True/>
						<Node score="-1.9151555552489476">
							<SimplePredicate field="double(x2)" operator="lessOrEqual" value="0.5"/>
							<Node score="1.2767703701659627">
								<SimplePredicate field="double(x1)" operator="lessOrEqual" value="2.5"/>
							</Node>
						</Node>
					</Node>
				</TreeModel>
			</Segment>
			<Segment id="87">
				<True/>
				<TreeModel functionName="regression" missingValueStrategy="nullPrediction" noTrueChildStrategy="returnLastPrediction" splitCharacteristic="multiSplit">
					<MiningSchema>
						<MiningField name="x3"/>
						<MiningField name="x1"/>
					</MiningSchema>
					<Node score="-3.160006666160763">
						<True/>
						<Node score="-1.8960039996964575">
							<SimplePredicate field="double(x3)" operator="lessOrEqual" value="1.5"/>
							<Node score="1.2640026664643038">
								<SimplePredicate field="double(x1)" operator="lessOrEqual" value="2.5"/>
							</Node>
						</Node>
					</Node>
				</TreeModel>
			</Segment>
			<Segment id="88">
				<True/>
				<TreeModel functionName="regression" missingValueStrategy="nullPrediction" noTrueChildStrategy="returnLastPrediction" splitCharacteristic="multiSplit">
					<MiningSchema>
						<MiningField name="x3"/>
						<MiningField name="x1"/>
					</MiningSchema>
					<Node score="-3.128406599499156">
						<True/>
						<Node score="-1.8770439596994937">
							<SimplePredicate field="double(x3)" operator="lessOrEqual" value="1.5"/>
							<Node score="1.2513626397996624">
								<SimplePredicate field="double(x1)" operator="lessOrEqual" value="2.5"/>
							</Node>
						</Node>
					</Node>
				</TreeModel>
			</Segment>
			<Segment id="89">
				<True/>
				<TreeModel functionName="regression" missingValueStrategy="nullPrediction" noTrueChildStrategy="returnLastPrediction" splitCharacteristic="multiSplit">
					<MiningSchema>
						<MiningField name="x1"/>
						<MiningField name="x2"/>
					</MiningSchema>
					<Node score="-3.097122533504164">
						<True/>
						<Node score="-1.8582735201024985">
							<SimplePredicate field="double(x2)" operator="lessOrEqual" value="0.5"/>
							<Node score="1.2388490134016656">
								<SimplePredicate field="double(x1)" operator="lessOrEqual" value="2.5"/>
							</Node>
						</Node>
					</Node>
				</TreeModel>
			</Segment>
			<Segment id="90">
				<True/>
				<TreeModel functionName="regression" missingValueStrategy="nullPrediction" noTrueChildStrategy="returnLastPrediction" splitCharacteristic="multiSplit">
					<MiningSchema>
						<MiningField name="x3"/>
						<MiningField name="x1"/>
					</MiningSchema>
					<Node score="-3.066151308169122">
						<True/>
						<Node score="-1.8396907849014728">
							<SimplePredicate field="double(x3)" operator="lessOrEqual" value="1.5"/>
							<Node score="1.2264605232676473">
								<SimplePredicate field="double(x1)" operator="lessOrEqual" value="2.5"/>
							</Node>
						</Node>
					</Node>
				</TreeModel>
			</Segment>
			<Segment id="91">
				<True/>
				<TreeModel functionName="regression" missingValueStrategy="nullPrediction" noTrueChildStrategy="returnLastPrediction" splitCharacteristic="multiSplit">
					<MiningSchema>
						<MiningField name="x3"/>
						<MiningField name="x1"/>
					</MiningSchema>
					<Node score="-3.0354897950874307">
						<True/>
						<Node score="-1.821293877052458">
							<SimplePredicate field="double(x3)" operator="lessOrEqual" value="1.5"/>
							<Node score="1.2141959180349708">
								<SimplePredicate field="double(x1)" operator="lessOrEqual" value="2.5"/>
							</Node>
						</Node>
					</Node>
				</TreeModel>
			</Segment>
			<Segment id="92">
				<True/>
				<TreeModel functionName="regression" missingValueStrategy="nullPrediction" noTrueChildStrategy="returnLastPrediction" splitCharacteristic="multiSplit">
					<MiningSchema>
						<MiningField name="x1"/>
						<MiningField name="x2"/>
					</MiningSchema>
					<Node score="-3.005134897136557">
						<True/>
						<Node score="-1.8030809382819335">
							<SimplePredicate field="double(x2)" operator="lessOrEqual" value="0.5"/>
							<Node score="1.20205395885462">
								<SimplePredicate field="double(x1)" operator="lessOrEqual" value="2.5"/>
							</Node>
						</Node>
					</Node>
				</TreeModel>
			</Segment>
			<Segment id="93">
				<True/>
				<TreeModel functionName="regression" missingValueStrategy="nullPrediction" noTrueChildStrategy="returnLastPrediction" splitCharacteristic="multiSplit">
					<MiningSchema>
						<MiningField name="x1"/>
						<MiningField name="x2"/>
					</MiningSchema>
					<Node score="-2.975083548165191">
						<True/>
						<Node score="-1.7850501288991136">
							<SimplePredicate field="double(x2)" operator="lessOrEqual" value="0.5"/>
							<Node score="1.1900334192660722">
								<SimplePredicate field="double(x1)" operator="lessOrEqual" value="2.5"/>
							</Node>
						</Node>
					</Node>
				</TreeModel>
			</Segment>
			<Segment id="94">
				<True/>
				<TreeModel functionName="regression" missingValueStrategy="nullPrediction" noTrueChildStrategy="returnLastPrediction" splitCharacteristic="multiSplit">
					<MiningSchema>
						<MiningField name="x3"/>
						<MiningField name="x1"/>
					</MiningSchema>
					<Node score="-2.9453327126835394">
						<True/>
						<Node score="-1.7671996276101218">
							<SimplePredicate field="double(x3)" operator="lessOrEqual" value="1.5"/>
							<Node score="1.1781330850734122">
								<SimplePredicate field="double(x1)" operator="lessOrEqual" value="2.5"/>
							</Node>
						</Node>
					</Node>
				</TreeModel>
			</Segment>
			<Segment id="95">
				<True/>
				<TreeModel functionName="regression" missingValueStrategy="nullPrediction" noTrueChildStrategy="returnLastPrediction" splitCharacteristic="multiSplit">
					<MiningSchema>
						<MiningField name="x1"/>
						<MiningField name="x2"/>
					</MiningSchema>
					<Node score="-2.9158793855567033">
						<True/>
						<Node score="-1.7495276313340202">
							<SimplePredicate field="double(x2)" operator="lessOrEqual" value="0.5"/>
							<Node score="1.1663517542226778">
								<SimplePredicate field="double(x1)" operator="lessOrEqual" value="2.5"/>
							</Node>
						</Node>
					</Node>
				</TreeModel>
			</Segment>
			<Segment id="96">
				<True/>
				<TreeModel functionName="regression" missingValueStrategy="nullPrediction" noTrueChildStrategy="returnLastPrediction" splitCharacteristic="multiSplit">
					<MiningSchema>
						<MiningField name="x1"/>
						<MiningField name="x2"/>
					</MiningSchema>
					<Node score="-2.8867205917011365">
						<True/>
						<Node score="-1.7320323550206798">
							<SimplePredicate field="double(x2)" operator="lessOrEqual" value="0.5"/>
							<Node score="1.1546882366804496">
								<SimplePredicate field="double(x1)" operator="lessOrEqual" value="2.5"/>
							</Node>
						</Node>
					</Node>
				</TreeModel>
			</Segment>
			<Segment id="97">
				<True/>
				<TreeModel functionName="regression" missingValueStrategy="nullPrediction" noTrueChildStrategy="returnLastPrediction" splitCharacteristic="multiSplit">
					<MiningSchema>
						<MiningField name="x3"/>
						<MiningField name="x1"/>
					</MiningSchema>
					<Node score="-2.857853385784125">
						<True/>
						<Node score="-1.714712031470473">
							<SimplePredicate field="double(x3)" operator="lessOrEqual" value="1.5"/>
							<Node score="1.143141354313645">
								<SimplePredicate field="double(x1)" operator="lessOrEqual" value="2.5"/>
							</Node>
						</Node>
					</Node>
				</TreeModel>
			</Segment>
			<Segment id="98">
				<True/>
				<TreeModel functionName="regression" missingValueStrategy="nullPrediction" noTrueChildStrategy="returnLastPrediction" splitCharacteristic="multiSplit">
					<MiningSchema>
						<MiningField name="x1"/>
						<MiningField name="x2"/>
					</MiningSchema>
					<Node score="-2.829274851926284">
						<True/>
						<Node score="-1.6975649111557676">
							<SimplePredicate field="double(x2)" operator="lessOrEqual" value="0.5"/>
							<Node score="1.1317099407705093">
								<SimplePredicate field="double(x1)" operator="lessOrEqual" value="2.5"/>
							</Node>
						</Node>
					</Node>
				</TreeModel>
			</Segment>
			<Segment id="99">
				<True/>
				<TreeModel functionName="regression" missingValueStrategy="nullPrediction" noTrueChildStrategy="returnLastPrediction" splitCharacteristic="multiSplit">
					<MiningSchema>
						<MiningField name="x3"/>
						<MiningField name="x1"/>
					</MiningSchema>
					<Node score="-2.800982103407021">
						<True/>
						<Node score="-1.6805892620442098">
							<SimplePredicate field="double(x3)" operator="lessOrEqual" value="1.5"/>
							<Node score="1.1203928413628041">
								<SimplePredicate field="double(x1)" operator="lessOrEqual" value="2.5"/>
							</Node>
						</Node>
					</Node>
				</TreeModel>
			</Segment>
			<Segment id="100">
				<True/>
				<TreeModel functionName="regression" missingValueStrategy="nullPrediction" noTrueChildStrategy="returnLastPrediction" splitCharacteristic="multiSplit">
					<MiningSchema>
						<MiningField name="x3"/>
						<MiningField name="x1"/>
					</MiningSchema>
					<Node score="-2.772972282372951">
						<True/>
						<Node score="-1.6637833694237685">
							<SimplePredicate field="double(x3)" operator="lessOrEqual" value="1.5"/>
							<Node score="1.1091889129491754">
								<SimplePredicate field="double(x1)" operator="lessOrEqual" value="2.5"/>
							</Node>
						</Node>
					</Node>
				</TreeModel>
			</Segment>
			<Segment id="101">
				<True/>
				<TreeModel functionName="regression" missingValueStrategy="nullPrediction" noTrueChildStrategy="returnLastPrediction" splitCharacteristic="multiSplit">
					<MiningSchema>
						<MiningField name="x3"/>
						<MiningField name="x1"/>
					</MiningSchema>
					<Node score="-2.7452425595492222">
						<True/>
						<Node score="-1.6471455357295302">
							<SimplePredicate field="double(x3)" operator="lessOrEqual" value="1.5"/>
							<Node score="1.0980970238196832">
								<SimplePredicate field="double(x1)" operator="lessOrEqual" value="2.5"/>
							</Node>
						</Node>
					</Node>
				</TreeModel>
			</Segment>
			<Segment id="102">
				<True/>
				<TreeModel functionName="regression" missingValueStrategy="nullPrediction" noTrueChildStrategy="returnLastPrediction" splitCharacteristic="multiSplit">
					<MiningSchema>
						<MiningField name="x1"/>
						<MiningField name="x2"/>
					</MiningSchema>
					<Node score="-2.7177901339537307">
						<True/>
						<Node score="-1.6306740803722342">
							<SimplePredicate field="double(x2)" operator="lessOrEqual" value="0.5"/>
							<Node score="1.0871160535814859">
								<SimplePredicate field="double(x1)" operator="lessOrEqual" value="2.5"/>
							</Node>
						</Node>
					</Node>
				</TreeModel>
			</Segment>
			<Segment id="103">
				<True/>
				<TreeModel functionName="regression" missingValueStrategy="nullPrediction" noTrueChildStrategy="returnLastPrediction" splitCharacteristic="multiSplit">
					<MiningSchema>
						<MiningField name="x3"/>
						<MiningField name="x1"/>
					</MiningSchema>
					<Node score="-2.6906122326141926">
						<True/>
						<Node score="-1.6143673395685116">
							<SimplePredicate field="double(x3)" operator="lessOrEqual" value="1.5"/>
							<Node score="1.076244893045672">
								<SimplePredicate field="double(x1)" operator="lessOrEqual" value="2.5"/>
							</Node>
						</Node>
					</Node>
				</TreeModel>
			</Segment>
			<Segment id="104">
				<True/>
				<TreeModel functionName="regression" missingValueStrategy="nullPrediction" noTrueChildStrategy="returnLastPrediction" splitCharacteristic="multiSplit">
					<MiningSchema>
						<MiningField name="x1"/>
						<MiningField name="x2"/>
					</MiningSchema>
					<Node score="-2.66370611028805">
						<True/>
						<Node score="-1.5982236661728262">
							<SimplePredicate field="double(x2)" operator="lessOrEqual" value="0.5"/>
							<Node score="1.065482444115215">
								<SimplePredicate field="double(x1)" operator="lessOrEqual" value="2.5"/>
							</Node>
						</Node>
					</Node>
				</TreeModel>
			</Segment>
			<Segment id="105">
				<True/>
				<TreeModel functionName="regression" missingValueStrategy="nullPrediction" noTrueChildStrategy="returnLastPrediction" splitCharacteristic="multiSplit">
					<MiningSchema>
						<MiningField name="x3"/>
						<MiningField name="x1"/>
					</MiningSchema>
					<Node score="-2.63706904918517">
						<True/>
						<Node score="-1.5822414295110985">
							<SimplePredicate field="double(x3)" operator="lessOrEqual" value="1.5"/>
							<Node score="1.0548276196740645">
								<SimplePredicate field="double(x1)" operator="lessOrEqual" value="2.5"/>
							</Node>
						</Node>
					</Node>
				</TreeModel>
			</Segment>
			<Segment id="106">
				<True/>
				<TreeModel functionName="regression" missingValueStrategy="nullPrediction" noTrueChildStrategy="returnLastPrediction" splitCharacteristic="multiSplit">
					<MiningSchema>
						<MiningField name="x3"/>
						<MiningField name="x1"/>
					</MiningSchema>
					<Node score="-2.610698358693318">
						<True/>
						<Node score="-1.5664190152159883">
							<SimplePredicate field="double(x3)" operator="lessOrEqual" value="1.5"/>
							<Node score="1.0442793434773243">
								<SimplePredicate field="double(x1)" operator="lessOrEqual" value="2.5"/>
							</Node>
						</Node>
					</Node>
				</TreeModel>
			</Segment>
			<Segment id="107">
				<True/>
				<TreeModel functionName="regression" missingValueStrategy="nullPrediction" noTrueChildStrategy="returnLastPrediction" splitCharacteristic="multiSplit">
					<MiningSchema>
						<MiningField name="x1"/>
						<MiningField name="x2"/>
					</MiningSchema>
					<Node score="-2.5845913751063847">
						<True/>
						<Node score="-1.5507548250638283">
							<SimplePredicate field="double(x2)" operator="lessOrEqual" value="0.5"/>
							<Node score="1.033836550042551">
								<SimplePredicate field="double(x1)" operator="lessOrEqual" value="2.5"/>
							</Node>
						</Node>
					</Node>
				</TreeModel>
			</Segment>
			<Segment id="108">
				<True/>
				<TreeModel functionName="regression" missingValueStrategy="nullPrediction" noTrueChildStrategy="returnLastPrediction" splitCharacteristic="multiSplit">
					<MiningSchema>
						<MiningField name="x3"/>
						<MiningField name="x1"/>
					</MiningSchema>
					<Node score="-2.55874546135532">
						<True/>
						<Node score="-1.5352472768131893">
							<SimplePredicate field="double(x3)" operator="lessOrEqual" value="1.5"/>
							<Node score="1.0234981845421238">
								<SimplePredicate field="double(x1)" operator="lessOrEqual" value="2.5"/>
							</Node>
						</Node>
					</Node>
				</TreeModel>
			</Segment>
			<Segment id="109">
				<True/>
				<TreeModel functionName="regression" missingValueStrategy="nullPrediction" noTrueChildStrategy="returnLastPrediction" splitCharacteristic="multiSplit">
					<MiningSchema>
						<MiningField name="x3"/>
						<MiningField name="x1"/>
					</MiningSchema>
					<Node score="-2.5331580067417665">
						<True/>
						<Node score="-1.519894804045057">
							<SimplePredicate field="double(x3)" operator="lessOrEqual" value="1.5"/>
							<Node score="1.0132632026967023">
								<SimplePredicate field="double(x1)" operator="lessOrEqual" value="2.5"/>
							</Node>
						</Node>
					</Node>
				</TreeModel>
			</Segment>
			<Segment id="110">
				<True/>
				<TreeModel functionName="regression" missingValueStrategy="nullPrediction" noTrueChildStrategy="returnLastPrediction" splitCharacteristic="multiSplit">
					<MiningSchema>
						<MiningField name="x3"/>
						<MiningField name="x1"/>
					</MiningSchema>
					<Node score="-2.507826426674349">
						<True/>
						<Node score="-1.5046958560046058">
							<SimplePredicate field="double(x3)" operator="lessOrEqual" value="1.5"/>
							<Node score="1.003130570669736">
								<SimplePredicate field="double(x1)" operator="lessOrEqual" value="2.5"/>
							</Node>
						</Node>
					</Node>
				</TreeModel>
			</Segment>
			<Segment id="111">
				<True/>
				<TreeModel functionName="regression" missingValueStrategy="nullPrediction" noTrueChildStrategy="returnLastPrediction" splitCharacteristic="multiSplit">
					<MiningSchema>
						<MiningField name="x1"/>
						<MiningField name="x2"/>
					</MiningSchema>
					<Node score="-2.4827481624076047">
						<True/>
						<Node score="-1.4896488974445603">
							<SimplePredicate field="double(x2)" operator="lessOrEqual" value="0.5"/>
							<Node score="0.993099264963039">
								<SimplePredicate field="double(x1)" operator="lessOrEqual" value="2.5"/>
							</Node>
						</Node>
					</Node>
				</TreeModel>
			</Segment>
			<Segment id="112">
				<True/>
				<TreeModel functionName="regression" missingValueStrategy="nullPrediction" noTrueChildStrategy="returnLastPrediction" splitCharacteristic="multiSplit">
					<MiningSchema>
						<MiningField name="x1"/>
						<MiningField name="x2"/>
					</MiningSchema>
					<Node score="-2.4579206807835288">
						<True/>
						<Node score="-1.4747524084701151">
							<SimplePredicate field="double(x2)" operator="lessOrEqual" value="0.5"/>
							<Node score="0.9831682723134101">
								<SimplePredicate field="double(x1)" operator="lessOrEqual" value="2.5"/>
							</Node>
						</Node>
					</Node>
				</TreeModel>
			</Segment>
			<Segment id="113">
				<True/>
				<TreeModel functionName="regression" missingValueStrategy="nullPrediction" noTrueChildStrategy="returnLastPrediction" splitCharacteristic="multiSplit">
					<MiningSchema>
						<MiningField name="x3"/>
						<MiningField name="x1"/>
					</MiningSchema>
					<Node score="-2.433341473975693">
						<True/>
						<Node score="-1.4600048843854143">
							<SimplePredicate field="double(x3)" operator="lessOrEqual" value="1.5"/>
							<Node score="0.973336589590275">
								<SimplePredicate field="double(x1)" operator="lessOrEqual" value="2.5"/>
							</Node>
						</Node>
					</Node>
				</TreeModel>
			</Segment>
			<Segment id="114">
				<True/>
				<TreeModel functionName="regression" missingValueStrategy="nullPrediction" noTrueChildStrategy="returnLastPrediction" splitCharacteristic="multiSplit">
					<MiningSchema>
						<MiningField name="x1"/>
						<MiningField name="x2"/>
					</MiningSchema>
					<Node score="-2.4090080592359353">
						<True/>
						<Node score="-1.4454048355415594">
							<SimplePredicate field="double(x2)" operator="lessOrEqual" value="0.5"/>
							<Node score="0.9636032236943706">
								<SimplePredicate field="double(x1)" operator="lessOrEqual" value="2.5"/>
							</Node>
						</Node>
					</Node>
				</TreeModel>
			</Segment>
			<Segment id="115">
				<True/>
				<TreeModel functionName="regression" missingValueStrategy="nullPrediction" noTrueChildStrategy="returnLastPrediction" splitCharacteristic="multiSplit">
					<MiningSchema>
						<MiningField name="x1"/>
						<MiningField name="x2"/>
					</MiningSchema>
					<Node score="-2.3849179786435766">
						<True/>
						<Node score="-1.430950787186143">
							<SimplePredicate field="double(x2)" operator="lessOrEqual" value="0.5"/>
							<Node score="0.9539671914574264">
								<SimplePredicate field="double(x1)" operator="lessOrEqual" value="2.5"/>
							</Node>
						</Node>
					</Node>
				</TreeModel>
			</Segment>
			<Segment id="116">
				<True/>
				<TreeModel functionName="regression" missingValueStrategy="nullPrediction" noTrueChildStrategy="returnLastPrediction" splitCharacteristic="multiSplit">
					<MiningSchema>
						<MiningField name="x1"/>
						<MiningField name="x2"/>
					</MiningSchema>
					<Node score="-2.36106879885714">
						<True/>
						<Node score="-1.4166412793142822">
							<SimplePredicate field="double(x2)" operator="lessOrEqual" value="0.5"/>
							<Node score="0.9444275195428524">
								<SimplePredicate field="double(x1)" operator="lessOrEqual" value="2.5"/>
							</Node>
						</Node>
					</Node>
				</TreeModel>
			</Segment>
			<Segment id="117">
				<True/>
				<TreeModel functionName="regression" missingValueStrategy="nullPrediction" noTrueChildStrategy="returnLastPrediction" splitCharacteristic="multiSplit">
					<MiningSchema>
						<MiningField name="x1"/>
						<MiningField name="x2"/>
					</MiningSchema>
					<Node score="-2.3374581108685692">
						<True/>
						<Node score="-1.402474866521139">
							<SimplePredicate field="double(x2)" operator="lessOrEqual" value="0.5"/>
							<Node score="0.9349832443474249">
								<SimplePredicate field="double(x1)" operator="lessOrEqual" value="2.5"/>
							</Node>
						</Node>
					</Node>
				</TreeModel>
			</Segment>
			<Segment id="118">
				<True/>
				<TreeModel functionName="regression" missingValueStrategy="nullPrediction" noTrueChildStrategy="returnLastPrediction" splitCharacteristic="multiSplit">
					<MiningSchema>
						<MiningField name="x3"/>
						<MiningField name="x1"/>
					</MiningSchema>
					<Node score="-2.314083529759884">
						<True/>
						<Node score="-1.3884501178559283">
							<SimplePredicate field="double(x3)" operator="lessOrEqual" value="1.5"/>
							<Node score="0.9256334119039522">
								<SimplePredicate field="double(x1)" operator="lessOrEqual" value="2.5"/>
							</Node>
						</Node>
					</Node>
				</TreeModel>
			</Segment>
			<Segment id="119">
				<True/>
				<TreeModel functionName="regression" missingValueStrategy="nullPrediction" noTrueChildStrategy="returnLastPrediction" splitCharacteristic="multiSplit">
					<MiningSchema>
						<MiningField name="x3"/>
						<MiningField name="x1"/>
					</MiningSchema>
					<Node score="-2.2909426944622844">
						<True/>
						<Node score="-1.3745656166773692">
							<SimplePredicate field="double(x3)" operator="lessOrEqual" value="1.5"/>
							<Node score="0.9163770777849116">
								<SimplePredicate field="double(x1)" operator="lessOrEqual" value="2.5"/>
							</Node>
						</Node>
					</Node>
				</TreeModel>
			</Segment>
			<Segment id="120">
				<True/>
				<TreeModel functionName="regression" missingValueStrategy="nullPrediction" noTrueChildStrategy="returnLastPrediction" splitCharacteristic="multiSplit">
					<MiningSchema>
						<MiningField name="x1"/>
						<MiningField name="x2"/>
					</MiningSchema>
					<Node score="-2.268033267517662">
						<True/>
						<Node score="-1.3608199605105948">
							<SimplePredicate field="double(x2)" operator="lessOrEqual" value="0.5"/>
							<Node score="0.907213307007062">
								<SimplePredicate field="double(x1)" operator="lessOrEqual" value="2.5"/>
							</Node>
						</Node>
					</Node>
				</TreeModel>
			</Segment>
			<Segment id="121">
				<True/>
				<TreeModel functionName="regression" missingValueStrategy="nullPrediction" noTrueChildStrategy="returnLastPrediction" splitCharacteristic="multiSplit">
					<MiningSchema>
						<MiningField name="x3"/>
						<MiningField name="x1"/>
					</MiningSchema>
					<Node score="-2.2453529348424848">
						<True/>
						<Node score="-1.3472117609054894">
							<SimplePredicate field="double(x3)" operator="lessOrEqual" value="1.5"/>
							<Node score="0.8981411739369918">
								<SimplePredicate field="double(x1)" operator="lessOrEqual" value="2.5"/>
							</Node>
						</Node>
					</Node>
				</TreeModel>
			</Segment>
			<Segment id="122">
				<True/>
				<TreeModel functionName="regression" missingValueStrategy="nullPrediction" noTrueChildStrategy="returnLastPrediction" splitCharacteristic="multiSplit">
					<MiningSchema>
						<MiningField name="x3"/>
						<MiningField name="x1"/>
					</MiningSchema>
					<Node score="-2.2228994054940596">
						<True/>
						<Node score="-1.3337396432964344">
							<SimplePredicate field="double(x3)" operator="lessOrEqual" value="1.5"/>
							<Node score="0.8891597621976217">
								<SimplePredicate field="double(x1)" operator="lessOrEqual" value="2.5"/>
							</Node>
						</Node>
					</Node>
				</TreeModel>
			</Segment>
			<Segment id="123">
				<True/>
				<TreeModel functionName="regression" missingValueStrategy="nullPrediction" noTrueChildStrategy="returnLastPrediction" splitCharacteristic="multiSplit">
					<MiningSchema>
						<MiningField name="x1"/>
						<MiningField name="x2"/>
					</MiningSchema>
					<Node score="-2.20067041143912">
						<True/>
						<Node score="-1.3204022468634697">
							<SimplePredicate field="double(x2)" operator="lessOrEqual" value="0.5"/>
							<Node score="0.8802681645756465">
								<SimplePredicate field="double(x1)" operator="lessOrEqual" value="2.5"/>
							</Node>
						</Node>
					</Node>
				</TreeModel>
			</Segment>
			<Segment id="124">
				<True/>
				<TreeModel functionName="regression" missingValueStrategy="nullPrediction" noTrueChildStrategy="returnLastPrediction" splitCharacteristic="multiSplit">
					<MiningSchema>
						<MiningField name="x3"/>
						<MiningField name="x1"/>
					</MiningSchema>
					<Node score="-2.178663707324729">
						<True/>
						<Node score="-1.3071982243948348">
							<SimplePredicate field="double(x3)" operator="lessOrEqual" value="1.5"/>
							<Node score="0.8714654829298887">
								<SimplePredicate field="double(x1)" operator="lessOrEqual" value="2.5"/>
							</Node>
						</Node>
					</Node>
				</TreeModel>
			</Segment>
			<Segment id="125">
				<True/>
				<TreeModel functionName="regression" missingValueStrategy="nullPrediction" noTrueChildStrategy="returnLastPrediction" splitCharacteristic="multiSplit">
					<MiningSchema>
						<MiningField name="x3"/>
						<MiningField name="x1"/>
					</MiningSchema>
					<Node score="-2.156877070251481">
						<True/>
						<Node score="-1.2941262421508863">
							<SimplePredicate field="double(x3)" operator="lessOrEqual" value="1.5"/>
							<Node score="0.8627508281005909">
								<SimplePredicate field="double(x1)" operator="lessOrEqual" value="2.5"/>
							</Node>
						</Node>
					</Node>
				</TreeModel>
			</Segment>
			<Segment id="126">
				<True/>
				<TreeModel functionName="regression" missingValueStrategy="nullPrediction" noTrueChildStrategy="returnLastPrediction" splitCharacteristic="multiSplit">
					<MiningSchema>
						<MiningField name="x3"/>
						<MiningField name="x1"/>
					</MiningSchema>
					<Node score="-2.1353082995489654">
						<True/>
						<Node score="-1.2811849797293782">
							<SimplePredicate field="double(x3)" operator="lessOrEqual" value="1.5"/>
							<Node score="0.8541233198195854">
								<SimplePredicate field="double(x1)" operator="lessOrEqual" value="2.5"/>
							</Node>
						</Node>
					</Node>
				</TreeModel>
			</Segment>
			<Segment id="127">
				<True/>
				<TreeModel functionName="regression" missingValueStrategy="nullPrediction" noTrueChildStrategy="returnLastPrediction" splitCharacteristic="multiSplit">
					<MiningSchema>
						<MiningField name="x1"/>
						<MiningField name="x2"/>
					</MiningSchema>
					<Node score="-2.1139552165534763">
						<True/>
						<Node score="-1.268373129932085">
							<SimplePredicate field="double(x2)" operator="lessOrEqual" value="0.5"/>
							<Node score="0.8455820866213912">
								<SimplePredicate field="double(x1)" operator="lessOrEqual" value="2.5"/>
							</Node>
						</Node>
					</Node>
				</TreeModel>
			</Segment>
			<Segment id="128">
				<True/>
				<TreeModel functionName="regression" missingValueStrategy="nullPrediction" noTrueChildStrategy="returnLastPrediction" splitCharacteristic="multiSplit">
					<MiningSchema>
						<MiningField name="x3"/>
						<MiningField name="x1"/>
					</MiningSchema>
					<Node score="-2.092815664387942">
						<True/>
						<Node score="-1.2556893986327644">
							<SimplePredicate field="double(x3)" operator="lessOrEqual" value="1.5"/>
							<Node score="0.8371262657551775">
								<SimplePredicate field="double(x1)" operator="lessOrEqual" value="2.5"/>
							</Node>
						</Node>
					</Node>
				</TreeModel>
			</Segment>
			<Segment id="129">
				<True/>
				<TreeModel functionName="regression" missingValueStrategy="nullPrediction" noTrueChildStrategy="returnLastPrediction" splitCharacteristic="multiSplit">
					<MiningSchema>
						<MiningField name="x1"/>
						<MiningField name="x2"/>
					</MiningSchema>
					<Node score="-2.071887507744062">
						<True/>
						<Node score="-1.2431325046464359">
							<SimplePredicate field="double(x2)" operator="lessOrEqual" value="0.5"/>
							<Node score="0.8287550030976263">
								<SimplePredicate field="double(x1)" operator="lessOrEqual" value="2.5"/>
							</Node>
						</Node>
					</Node>
				</TreeModel>
			</Segment>
			<Segment id="130">
				<True/>
				<TreeModel functionName="regression" missingValueStrategy="nullPrediction" noTrueChildStrategy="returnLastPrediction" splitCharacteristic="multiSplit">
					<MiningSchema>
						<MiningField name="x1"/>
						<MiningField name="x2"/>
					</MiningSchema>
					<Node score="-2.051168632666622">
						<True/>
						<Node score="-1.230701179599972">
							<SimplePredicate field="double(x2)" operator="lessOrEqual" value="0.5"/>
							<Node score="0.8204674530666516">
								<SimplePredicate field="double(x1)" operator="lessOrEqual" value="2.5"/>
							</Node>
						</Node>
					</Node>
				</TreeModel>
			</Segment>
			<Segment id="131">
				<True/>
				<TreeModel functionName="regression" missingValueStrategy="nullPrediction" noTrueChildStrategy="returnLastPrediction" splitCharacteristic="multiSplit">
					<MiningSchema>
						<MiningField name="x3"/>
						<MiningField name="x1"/>
					</MiningSchema>
					<Node score="-2.030656946339956">
						<True/>
						<Node score="-1.2183941678039716">
							<SimplePredicate field="double(x3)" operator="lessOrEqual" value="1.5"/>
							<Node score="0.8122627785359846">
								<SimplePredicate field="double(x1)" operator="lessOrEqual" value="2.5"/>
							</Node>
						</Node>
					</Node>
				</TreeModel>
			</Segment>
			<Segment id="132">
				<True/>
				<TreeModel functionName="regression" missingValueStrategy="nullPrediction" noTrueChildStrategy="returnLastPrediction" splitCharacteristic="multiSplit">
					<MiningSchema>
						<MiningField name="x1"/>
						<MiningField name="x2"/>
					</MiningSchema>
					<Node score="-2.0103503768765574">
						<True/>
						<Node score="-1.2062102261259326">
							<SimplePredicate field="double(x2)" operator="lessOrEqual" value="0.5"/>
							<Node score="0.8041401507506265">
								<SimplePredicate field="double(x1)" operator="lessOrEqual" value="2.5"/>
							</Node>
						</Node>
					</Node>
				</TreeModel>
			</Segment>
			<Segment id="133">
				<True/>
				<TreeModel functionName="regression" missingValueStrategy="nullPrediction" noTrueChildStrategy="returnLastPrediction" splitCharacteristic="multiSplit">
					<MiningSchema>
						<MiningField name="x3"/>
						<MiningField name="x1"/>
					</MiningSchema>
					<Node score="-1.9902468731077914">
						<True/>
						<Node score="-1.1941481238646734">
							<SimplePredicate field="double(x3)" operator="lessOrEqual" value="1.5"/>
							<Node score="0.7960987492431215">
								<SimplePredicate field="double(x1)" operator="lessOrEqual" value="2.5"/>
							</Node>
						</Node>
					</Node>
				</TreeModel>
			</Segment>
			<Segment id="134">
				<True/>
				<TreeModel functionName="regression" missingValueStrategy="nullPrediction" noTrueChildStrategy="returnLastPrediction" splitCharacteristic="multiSplit">
					<MiningSchema>
						<MiningField name="x1"/>
						<MiningField name="x2"/>
					</MiningSchema>
					<Node score="-1.9703444043767142">
						<True/>
						<Node score="-1.182206642626026">
							<SimplePredicate field="double(x2)" operator="lessOrEqual" value="0.5"/>
							<Node score="0.78813776175069">
								<SimplePredicate field="double(x1)" operator="lessOrEqual" value="2.5"/>
							</Node>
						</Node>
					</Node>
				</TreeModel>
			</Segment>
			<Segment id="135">
				<True/>
				<TreeModel functionName="regression" missingValueStrategy="nullPrediction" noTrueChildStrategy="returnLastPrediction" splitCharacteristic="multiSplit">
					<MiningSchema>
						<MiningField name="x1"/>
						<MiningField name="x2"/>
					</MiningSchema>
					<Node score="-1.9506409603329473">
						<True/>
						<Node score="-1.1703845761997655">
							<SimplePredicate field="double(x2)" operator="lessOrEqual" value="0.5"/>
							<Node score="0.7802563841331818">
								<SimplePredicate field="double(x1)" operator="lessOrEqual" value="2.5"/>
							</Node>
						</Node>
					</Node>
				</TreeModel>
			</Segment>
			<Segment id="136">
				<True/>
				<TreeModel functionName="regression" missingValueStrategy="nullPrediction" noTrueChildStrategy="returnLastPrediction" splitCharacteristic="multiSplit">
					<MiningSchema>
						<MiningField name="x1"/>
						<MiningField name="x2"/>
					</MiningSchema>
					<Node score="-1.9311345507296185">
						<True/>
						<Node score="-1.1586807304377675">
							<SimplePredicate field="double(x2)" operator="lessOrEqual" value="0.5"/>
							<Node score="0.772453820291851">
								<SimplePredicate field="double(x1)" operator="lessOrEqual" value="2.5"/>
							</Node>
						</Node>
					</Node>
				</TreeModel>
			</Segment>
			<Segment id="137">
				<True/>
				<TreeModel functionName="regression" missingValueStrategy="nullPrediction" noTrueChildStrategy="returnLastPrediction" splitCharacteristic="multiSplit">
					<MiningSchema>
						<MiningField name="x1"/>
						<MiningField name="x2"/>
					</MiningSchema>
					<Node score="-1.9118232052223227">
						<True/>
						<Node score="-1.14709392313339">
							<SimplePredicate field="double(x2)" operator="lessOrEqual" value="0.5"/>
							<Node score="0.7647292820889326">
								<SimplePredicate field="double(x1)" operator="lessOrEqual" value="2.5"/>
							</Node>
						</Node>
					</Node>
				</TreeModel>
			</Segment>
			<Segment id="138">
				<True/>
				<TreeModel functionName="regression" missingValueStrategy="nullPrediction" noTrueChildStrategy="returnLastPrediction" splitCharacteristic="multiSplit">
					<MiningSchema>
						<MiningField name="x3"/>
						<MiningField name="x1"/>
					</MiningSchema>
					<Node score="-1.8927049731700993">
						<True/>
						<Node score="-1.1356229839020564">
							<SimplePredicate field="double(x3)" operator="lessOrEqual" value="1.5"/>
							<Node score="0.7570819892680447">
								<SimplePredicate field="double(x1)" operator="lessOrEqual" value="2.5"/>
							</Node>
						</Node>
					</Node>
				</TreeModel>
			</Segment>
			<Segment id="139">
				<True/>
				<TreeModel functionName="regression" missingValueStrategy="nullPrediction" noTrueChildStrategy="returnLastPrediction" splitCharacteristic="multiSplit">
					<MiningSchema>
						<MiningField name="x1"/>
						<MiningField name="x2"/>
					</MiningSchema>
					<Node score="-1.8737779234383982">
						<True/>
						<Node score="-1.1242667540630364">
							<SimplePredicate field="double(x2)" operator="lessOrEqual" value="0.5"/>
							<Node score="0.7495111693753636">
								<SimplePredicate field="double(x1)" operator="lessOrEqual" value="2.5"/>
							</Node>
						</Node>
					</Node>
				</TreeModel>
			</Segment>
			<Segment id="140">
				<True/>
				<TreeModel functionName="regression" missingValueStrategy="nullPrediction" noTrueChildStrategy="returnLastPrediction" splitCharacteristic="multiSplit">
					<MiningSchema>
						<MiningField name="x3"/>
						<MiningField name="x1"/>
					</MiningSchema>
					<Node score="-1.8550401442040148">
						<True/>
						<Node score="-1.1130240865224064">
							<SimplePredicate field="double(x3)" operator="lessOrEqual" value="1.5"/>
							<Node score="0.7420160576816102">
								<SimplePredicate field="double(x1)" operator="lessOrEqual" value="2.5"/>
							</Node>
						</Node>
					</Node>
				</TreeModel>
			</Segment>
			<Segment id="141">
				<True/>
				<TreeModel functionName="regression" missingValueStrategy="nullPrediction" noTrueChildStrategy="returnLastPrediction" splitCharacteristic="multiSplit">
					<MiningSchema>
						<MiningField name="x3"/>
						<MiningField name="x1"/>
					</MiningSchema>
					<Node score="-1.8364897427619749">
						<True/>
						<Node score="-1.101893845657182">
							<SimplePredicate field="double(x3)" operator="lessOrEqual" value="1.5"/>
							<Node score="0.7345958971047928">
								<SimplePredicate field="double(x1)" operator="lessOrEqual" value="2.5"/>
							</Node>
						</Node>
					</Node>
				</TreeModel>
			</Segment>
			<Segment id="142">
				<True/>
				<TreeModel functionName="regression" missingValueStrategy="nullPrediction" noTrueChildStrategy="returnLastPrediction" splitCharacteristic="multiSplit">
					<MiningSchema>
						<MiningField name="x3"/>
						<MiningField name="x1"/>
					</MiningSchema>
					<Node score="-1.8181248453343546">
						<True/>
						<Node score="-1.090874907200611">
							<SimplePredicate field="double(x3)" operator="lessOrEqual" value="1.5"/>
							<Node score="0.7272499381337454">
								<SimplePredicate field="double(x1)" operator="lessOrEqual" value="2.5"/>
							</Node>
						</Node>
					</Node>
				</TreeModel>
			</Segment>
			<Segment id="143">
				<True/>
				<TreeModel functionName="regression" missingValueStrategy="nullPrediction" noTrueChildStrategy="returnLastPrediction" splitCharacteristic="multiSplit">
					<MiningSchema>
						<MiningField name="x3"/>
						<MiningField name="x1"/>
					</MiningSchema>
					<Node score="-1.7999435968810111">
						<True/>
						<Node score="-1.0799661581286042">
							<SimplePredicate field="double(x3)" operator="lessOrEqual" value="1.5"/>
							<Node score="0.7199774387524087">
								<SimplePredicate field="double(x1)" operator="lessOrEqual" value="2.5"/>
							</Node>
						</Node>
					</Node>
				</TreeModel>
			</Segment>
			<Segment id="144">
				<True/>
				<TreeModel functionName="regression" missingValueStrategy="nullPrediction" noTrueChildStrategy="returnLastPrediction" splitCharacteristic="multiSplit">
					<MiningSchema>
						<MiningField name="x1"/>
						<MiningField name="x2"/>
					</MiningSchema>
					<Node score="-1.7819441609122002">
						<True/>
						<Node score="-1.069166496547318">
							<SimplePredicate field="double(x2)" operator="lessOrEqual" value="0.5"/>
							<Node score="0.7127776643648858">
								<SimplePredicate field="double(x1)" operator="lessOrEqual" value="2.5"/>
							</Node>
						</Node>
					</Node>
				</TreeModel>
			</Segment>
			<Segment id="145">
				<True/>
				<TreeModel functionName="regression" missingValueStrategy="nullPrediction" noTrueChildStrategy="returnLastPrediction" splitCharacteristic="multiSplit">
					<MiningSchema>
						<MiningField name="x3"/>
						<MiningField name="x1"/>
					</MiningSchema>
					<Node score="-1.7641247193030782">
						<True/>
						<Node score="-1.0584748315818455">
							<SimplePredicate field="double(x3)" operator="lessOrEqual" value="1.5"/>
							<Node score="0.7056498877212363">
								<SimplePredicate field="double(x1)" operator="lessOrEqual" value="2.5"/>
							</Node>
						</Node>
					</Node>
				</TreeModel>
			</Segment>
			<Segment id="146">
				<True/>
				<TreeModel functionName="regression" missingValueStrategy="nullPrediction" noTrueChildStrategy="returnLastPrediction" splitCharacteristic="multiSplit">
					<MiningSchema>
						<MiningField name="x1"/>
						<MiningField name="x2"/>
					</MiningSchema>
					<Node score="-1.7464834721100466">
						<True/>
						<Node score="-1.0478900832660276">
							<SimplePredicate field="double(x2)" operator="lessOrEqual" value="0.5"/>
							<Node score="0.6985933888440243">
								<SimplePredicate field="double(x1)" operator="lessOrEqual" value="2.5"/>
							</Node>
						</Node>
					</Node>
				</TreeModel>
			</Segment>
			<Segment id="147">
				<True/>
				<TreeModel functionName="regression" missingValueStrategy="nullPrediction" noTrueChildStrategy="returnLastPrediction" splitCharacteristic="multiSplit">
					<MiningSchema>
						<MiningField name="x3"/>
						<MiningField name="x1"/>
					</MiningSchema>
					<Node score="-1.729018637388947">
						<True/>
						<Node score="-1.0374111824333667">
							<SimplePredicate field="double(x3)" operator="lessOrEqual" value="1.5"/>
							<Node score="0.6916074549555837">
								<SimplePredicate field="double(x1)" operator="lessOrEqual" value="2.5"/>
							</Node>
						</Node>
					</Node>
				</TreeModel>
			</Segment>
			<Segment id="148">
				<True/>
				<TreeModel functionName="regression" missingValueStrategy="nullPrediction" noTrueChildStrategy="returnLastPrediction" splitCharacteristic="multiSplit">
					<MiningSchema>
						<MiningField name="x1"/>
						<MiningField name="x2"/>
					</MiningSchema>
					<Node score="-1.7117284510150572">
						<True/>
						<Node score="-1.0270370706090333">
							<SimplePredicate field="double(x2)" operator="lessOrEqual" value="0.5"/>
							<Node score="0.6846913804060293">
								<SimplePredicate field="double(x1)" operator="lessOrEqual" value="2.5"/>
							</Node>
						</Node>
					</Node>
				</TreeModel>
			</Segment>
			<Segment id="149">
				<True/>
				<TreeModel functionName="regression" missingValueStrategy="nullPrediction" noTrueChildStrategy="returnLastPrediction" splitCharacteristic="multiSplit">
					<MiningSchema>
						<MiningField name="x1"/>
						<MiningField name="x2"/>
					</MiningSchema>
