<?xml version="1.0" encoding="UTF-8" standalone="yes"?>
<PMML xmlns="http://www.dmg.org/PMML-4_3" xmlns:data="http://jpmml.org/jpmml-model/InlineTable" version="4.3">
	<Header>
		<Application name="JPMML-SkLearn" version="1.5.13"/>
		<Timestamp>2019-05-09T01:45:43Z</Timestamp>
	</Header>
	<MiningBuildTask>
		<Extension>PMMLPipeline(steps=[('regressor', GradientBoostingRegressor(alpha=0.9, criterion='friedman_mse', init=None,
             learning_rate=0.01, loss='ls', max_depth=4, max_features=None,
             max_leaf_nodes=None, min_impurity_decrease=0.0,
             min_impurity_split=None, min_samples_leaf=1,
             min_samples_split=2, min_weight_fraction_leaf=0.0,
             n_estimators=500, n_iter_no_change=None, presort='auto',
             random_state=None, subsample=1.0, tol=0.0001,
             validation_fraction=0.1, verbose=0, warm_start=False))])</Extension>
	</MiningBuildTask>
	<DataDictionary>
		<DataField name="y" optype="continuous" dataType="double"/>
		<DataField name="x2" optype="continuous" dataType="float"/>
		<DataField name="x3" optype="continuous" dataType="float"/>
		<DataField name="x4" optype="continuous" dataType="float"/>
		<DataField name="x6" optype="continuous" dataType="float"/>
		<DataField name="x7" optype="continuous" dataType="float"/>
		<DataField name="x8" optype="continuous" dataType="float"/>
		<DataField name="x9" optype="continuous" dataType="float"/>
		<DataField name="x11" optype="continuous" dataType="float"/>
		<DataField name="x12" optype="continuous" dataType="float"/>
		<DataField name="x13" optype="continuous" dataType="float"/>
		<DataField name="x14" optype="continuous" dataType="float"/>
		<DataField name="x16" optype="continuous" dataType="float"/>
		<DataField name="x17" optype="continuous" dataType="float"/>
		<DataField name="x18" optype="continuous" dataType="float"/>
		<DataField name="x19" optype="continuous" dataType="float"/>
		<DataField name="x20" optype="continuous" dataType="float"/>
		<DataField name="x22" optype="continuous" dataType="float"/>
		<DataField name="x23" optype="continuous" dataType="float"/>
		<DataField name="x24" optype="continuous" dataType="float"/>
		<DataField name="x25" optype="continuous" dataType="float"/>
		<DataField name="x26" optype="continuous" dataType="float"/>
		<DataField name="x27" optype="continuous" dataType="float"/>
		<DataField name="x28" optype="continuous" dataType="float"/>
		<DataField name="x29" optype="continuous" dataType="float"/>
		<DataField name="x31" optype="continuous" dataType="float"/>
		<DataField name="x32" optype="continuous" dataType="float"/>
		<DataField name="x33" optype="continuous" dataType="float"/>
		<DataField name="x34" optype="continuous" dataType="float"/>
		<DataField name="x35" optype="continuous" dataType="float"/>
	</DataDictionary>
	<TransformationDictionary>
		<DerivedField name="double(x22)" optype="continuous" dataType="double">
			<FieldRef field="x22"/>
		</DerivedField>
		<DerivedField name="double(x32)" optype="continuous" dataType="double">
			<FieldRef field="x32"/>
		</DerivedField>
		<DerivedField name="double(x31)" optype="continuous" dataType="double">
			<FieldRef field="x31"/>
		</DerivedField>
		<DerivedField name="double(x25)" optype="continuous" dataType="double">
			<FieldRef field="x25"/>
		</DerivedField>
		<DerivedField name="double(x17)" optype="continuous" dataType="double">
			<FieldRef field="x17"/>
		</DerivedField>
		<DerivedField name="double(x27)" optype="continuous" dataType="double">
			<FieldRef field="x27"/>
		</DerivedField>
		<DerivedField name="double(x6)" optype="continuous" dataType="double">
			<FieldRef field="x6"/>
		</DerivedField>
		<DerivedField name="double(x23)" optype="continuous" dataType="double">
			<FieldRef field="x23"/>
		</DerivedField>
		<DerivedField name="double(x24)" optype="continuous" dataType="double">
			<FieldRef field="x24"/>
		</DerivedField>
		<DerivedField name="double(x16)" optype="continuous" dataType="double">
			<FieldRef field="x16"/>
		</DerivedField>
		<DerivedField name="double(x7)" optype="continuous" dataType="double">
			<FieldRef field="x7"/>
		</DerivedField>
		<DerivedField name="double(x33)" optype="continuous" dataType="double">
			<FieldRef field="x33"/>
		</DerivedField>
		<DerivedField name="double(x34)" optype="continuous" dataType="double">
			<FieldRef field="x34"/>
		</DerivedField>
		<DerivedField name="double(x8)" optype="continuous" dataType="double">
			<FieldRef field="x8"/>
		</DerivedField>
		<DerivedField name="double(x13)" optype="continuous" dataType="double">
			<FieldRef field="x13"/>
		</DerivedField>
		<DerivedField name="double(x19)" optype="continuous" dataType="double">
			<FieldRef field="x19"/>
		</DerivedField>
		<DerivedField name="double(x3)" optype="continuous" dataType="double">
			<FieldRef field="x3"/>
		</DerivedField>
		<DerivedField name="double(x26)" optype="continuous" dataType="double">
			<FieldRef field="x26"/>
		</DerivedField>
		<DerivedField name="double(x18)" optype="continuous" dataType="double">
			<FieldRef field="x18"/>
		</DerivedField>
		<DerivedField name="double(x28)" optype="continuous" dataType="double">
			<FieldRef field="x28"/>
		</DerivedField>
		<DerivedField name="double(x29)" optype="continuous" dataType="double">
			<FieldRef field="x29"/>
		</DerivedField>
		<DerivedField name="double(x11)" optype="continuous" dataType="double">
			<FieldRef field="x11"/>
		</DerivedField>
		<DerivedField name="double(x12)" optype="continuous" dataType="double">
			<FieldRef field="x12"/>
		</DerivedField>
		<DerivedField name="double(x2)" optype="continuous" dataType="double">
			<FieldRef field="x2"/>
		</DerivedField>
		<DerivedField name="double(x14)" optype="continuous" dataType="double">
			<FieldRef field="x14"/>
		</DerivedField>
		<DerivedField name="double(x35)" optype="continuous" dataType="double">
			<FieldRef field="x35"/>
		</DerivedField>
		<DerivedField name="double(x20)" optype="continuous" dataType="double">
			<FieldRef field="x20"/>
		</DerivedField>
		<DerivedField name="double(x4)" optype="continuous" dataType="double">
			<FieldRef field="x4"/>
		</DerivedField>
		<DerivedField name="double(x9)" optype="continuous" dataType="double">
			<FieldRef field="x9"/>
		</DerivedField>
	</TransformationDictionary>
	<MiningModel functionName="regression">
		<MiningSchema>
			<MiningField name="y" usageType="target"/>
			<MiningField name="x2"/>
			<MiningField name="x3"/>
			<MiningField name="x4"/>
			<MiningField name="x6"/>
			<MiningField name="x7"/>
			<MiningField name="x8"/>
			<MiningField name="x9"/>
			<MiningField name="x11"/>
			<MiningField name="x12"/>
			<MiningField name="x13"/>
			<MiningField name="x14"/>
			<MiningField name="x16"/>
			<MiningField name="x17"/>
			<MiningField name="x18"/>
			<MiningField name="x19"/>
			<MiningField name="x20"/>
			<MiningField name="x22"/>
			<MiningField name="x23"/>
			<MiningField name="x24"/>
			<MiningField name="x25"/>
			<MiningField name="x26"/>
			<MiningField name="x27"/>
			<MiningField name="x28"/>
			<MiningField name="x29"/>
			<MiningField name="x31"/>
			<MiningField name="x32"/>
			<MiningField name="x33"/>
			<MiningField name="x34"/>
			<MiningField name="x35"/>
		</MiningSchema>
		<Targets>
			<Target field="y" rescaleConstant="652.1145631067961" rescaleFactor="0.01"/>
		</Targets>
		<Segmentation multipleModelMethod="sum">
			<Segment id="1">
				<True/>
				<TreeModel functionName="regression" missingValueStrategy="nullPrediction" noTrueChildStrategy="returnLastPrediction" splitCharacteristic="multiSplit">
					<MiningSchema>
						<MiningField name="x22"/>
						<MiningField name="x32"/>
						<MiningField name="x31"/>
						<MiningField name="x25"/>
						<MiningField name="x17"/>
						<MiningField name="x27"/>
						<MiningField name="x6"/>
						<MiningField name="x23"/>
					</MiningSchema>
					<Node score="9922.885436893204">
						<True/>
						<Node score="2673.7187702265373">
							<SimplePredicate field="double(x22)" operator="lessOrEqual" value="2.5"/>
							<Node score="-277.0320888799931">
								<SimplePredicate field="double(x32)" operator="lessOrEqual" value="6.0"/>
								<Node score="-17.36456310679614">
									<SimplePredicate field="double(x31)" operator="lessOrEqual" value="1.5"/>
									<Node score="-611.0503429233084">
										<SimplePredicate field="double(x25)" operator="lessOrEqual" value="8.5"/>
									</Node>
								</Node>
								<Node score="1548.3854368932039">
									<SimplePredicate field="double(x17)" operator="lessOrEqual" value="2.0"/>
								</Node>
							</Node>
							<Node score="580.9568654646326">
								<SimplePredicate field="double(x31)" operator="lessOrEqual" value="1.5"/>
								<Node score="-139.94789644012948">
									<SimplePredicate field="double(x25)" operator="lessOrEqual" value="8.5"/>
								</Node>
							</Node>
							<Node score="1989.0282940360612">
								<SimplePredicate field="double(x27)" operator="lessOrEqual" value="2.0"/>
							</Node>
						</Node>
						<Node score="3922.885436893204">
							<SimplePredicate field="double(x6)" operator="lessOrEqual" value="12.0"/>
							<Node score="992.2187702265372">
								<SimplePredicate field="double(x25)" operator="lessOrEqual" value="8.0"/>
								<Node score="-298.11456310679614">
									<SimplePredicate field="double(x22)" operator="lessOrEqual" value="6.0"/>
								</Node>
							</Node>
							<Node score="2861.226900307839">
								<SimplePredicate field="double(x23)" operator="lessOrEqual" value="8.5"/>
							</Node>
						</Node>
						<Node score="4432.885436893204">
							<SimplePredicate field="double(x31)" operator="lessOrEqual" value="1.5"/>
							<Node score="4688.885436893204">
								<SimplePredicate field="double(x17)" operator="lessOrEqual" value="375.5"/>
							</Node>
						</Node>
					</Node>
				</TreeModel>
			</Segment>
			<Segment id="2">
				<True/>
				<TreeModel functionName="regression" missingValueStrategy="nullPrediction" noTrueChildStrategy="returnLastPrediction" splitCharacteristic="multiSplit">
					<MiningSchema>
						<MiningField name="x22"/>
						<MiningField name="x32"/>
						<MiningField name="x31"/>
						<MiningField name="x25"/>
						<MiningField name="x17"/>
						<MiningField name="x27"/>
						<MiningField name="x6"/>
						<MiningField name="x23"/>
						<MiningField name="x24"/>
						<MiningField name="x16"/>
					</MiningSchema>
					<Node score="4388.556582524272">
						<True/>
						<Node score="2646.9815825242713">
							<SimplePredicate field="double(x22)" operator="lessOrEqual" value="2.5"/>
							<Node score="1532.9015825242718">
								<SimplePredicate field="double(x32)" operator="lessOrEqual" value="6.0"/>
								<Node score="-17.190917475728156">
									<SimplePredicate field="double(x31)" operator="lessOrEqual" value="1.5"/>
									<Node score="-604.9398394940782">
										<SimplePredicate field="double(x25)" operator="lessOrEqual" value="8.5"/>
									</Node>
								</Node>
								<Node score="-274.2617679911917">
									<SimplePredicate field="double(x24)" operator="lessOrEqual" value="10.0"/>
								</Node>
							</Node>
							<Node score="575.1472968099862">
								<SimplePredicate field="double(x31)" operator="lessOrEqual" value="1.5"/>
								<Node score="-138.5484174757282">
									<SimplePredicate field="double(x25)" operator="lessOrEqual" value="8.5"/>
								</Node>
							</Node>
							<Node score="1969.1380110957002">
								<SimplePredicate field="double(x27)" operator="lessOrEqual" value="2.0"/>
							</Node>
						</Node>
						<Node score="3883.656582524272">
							<SimplePredicate field="double(x6)" operator="lessOrEqual" value="12.0"/>
							<Node score="982.2965825242718">
								<SimplePredicate field="double(x27)" operator="lessOrEqual" value="1.5"/>
								<Node score="-295.13341747572815">
									<SimplePredicate field="double(x16)" operator="lessOrEqual" value="20.0"/>
								</Node>
							</Node>
							<Node score="2832.6146313047566">
								<SimplePredicate field="double(x23)" operator="lessOrEqual" value="8.5"/>
							</Node>
						</Node>
						<Node score="9823.656582524272">
							<SimplePredicate field="double(x17)" operator="lessOrEqual" value="160.0"/>
						</Node>
						<Node score="4641.996582524272">
							<SimplePredicate field="double(x17)" operator="lessOrEqual" value="375.5"/>
						</Node>
					</Node>
				</TreeModel>
			</Segment>
			<Segment id="3">
				<True/>
				<TreeModel functionName="regression" missingValueStrategy="nullPrediction" noTrueChildStrategy="returnLastPrediction" splitCharacteristic="multiSplit">
					<MiningSchema>
						<MiningField name="x22"/>
						<MiningField name="x32"/>
						<MiningField name="x31"/>
						<MiningField name="x25"/>
						<MiningField name="x17"/>
						<MiningField name="x27"/>
						<MiningField name="x23"/>
					</MiningSchema>
					<Node score="9725.420016699029">
						<True/>
						<Node score="2620.5117666990295">
							<SimplePredicate field="double(x22)" operator="lessOrEqual" value="2.5"/>
							<Node score="1517.5725666990293">
								<SimplePredicate field="double(x32)" operator="lessOrEqual" value="6.0"/>
								<Node score="-17.01900830097088">
									<SimplePredicate field="double(x31)" operator="lessOrEqual" value="1.5"/>
									<Node score="-598.890441099137">
										<SimplePredicate field="double(x25)" operator="lessOrEqual" value="8.5"/>
									</Node>
								</Node>
								<Node score="-271.5191503112795">
									<SimplePredicate field="double(x25)" operator="lessOrEqual" value="12.5"/>
								</Node>
							</Node>
							<Node score="569.3958238418865">
								<SimplePredicate field="double(x31)" operator="lessOrEqual" value="1.5"/>
								<Node score="-137.16293330097088">
									<SimplePredicate field="double(x25)" operator="lessOrEqual" value="8.5"/>
								</Node>
							</Node>
							<Node score="1949.4466309847433">
								<SimplePredicate field="double(x27)" operator="lessOrEqual" value="2.0"/>
							</Node>
						</Node>
						<Node score="3844.820016699029">
							<SimplePredicate field="double(x22)" operator="lessOrEqual" value="12.0"/>
							<Node score="-292.1820833009708">
								<SimplePredicate field="double(x27)" operator="lessOrEqual" value="1.5"/>
								<Node score="972.4736166990292">
									<SimplePredicate field="double(x17)" operator="lessOrEqual" value="4128.0"/>
								</Node>
							</Node>
							<Node score="2804.288484991709">
								<SimplePredicate field="double(x23)" operator="lessOrEqual" value="8.5"/>
							</Node>
						</Node>
						<Node score="4344.671016699029">
							<SimplePredicate field="double(x31)" operator="lessOrEqual" value="1.5"/>
							<Node score="4595.576616699029">
								<SimplePredicate field="double(x17)" operator="lessOrEqual" value="375.5"/>
							</Node>
						</Node>
					</Node>
				</TreeModel>
			</Segment>
			<Segment id="4">
				<True/>
				<TreeModel functionName="regression" missingValueStrategy="nullPrediction" noTrueChildStrategy="returnLastPrediction" splitCharacteristic="multiSplit">
					<MiningSchema>
						<MiningField name="x22"/>
						<MiningField name="x32"/>
						<MiningField name="x31"/>
						<MiningField name="x25"/>
						<MiningField name="x17"/>
						<MiningField name="x27"/>
						<MiningField name="x23"/>
					</MiningSchema>
					<Node score="9628.165816532039">
						<True/>
						<Node score="2594.306649032039">
							<SimplePredicate field="double(x22)" operator="lessOrEqual" value="2.5"/>
							<Node score="-268.803958808166">
								<SimplePredicate field="double(x32)" operator="lessOrEqual" value="6.0"/>
								<Node score="-16.84881821796114">
									<SimplePredicate field="double(x31)" operator="lessOrEqual" value="1.5"/>
									<Node score="-592.9015366881465">
										<SimplePredicate field="double(x25)" operator="lessOrEqual" value="8.5"/>
									</Node>
								</Node>
								<Node score="1502.396841032039">
									<SimplePredicate field="double(x17)" operator="lessOrEqual" value="2.0"/>
								</Node>
							</Node>
							<Node score="563.7018656034672">
								<SimplePredicate field="double(x31)" operator="lessOrEqual" value="1.5"/>
								<Node score="-135.79130396796117">
									<SimplePredicate field="double(x25)" operator="lessOrEqual" value="8.5"/>
								</Node>
							</Node>
							<Node score="1929.952164674896">
								<SimplePredicate field="double(x27)" operator="lessOrEqual" value="2.0"/>
							</Node>
						</Node>
						<Node score="3806.371816532039">
							<SimplePredicate field="double(x22)" operator="lessOrEqual" value="12.0"/>
							<Node score="-289.26026246796107">
								<SimplePredicate field="double(x27)" operator="lessOrEqual" value="1.5"/>
								<Node score="962.7488805320389">
									<SimplePredicate field="double(x23)" operator="lessOrEqual" value="4.5"/>
								</Node>
							</Node>
							<Node score="2776.245600141794">
								<SimplePredicate field="double(x23)" operator="lessOrEqual" value="8.5"/>
							</Node>
						</Node>
						<Node score="4301.224306532039">
							<SimplePredicate field="double(x31)" operator="lessOrEqual" value="1.5"/>
							<Node score="4549.620850532039">
								<SimplePredicate field="double(x17)" operator="lessOrEqual" value="375.5"/>
							</Node>
						</Node>
					</Node>
				</TreeModel>
			</Segment>
			<Segment id="5">
				<True/>
				<TreeModel functionName="regression" missingValueStrategy="nullPrediction" noTrueChildStrategy="returnLastPrediction" splitCharacteristic="multiSplit">
					<MiningSchema>
						<MiningField name="x22"/>
						<MiningField name="x32"/>
						<MiningField name="x31"/>
						<MiningField name="x25"/>
						<MiningField name="x17"/>
						<MiningField name="x27"/>
						<MiningField name="x23"/>
					</MiningSchema>
					<Node score="4258.212063466718">
						<True/>
						<Node score="2568.363582541718">
							<SimplePredicate field="double(x22)" operator="lessOrEqual" value="2.5"/>
							<Node score="-266.1159192200845">
								<SimplePredicate field="double(x32)" operator="lessOrEqual" value="6.0"/>
								<Node score="-16.68033003578148">
									<SimplePredicate field="double(x31)" operator="lessOrEqual" value="1.5"/>
									<Node score="-586.9725213212647">
										<SimplePredicate field="double(x25)" operator="lessOrEqual" value="8.5"/>
									</Node>
								</Node>
								<Node score="1487.3728726217184">
									<SimplePredicate field="double(x17)" operator="lessOrEqual" value="2.0"/>
								</Node>
							</Node>
							<Node score="558.0648469474328">
								<SimplePredicate field="double(x31)" operator="lessOrEqual" value="1.5"/>
								<Node score="-134.43339092828157">
									<SimplePredicate field="double(x25)" operator="lessOrEqual" value="8.5"/>
								</Node>
							</Node>
							<Node score="1910.6526430281467">
								<SimplePredicate field="double(x27)" operator="lessOrEqual" value="2.0"/>
							</Node>
						</Node>
						<Node score="3768.3080983667182">
							<SimplePredicate field="double(x22)" operator="lessOrEqual" value="12.0"/>
							<Node score="-286.36765984328144">
								<SimplePredicate field="double(x27)" operator="lessOrEqual" value="1.5"/>
								<Node score="953.1213917267186">
									<SimplePredicate field="double(x17)" operator="lessOrEqual" value="4128.0"/>
								</Node>
							</Node>
							<Node score="2748.4831441403785">
								<SimplePredicate field="double(x23)" operator="lessOrEqual" value="8.5"/>
							</Node>
						</Node>
						<Node score="9531.884158366718">
							<SimplePredicate field="double(x17)" operator="lessOrEqual" value="160.0"/>
						</Node>
						<Node score="4504.124642026718">
							<SimplePredicate field="double(x17)" operator="lessOrEqual" value="375.5"/>
						</Node>
					</Node>
				</TreeModel>
			</Segment>
			<Segment id="6">
				<True/>
				<TreeModel functionName="regression" missingValueStrategy="nullPrediction" noTrueChildStrategy="returnLastPrediction" splitCharacteristic="multiSplit">
					<MiningSchema>
						<MiningField name="x22"/>
						<MiningField name="x32"/>
						<MiningField name="x31"/>
						<MiningField name="x25"/>
						<MiningField name="x17"/>
						<MiningField name="x27"/>
						<MiningField name="x6"/>
						<MiningField name="x23"/>
					</MiningSchema>
					<Node score="4215.629942832051">
						<True/>
						<Node score="2542.6799467163014">
							<SimplePredicate field="double(x22)" operator="lessOrEqual" value="2.5"/>
							<Node score="1472.4991438955012">
								<SimplePredicate field="double(x32)" operator="lessOrEqual" value="6.0"/>
								<Node score="-16.513526735423625">
									<SimplePredicate field="double(x31)" operator="lessOrEqual" value="1.5"/>
									<Node score="-581.1027961080526">
										<SimplePredicate field="double(x25)" operator="lessOrEqual" value="8.5"/>
									</Node>
								</Node>
								<Node score="-263.4547600278859">
									<SimplePredicate field="double(x25)" operator="lessOrEqual" value="12.5"/>
								</Node>
							</Node>
							<Node score="552.4841984779586">
								<SimplePredicate field="double(x31)" operator="lessOrEqual" value="1.5"/>
								<Node score="-133.08905701899877">
									<SimplePredicate field="double(x25)" operator="lessOrEqual" value="8.5"/>
								</Node>
							</Node>
							<Node score="1891.5461165978652">
								<SimplePredicate field="double(x27)" operator="lessOrEqual" value="2.0"/>
							</Node>
						</Node>
						<Node score="3730.6250173830513">
							<SimplePredicate field="double(x6)" operator="lessOrEqual" value="12.0"/>
							<Node score="-283.50398324484865">
								<SimplePredicate field="double(x27)" operator="lessOrEqual" value="1.5"/>
								<Node score="943.5901778094512">
									<SimplePredicate field="double(x17)" operator="lessOrEqual" value="4128.0"/>
								</Node>
							</Node>
							<Node score="2720.9983126989714">
								<SimplePredicate field="double(x23)" operator="lessOrEqual" value="8.5"/>
							</Node>
						</Node>
						<Node score="9436.565316783051">
							<SimplePredicate field="double(x17)" operator="lessOrEqual" value="160.0"/>
						</Node>
						<Node score="4459.083395606452">
							<SimplePredicate field="double(x17)" operator="lessOrEqual" value="375.5"/>
						</Node>
					</Node>
				</TreeModel>
			</Segment>
			<Segment id="7">
				<True/>
				<TreeModel functionName="regression" missingValueStrategy="nullPrediction" noTrueChildStrategy="returnLastPrediction" splitCharacteristic="multiSplit">
					<MiningSchema>
						<MiningField name="x22"/>
						<MiningField name="x32"/>
						<MiningField name="x31"/>
						<MiningField name="x25"/>
						<MiningField name="x17"/>
						<MiningField name="x27"/>
						<MiningField name="x6"/>
						<MiningField name="x23"/>
						<MiningField name="x7"/>
					</MiningSchema>
					<Node score="9342.199663615222">
						<True/>
						<Node score="2517.2531472491382">
							<SimplePredicate field="double(x22)" operator="lessOrEqual" value="2.5"/>
							<Node score="1457.7741524565463">
								<SimplePredicate field="double(x32)" operator="lessOrEqual" value="6.0"/>
								<Node score="-16.348391468069394">
									<SimplePredicate field="double(x31)" operator="lessOrEqual" value="1.5"/>
									<Node score="-575.2917681469692">
										<SimplePredicate field="double(x25)" operator="lessOrEqual" value="8.5"/>
									</Node>
								</Node>
								<Node score="-260.8202124276046">
									<SimplePredicate field="double(x7)" operator="lessOrEqual" value="10.0"/>
								</Node>
							</Node>
							<Node score="546.9593564931786">
								<SimplePredicate field="double(x31)" operator="lessOrEqual" value="1.5"/>
								<Node score="-131.75816644880874">
									<SimplePredicate field="double(x25)" operator="lessOrEqual" value="8.5"/>
								</Node>
							</Node>
							<Node score="1872.6306554318871">
								<SimplePredicate field="double(x27)" operator="lessOrEqual" value="2.0"/>
							</Node>
						</Node>
						<Node score="3693.318767209221">
							<SimplePredicate field="double(x6)" operator="lessOrEqual" value="12.0"/>
							<Node score="934.1542760313569">
								<SimplePredicate field="double(x27)" operator="lessOrEqual" value="1.5"/>
								<Node score="-280.66894341240015">
									<SimplePredicate field="double(x22)" operator="lessOrEqual" value="6.0"/>
								</Node>
							</Node>
							<Node score="2693.7883295719826">
								<SimplePredicate field="double(x23)" operator="lessOrEqual" value="8.5"/>
							</Node>
						</Node>
						<Node score="4173.47364340373">
							<SimplePredicate field="double(x31)" operator="lessOrEqual" value="1.5"/>
							<Node score="4414.492561650387">
								<SimplePredicate field="double(x17)" operator="lessOrEqual" value="375.5"/>
							</Node>
						</Node>
					</Node>
				</TreeModel>
			</Segment>
			<Segment id="8">
				<True/>
				<TreeModel functionName="regression" missingValueStrategy="nullPrediction" noTrueChildStrategy="returnLastPrediction" splitCharacteristic="multiSplit">
					<MiningSchema>
						<MiningField name="x22"/>
						<MiningField name="x32"/>
						<MiningField name="x31"/>
						<MiningField name="x25"/>
						<MiningField name="x17"/>
						<MiningField name="x27"/>
						<MiningField name="x6"/>
						<MiningField name="x23"/>
						<MiningField name="x24"/>
					</MiningSchema>
					<Node score="4131.738906969694">
						<True/>
						<Node score="2492.080615776647">
							<SimplePredicate field="double(x22)" operator="lessOrEqual" value="2.5"/>
							<Node score="1443.1964109319806">
								<SimplePredicate field="double(x32)" operator="lessOrEqual" value="6.0"/>
								<Node score="-37.755535483819315">
									<SimplePredicate field="double(x31)" operator="lessOrEqual" value="1.5"/>
									<Node score="-570.7966190360814">
										<SimplePredicate field="double(x25)" operator="lessOrEqual" value="6.0"/>
									</Node>
								</Node>
								<Node score="-258.2120103033294">
									<SimplePredicate field="double(x24)" operator="lessOrEqual" value="10.0"/>
								</Node>
							</Node>
							<Node score="541.4897629282469">
								<SimplePredicate field="double(x31)" operator="lessOrEqual" value="1.5"/>
								<Node score="-130.44058478432066">
									<SimplePredicate field="double(x25)" operator="lessOrEqual" value="8.5"/>
								</Node>
							</Node>
							<Node score="1853.904348877568">
								<SimplePredicate field="double(x27)" operator="lessOrEqual" value="2.0"/>
							</Node>
						</Node>
						<Node score="3656.3855795371283">
							<SimplePredicate field="double(x6)" operator="lessOrEqual" value="12.0"/>
							<Node score="-277.86225397827616">
								<SimplePredicate field="double(x27)" operator="lessOrEqual" value="1.5"/>
								<Node score="924.8127332710433">
									<SimplePredicate field="double(x23)" operator="lessOrEqual" value="4.5"/>
								</Node>
							</Node>
							<Node score="2666.8504462762658">
								<SimplePredicate field="double(x23)" operator="lessOrEqual" value="8.5"/>
							</Node>
						</Node>
						<Node score="9248.77766697907">
							<SimplePredicate field="double(x17)" operator="lessOrEqual" value="160.0"/>
						</Node>
						<Node score="4370.347636033883">
							<SimplePredicate field="double(x17)" operator="lessOrEqual" value="375.5"/>
						</Node>
					</Node>
				</TreeModel>
			</Segment>
			<Segment id="9">
				<True/>
				<TreeModel functionName="regression" missingValueStrategy="nullPrediction" noTrueChildStrategy="returnLastPrediction" splitCharacteristic="multiSplit">
					<MiningSchema>
						<MiningField name="x22"/>
						<MiningField name="x32"/>
						<MiningField name="x31"/>
						<MiningField name="x25"/>
						<MiningField name="x17"/>
						<MiningField name="x27"/>
						<MiningField name="x23"/>
						<MiningField name="x24"/>
						<MiningField name="x33"/>
					</MiningSchema>
					<Node score="9156.289890309277">
						<True/>
						<Node score="2467.1598096188804">
							<SimplePredicate field="double(x22)" operator="lessOrEqual" value="2.5"/>
							<Node score="1428.7644468226608">
								<SimplePredicate field="double(x32)" operator="lessOrEqual" value="6.0"/>
								<Node score="-15.807352198550575">
									<SimplePredicate field="double(x31)" operator="lessOrEqual" value="1.5"/>
									<Node score="-563.8553357009923">
										<SimplePredicate field="double(x25)" operator="lessOrEqual" value="8.5"/>
									</Node>
								</Node>
								<Node score="-255.6298902002958">
									<SimplePredicate field="double(x33)" operator="lessOrEqual" value="10.0"/>
								</Node>
							</Node>
							<Node score="536.0748652989644">
								<SimplePredicate field="double(x31)" operator="lessOrEqual" value="1.5"/>
								<Node score="-129.13617893647742">
									<SimplePredicate field="double(x25)" operator="lessOrEqual" value="8.5"/>
								</Node>
							</Node>
							<Node score="1835.3653053887922">
								<SimplePredicate field="double(x27)" operator="lessOrEqual" value="2.0"/>
							</Node>
						</Node>
						<Node score="3619.821723741757">
							<SimplePredicate field="double(x32)" operator="lessOrEqual" value="12.0"/>
							<Node score="915.5646059383329">
								<SimplePredicate field="double(x27)" operator="lessOrEqual" value="1.5"/>
								<Node score="-275.0836314384934">
									<SimplePredicate field="double(x24)" operator="lessOrEqual" value="4.5"/>
								</Node>
							</Node>
							<Node score="2640.1819418135005">
								<SimplePredicate field="double(x23)" operator="lessOrEqual" value="8.5"/>
							</Node>
						</Node>
						<Node score="4090.4215178999966">
							<SimplePredicate field="double(x31)" operator="lessOrEqual" value="1.5"/>
							<Node score="4326.644159673544">
								<SimplePredicate field="double(x17)" operator="lessOrEqual" value="375.5"/>
							</Node>
						</Node>
					</Node>
				</TreeModel>
			</Segment>
			<Segment id="10">
				<True/>
				<TreeModel functionName="regression" missingValueStrategy="nullPrediction" noTrueChildStrategy="returnLastPrediction" splitCharacteristic="multiSplit">
					<MiningSchema>
						<MiningField name="x22"/>
						<MiningField name="x32"/>
						<MiningField name="x31"/>
						<MiningField name="x25"/>
						<MiningField name="x17"/>
						<MiningField name="x27"/>
						<MiningField name="x6"/>
						<MiningField name="x23"/>
					</MiningSchema>
					<Node score="4049.5173027209967">
						<True/>
						<Node score="2442.4882115226915">
							<SimplePredicate field="double(x22)" operator="lessOrEqual" value="2.5"/>
							<Node score="-253.07359129829237">
								<SimplePredicate field="double(x32)" operator="lessOrEqual" value="6.0"/>
								<Node score="-36.79833123507068">
									<SimplePredicate field="double(x31)" operator="lessOrEqual" value="1.5"/>
									<Node score="-559.4500994887115">
										<SimplePredicate field="double(x25)" operator="lessOrEqual" value="6.0"/>
									</Node>
								</Node>
								<Node score="1414.4768023544343">
									<SimplePredicate field="double(x17)" operator="lessOrEqual" value="2.0"/>
								</Node>
							</Node>
							<Node score="530.714116645975">
								<SimplePredicate field="double(x31)" operator="lessOrEqual" value="1.5"/>
								<Node score="-127.84481714711258">
									<SimplePredicate field="double(x25)" operator="lessOrEqual" value="8.5"/>
								</Node>
							</Node>
							<Node score="1817.0116523349045">
								<SimplePredicate field="double(x27)" operator="lessOrEqual" value="2.0"/>
							</Node>
						</Node>
						<Node score="3583.6235065043393">
							<SimplePredicate field="double(x6)" operator="lessOrEqual" value="12.0"/>
							<Node score="-272.33279512410843">
								<SimplePredicate field="double(x27)" operator="lessOrEqual" value="1.5"/>
								<Node score="906.4089598789495">
									<SimplePredicate field="double(x23)" operator="lessOrEqual" value="4.5"/>
								</Node>
							</Node>
							<Node score="2613.780122395364">
								<SimplePredicate field="double(x23)" operator="lessOrEqual" value="8.5"/>
							</Node>
						</Node>
						<Node score="9064.726991406185">
							<SimplePredicate field="double(x17)" operator="lessOrEqual" value="160.0"/>
						</Node>
						<Node score="4283.377718076808">
							<SimplePredicate field="double(x17)" operator="lessOrEqual" value="375.5"/>
						</Node>
					</Node>
				</TreeModel>
			</Segment>
			<Segment id="11">
				<True/>
				<TreeModel functionName="regression" missingValueStrategy="nullPrediction" noTrueChildStrategy="returnLastPrediction" splitCharacteristic="multiSplit">
					<MiningSchema>
						<MiningField name="x22"/>
						<MiningField name="x32"/>
						<MiningField name="x31"/>
						<MiningField name="x25"/>
						<MiningField name="x17"/>
						<MiningField name="x27"/>
						<MiningField name="x6"/>
						<MiningField name="x23"/>
					</MiningSchema>
					<Node score="8974.079721492124">
						<True/>
						<Node score="2418.0633294074646">
							<SimplePredicate field="double(x22)" operator="lessOrEqual" value="2.5"/>
							<Node score="-250.54285538531002">
								<SimplePredicate field="double(x32)" operator="lessOrEqual" value="6.0"/>
								<Node score="-15.281295364214316">
									<SimplePredicate field="double(x31)" operator="lessOrEqual" value="1.5"/>
									<Node score="-552.6462562008461">
										<SimplePredicate field="double(x25)" operator="lessOrEqual" value="8.5"/>
									</Node>
								</Node>
								<Node score="1400.33203433089">
									<SimplePredicate field="double(x17)" operator="lessOrEqual" value="2.0"/>
								</Node>
							</Node>
							<Node score="525.4069754795154">
								<SimplePredicate field="double(x31)" operator="lessOrEqual" value="1.5"/>
								<Node score="-126.56636897564142">
									<SimplePredicate field="double(x25)" operator="lessOrEqual" value="8.5"/>
								</Node>
							</Node>
							<Node score="1798.841535811555">
								<SimplePredicate field="double(x27)" operator="lessOrEqual" value="2.0"/>
							</Node>
						</Node>
						<Node score="3547.787271439296">
							<SimplePredicate field="double(x6)" operator="lessOrEqual" value="12.0"/>
							<Node score="-269.6094671728673">
								<SimplePredicate field="double(x25)" operator="lessOrEqual" value="8.0"/>
								<Node score="897.3448702801601">
									<SimplePredicate field="double(x23)" operator="lessOrEqual" value="4.5"/>
								</Node>
							</Node>
							<Node score="2587.6423211714146">
								<SimplePredicate field="double(x23)" operator="lessOrEqual" value="8.5"/>
							</Node>
						</Node>
						<Node score="4009.0221296937866">
							<SimplePredicate field="double(x31)" operator="lessOrEqual" value="1.5"/>
							<Node score="4240.543940896041">
								<SimplePredicate field="double(x17)" operator="lessOrEqual" value="375.5"/>
							</Node>
						</Node>
					</Node>
				</TreeModel>
			</Segment>
			<Segment id="12">
				<True/>
				<TreeModel functionName="regression" missingValueStrategy="nullPrediction" noTrueChildStrategy="returnLastPrediction" splitCharacteristic="multiSplit">
					<MiningSchema>
						<MiningField name="x22"/>
						<MiningField name="x32"/>
						<MiningField name="x31"/>
						<MiningField name="x25"/>
						<MiningField name="x17"/>
						<MiningField name="x27"/>
						<MiningField name="x23"/>
						<MiningField name="x24"/>
					</MiningSchema>
					<Node score="8884.338924277203">
						<True/>
						<Node score="2393.88269611339">
							<SimplePredicate field="double(x22)" operator="lessOrEqual" value="2.5"/>
							<Node score="1386.328713987581">
								<SimplePredicate field="double(x32)" operator="lessOrEqual" value="6.0"/>
								<Node score="-35.86417730689577">
									<SimplePredicate field="double(x31)" operator="lessOrEqual" value="1.5"/>
									<Node score="-548.3291359318159">
										<SimplePredicate field="double(x25)" operator="lessOrEqual" value="6.0"/>
									</Node>
								</Node>
								<Node score="-248.03742683145796">
									<SimplePredicate field="double(x24)" operator="lessOrEqual" value="10.0"/>
								</Node>
							</Node>
							<Node score="520.15290572472">
								<SimplePredicate field="double(x31)" operator="lessOrEqual" value="1.5"/>
								<Node score="-125.30070528588506">
									<SimplePredicate field="double(x25)" operator="lessOrEqual" value="8.5"/>
								</Node>
							</Node>
							<Node score="1780.8531204534397">
								<SimplePredicate field="double(x27)" operator="lessOrEqual" value="2.0"/>
							</Node>
						</Node>
						<Node score="3512.309398724903">
							<SimplePredicate field="double(x22)" operator="lessOrEqual" value="12.0"/>
							<Node score="-266.9133725011386">
								<SimplePredicate field="double(x27)" operator="lessOrEqual" value="1.5"/>
								<Node score="888.3714215773584">
									<SimplePredicate field="double(x17)" operator="lessOrEqual" value="4128.0"/>
								</Node>
							</Node>
							<Node score="2561.7658979596954">
								<SimplePredicate field="double(x23)" operator="lessOrEqual" value="8.5"/>
							</Node>
						</Node>
						<Node score="3968.9319083968485">
							<SimplePredicate field="double(x31)" operator="lessOrEqual" value="1.5"/>
							<Node score="4198.13850148708">
								<SimplePredicate field="double(x17)" operator="lessOrEqual" value="375.5"/>
							</Node>
						</Node>
					</Node>
				</TreeModel>
			</Segment>
			<Segment id="13">
				<True/>
				<TreeModel functionName="regression" missingValueStrategy="nullPrediction" noTrueChildStrategy="returnLastPrediction" splitCharacteristic="multiSplit">
					<MiningSchema>
						<MiningField name="x22"/>
						<MiningField name="x32"/>
						<MiningField name="x31"/>
						<MiningField name="x25"/>
						<MiningField name="x17"/>
						<MiningField name="x27"/>
						<MiningField name="x23"/>
					</MiningSchema>
					<Node score="3929.24258931288">
						<True/>
						<Node score="2369.943869152256">
							<SimplePredicate field="double(x22)" operator="lessOrEqual" value="2.5"/>
							<Node score="-245.55705256314363">
								<SimplePredicate field="double(x32)" operator="lessOrEqual" value="6.0"/>
								<Node score="-14.769840637503194">
									<SimplePredicate field="double(x31)" operator="lessOrEqual" value="1.5"/>
									<Node score="-541.660009846432">
										<SimplePredicate field="double(x25)" operator="lessOrEqual" value="8.5"/>
									</Node>
								</Node>
								<Node score="1372.4654268477052">
									<SimplePredicate field="double(x17)" operator="lessOrEqual" value="2.0"/>
								</Node>
							</Node>
							<Node score="514.9513766674728">
								<SimplePredicate field="double(x31)" operator="lessOrEqual" value="1.5"/>
								<Node score="-124.04769823302622">
									<SimplePredicate field="double(x25)" operator="lessOrEqual" value="8.5"/>
								</Node>
							</Node>
							<Node score="1763.0445892489054">
								<SimplePredicate field="double(x27)" operator="lessOrEqual" value="2.0"/>
							</Node>
						</Node>
						<Node score="3477.186304737654">
							<SimplePredicate field="double(x32)" operator="lessOrEqual" value="12.0"/>
							<Node score="-264.2442387761272">
								<SimplePredicate field="double(x25)" operator="lessOrEqual" value="8.0"/>
								<Node score="879.4877073615849">
									<SimplePredicate field="double(x17)" operator="lessOrEqual" value="4128.0"/>
								</Node>
							</Node>
							<Node score="2536.1482389801004">
								<SimplePredicate field="double(x23)" operator="lessOrEqual" value="8.5"/>
							</Node>
						</Node>
						<Node score="8795.49553503443">
							<SimplePredicate field="double(x17)" operator="lessOrEqual" value="160.0"/>
						</Node>
						<Node score="4156.15711647221">
							<SimplePredicate field="double(x17)" operator="lessOrEqual" value="375.5"/>
						</Node>
					</Node>
				</TreeModel>
			</Segment>
			<Segment id="14">
				<True/>
				<TreeModel functionName="regression" missingValueStrategy="nullPrediction" noTrueChildStrategy="returnLastPrediction" splitCharacteristic="multiSplit">
					<MiningSchema>
						<MiningField name="x22"/>
						<MiningField name="x32"/>
						<MiningField name="x31"/>
						<MiningField name="x25"/>
						<MiningField name="x17"/>
						<MiningField name="x27"/>
						<MiningField name="x23"/>
						<MiningField name="x7"/>
						<MiningField name="x33"/>
					</MiningSchema>
					<Node score="8707.540579684086">
						<True/>
						<Node score="2346.244430460734">
							<SimplePredicate field="double(x22)" operator="lessOrEqual" value="2.5"/>
							<Node score="1358.7407725792282">
								<SimplePredicate field="double(x32)" operator="lessOrEqual" value="6.0"/>
								<Node score="-34.95253699729105">
									<SimplePredicate field="double(x31)" operator="lessOrEqual" value="1.5"/>
									<Node score="-537.4292444740336">
										<SimplePredicate field="double(x25)" operator="lessOrEqual" value="6.0"/>
									</Node>
								</Node>
								<Node score="-243.10148203751083">
									<SimplePredicate field="double(x33)" operator="lessOrEqual" value="10.0"/>
								</Node>
							</Node>
							<Node score="509.80186290079797">
								<SimplePredicate field="double(x31)" operator="lessOrEqual" value="1.5"/>
								<Node score="-122.80722125069595">
									<SimplePredicate field="double(x25)" operator="lessOrEqual" value="8.5"/>
								</Node>
							</Node>
							<Node score="1745.4141433564166">
								<SimplePredicate field="double(x27)" operator="lessOrEqual" value="2.0"/>
							</Node>
						</Node>
						<Node score="2805.664087455067">
							<SimplePredicate field="double(x22)" operator="lessOrEqual" value="12.0"/>
							<Node score="-261.60179638836587">
								<SimplePredicate field="double(x25)" operator="lessOrEqual" value="8.0"/>
								<Node score="870.6928302879691">
									<SimplePredicate field="double(x23)" operator="lessOrEqual" value="4.5"/>
								</Node>
							</Node>
							<Node score="2458.5968083271823">
								<SimplePredicate field="double(x7)" operator="lessOrEqual" value="8.5"/>
							</Node>
						</Node>
						<Node score="3889.9501634197513">
							<SimplePredicate field="double(x31)" operator="lessOrEqual" value="1.5"/>
							<Node score="4114.595545307488">
								<SimplePredicate field="double(x17)" operator="lessOrEqual" value="375.5"/>
							</Node>
						</Node>
					</Node>
				</TreeModel>
			</Segment>
			<Segment id="15">
				<True/>
				<TreeModel functionName="regression" missingValueStrategy="nullPrediction" noTrueChildStrategy="returnLastPrediction" splitCharacteristic="multiSplit">
					<MiningSchema>
						<MiningField name="x22"/>
						<MiningField name="x32"/>
						<MiningField name="x31"/>
						<MiningField name="x25"/>
						<MiningField name="x17"/>
						<MiningField name="x27"/>
						<MiningField name="x23"/>
						<MiningField name="x33"/>
					</MiningSchema>
					<Node score="3851.0506617855535">
						<True/>
						<Node score="2322.781986156126">
							<SimplePredicate field="double(x22)" operator="lessOrEqual" value="2.5"/>
							<Node score="1345.153364853436">
								<SimplePredicate field="double(x32)" operator="lessOrEqual" value="6.0"/>
								<Node score="-68.97079722930208">
									<SimplePredicate field="double(x31)" operator="lessOrEqual" value="1.5"/>
									<Node score="-534.2846594561498">
										<SimplePredicate field="double(x33)" operator="lessOrEqual" value="2.5"/>
									</Node>
								</Node>
								<Node score="-240.67046721713706">
									<SimplePredicate field="double(x33)" operator="lessOrEqual" value="10.0"/>
								</Node>
							</Node>
							<Node score="504.7038442717903">
								<SimplePredicate field="double(x31)" operator="lessOrEqual" value="1.5"/>
								<Node score="-121.57914903818899">
									<SimplePredicate field="double(x25)" operator="lessOrEqual" value="8.5"/>
								</Node>
							</Node>
							<Node score="1727.9600019228517">
								<SimplePredicate field="double(x27)" operator="lessOrEqual" value="2.0"/>
							</Node>
						</Node>
						<Node score="3414.3578008157274">
							<SimplePredicate field="double(x22)" operator="lessOrEqual" value="12.0"/>
							<Node score="-258.9857784244822">
								<SimplePredicate field="double(x27)" operator="lessOrEqual" value="1.5"/>
								<Node score="861.9859019850893">
									<SimplePredicate field="double(x17)" operator="lessOrEqual" value="4128.0"/>
								</Node>
							</Node>
							<Node score="2485.523584059948">
								<SimplePredicate field="double(x23)" operator="lessOrEqual" value="8.5"/>
							</Node>
						</Node>
						<Node score="8620.465173887245">
							<SimplePredicate field="double(x17)" operator="lessOrEqual" value="160.0"/>
						</Node>
						<Node score="4073.4495898544124">
							<SimplePredicate field="double(x17)" operator="lessOrEqual" value="375.5"/>
						</Node>
					</Node>
				</TreeModel>
			</Segment>
			<Segment id="16">
				<True/>
				<TreeModel functionName="regression" missingValueStrategy="nullPrediction" noTrueChildStrategy="returnLastPrediction" splitCharacteristic="multiSplit">
					<MiningSchema>
						<MiningField name="x22"/>
						<MiningField name="x32"/>
						<MiningField name="x31"/>
						<MiningField name="x25"/>
						<MiningField name="x17"/>
						<MiningField name="x27"/>
						<MiningField name="x33"/>
					</MiningSchema>
					<Node score="3812.5401551676982">
						<True/>
						<Node score="2299.5541662945648">
							<SimplePredicate field="double(x22)" operator="lessOrEqual" value="2.5"/>
							<Node score="1331.7018312049015">
								<SimplePredicate field="double(x32)" operator="lessOrEqual" value="6.0"/>
								<Node score="-13.582908888862221">
									<SimplePredicate field="double(x31)" operator="lessOrEqual" value="1.5"/>
									<Node score="-525.6133541166524">
										<SimplePredicate field="double(x25)" operator="lessOrEqual" value="8.5"/>
									</Node>
								</Node>
								<Node score="-238.26376254496412">
									<SimplePredicate field="double(x33)" operator="lessOrEqual" value="10.0"/>
								</Node>
							</Node>
							<Node score="499.6568058290723">
								<SimplePredicate field="double(x31)" operator="lessOrEqual" value="1.5"/>
								<Node score="-120.3633575478071">
									<SimplePredicate field="double(x25)" operator="lessOrEqual" value="8.5"/>
								</Node>
							</Node>
							<Node score="1710.6804019036233">
								<SimplePredicate field="double(x27)" operator="lessOrEqual" value="2.0"/>
							</Node>
						</Node>
						<Node score="2409.1556044033105">
							<SimplePredicate field="double(x32)" operator="lessOrEqual" value="12.0"/>
							<Node score="853.3660429652385">
								<SimplePredicate field="double(x27)" operator="lessOrEqual" value="1.5"/>
								<Node score="-256.39592064023736">
									<SimplePredicate field="double(x22)" operator="lessOrEqual" value="6.0"/>
								</Node>
							</Node>
							<Node score="2751.720172721299">
								<SimplePredicate field="double(x31)" operator="lessOrEqual" value="1.5"/>
							</Node>
						</Node>
						<Node score="8534.260522148372">
							<SimplePredicate field="double(x17)" operator="lessOrEqual" value="160.0"/>
						</Node>
						<Node score="4032.7150939558683">
							<SimplePredicate field="double(x17)" operator="lessOrEqual" value="375.5"/>
						</Node>
					</Node>
				</TreeModel>
			</Segment>
			<Segment id="17">
				<True/>
				<TreeModel functionName="regression" missingValueStrategy="nullPrediction" noTrueChildStrategy="returnLastPrediction" splitCharacteristic="multiSplit">
					<MiningSchema>
						<MiningField name="x22"/>
						<MiningField name="x32"/>
						<MiningField name="x31"/>
						<MiningField name="x25"/>
						<MiningField name="x17"/>
						<MiningField name="x27"/>
						<MiningField name="x23"/>
						<MiningField name="x33"/>
					</MiningSchema>
					<Node score="3774.4147536160212">
						<True/>
						<Node score="2276.5586246316193">
							<SimplePredicate field="double(x22)" operator="lessOrEqual" value="2.5"/>
							<Node score="-235.88112491951583">
								<SimplePredicate field="double(x32)" operator="lessOrEqual" value="6.0"/>
								<Node score="-67.12119927766487">
									<SimplePredicate field="double(x31)" operator="lessOrEqual" value="1.5"/>
									<Node score="-523.6856793204247">
										<SimplePredicate field="double(x33)" operator="lessOrEqual" value="2.5"/>
									</Node>
								</Node>
								<Node score="1318.3848128928526">
									<SimplePredicate field="double(x17)" operator="lessOrEqual" value="2.0"/>
								</Node>
							</Node>
							<Node score="494.6602377707815">
								<SimplePredicate field="double(x31)" operator="lessOrEqual" value="1.5"/>
								<Node score="-119.15972397232902">
									<SimplePredicate field="double(x25)" operator="lessOrEqual" value="8.5"/>
								</Node>
							</Node>
							<Node score="1693.5735978845878">
								<SimplePredicate field="double(x27)" operator="lessOrEqual" value="2.0"/>
							</Node>
						</Node>
						<Node score="3352.697021080357">
							<SimplePredicate field="double(x32)" operator="lessOrEqual" value="12.0"/>
							<Node score="-253.83196143383498">
								<SimplePredicate field="double(x27)" operator="lessOrEqual" value="1.5"/>
								<Node score="844.8323825355861">
									<SimplePredicate field="double(x23)" operator="lessOrEqual" value="4.5"/>
								</Node>
							</Node>
							<Node score="2435.9083735054296">
								<SimplePredicate field="double(x23)" operator="lessOrEqual" value="8.5"/>
							</Node>
						</Node>
						<Node score="8448.91791692689">
							<SimplePredicate field="double(x17)" operator="lessOrEqual" value="160.0"/>
						</Node>
						<Node score="3992.3879430163097">
							<SimplePredicate field="double(x17)" operator="lessOrEqual" value="375.5"/>
						</Node>
					</Node>
				</TreeModel>
			</Segment>
			<Segment id="18">
				<True/>
				<TreeModel functionName="regression" missingValueStrategy="nullPrediction" noTrueChildStrategy="returnLastPrediction" splitCharacteristic="multiSplit">
					<MiningSchema>
						<MiningField name="x22"/>
						<MiningField name="x32"/>
						<MiningField name="x31"/>
						<MiningField name="x25"/>
						<MiningField name="x17"/>
						<MiningField name="x27"/>
						<MiningField name="x23"/>
						<MiningField name="x16"/>
					</MiningSchema>
					<Node score="3736.670606079861">
						<True/>
						<Node score="2253.793038385303">
							<SimplePredicate field="double(x22)" operator="lessOrEqual" value="2.5"/>
							<Node score="-233.52231367032002">
								<SimplePredicate field="double(x32)" operator="lessOrEqual" value="6.0"/>
								<Node score="-12.77586780719696">
									<SimplePredicate field="double(x31)" operator="lessOrEqual" value="1.5"/>
									<Node score="-515.1831937565986">
										<SimplePredicate field="double(x25)" operator="lessOrEqual" value="8.5"/>
									</Node>
								</Node>
								<Node score="1305.200964763924">
									<SimplePredicate field="double(x17)" operator="lessOrEqual" value="2.0"/>
								</Node>
							</Node>
							<Node score="489.7136353930738">
								<SimplePredicate field="double(x31)" operator="lessOrEqual" value="1.5"/>
								<Node score="-117.96812673260577">
									<SimplePredicate field="double(x25)" operator="lessOrEqual" value="8.5"/>
								</Node>
							</Node>
							<Node score="1676.6378619057416">
								<SimplePredicate field="double(x27)" operator="lessOrEqual" value="2.0"/>
							</Node>
						</Node>
						<Node score="2698.8252332061707">
							<SimplePredicate field="double(x22)" operator="lessOrEqual" value="12.0"/>
							<Node score="-251.29364181949666">
								<SimplePredicate field="double(x25)" operator="lessOrEqual" value="8.0"/>
								<Node score="836.3840587102303">
									<SimplePredicate field="double(x23)" operator="lessOrEqual" value="4.5"/>
								</Node>
							</Node>
							<Node score="2360.7049646242203">
								<SimplePredicate field="double(x16)" operator="lessOrEqual" value="24.0"/>
							</Node>
						</Node>
						<Node score="8364.42873775762">
							<SimplePredicate field="double(x17)" operator="lessOrEqual" value="160.0"/>
						</Node>
						<Node score="3952.4640635861465">
							<SimplePredicate field="double(x17)" operator="lessOrEqual" value="375.5"/>
						</Node>
					</Node>
				</TreeModel>
			</Segment>
			<Segment id="19">
				<True/>
				<TreeModel functionName="regression" missingValueStrategy="nullPrediction" noTrueChildStrategy="returnLastPrediction" splitCharacteristic="multiSplit">
					<MiningSchema>
						<MiningField name="x22"/>
						<MiningField name="x32"/>
						<MiningField name="x31"/>
						<MiningField name="x25"/>
						<MiningField name="x17"/>
						<MiningField name="x27"/>
						<MiningField name="x23"/>
						<MiningField name="x33"/>
					</MiningSchema>
					<Node score="3699.3039000190624">
						<True/>
						<Node score="2231.25510800145">
							<SimplePredicate field="double(x22)" operator="lessOrEqual" value="2.5"/>
							<Node score="-231.1870905336161">
								<SimplePredicate field="double(x32)" operator="lessOrEqual" value="6.0"/>
								<Node score="-65.3174139549175">
									<SimplePredicate field="double(x31)" operator="lessOrEqual" value="1.5"/>
									<Node score="-513.2969905896516">
										<SimplePredicate field="double(x33)" operator="lessOrEqual" value="2.5"/>
									</Node>
								</Node>
								<Node score="1292.148955116285">
									<SimplePredicate field="double(x17)" operator="lessOrEqual" value="2.0"/>
								</Node>
							</Node>
							<Node score="484.8164990391432">
								<SimplePredicate field="double(x31)" operator="lessOrEqual" value="1.5"/>
								<Node score="-116.78844546527974">
									<SimplePredicate field="double(x25)" operator="lessOrEqual" value="8.5"/>
								</Node>
							</Node>
							<Node score="1659.8714832866845">
								<SimplePredicate field="double(x27)" operator="lessOrEqual" value="2.0"/>
							</Node>
						</Node>
						<Node score="3292.181798537492">
							<SimplePredicate field="double(x22)" operator="lessOrEqual" value="12.0"/>
							<Node score="-248.7807054013017">
								<SimplePredicate field="double(x27)" operator="lessOrEqual" value="1.5"/>
								<Node score="828.020218123128">
									<SimplePredicate field="double(x17)" operator="lessOrEqual" value="4128.0"/>
								</Node>
							</Node>
							<Node score="2387.282493258606">
								<SimplePredicate field="double(x23)" operator="lessOrEqual" value="8.5"/>
							</Node>
						</Node>
						<Node score="8280.784450380044">
							<SimplePredicate field="double(x17)" operator="lessOrEqual" value="160.0"/>
						</Node>
						<Node score="3912.939422950285">
							<SimplePredicate field="double(x17)" operator="lessOrEqual" value="375.5"/>
						</Node>
					</Node>
				</TreeModel>
			</Segment>
			<Segment id="20">
				<True/>
				<TreeModel functionName="regression" missingValueStrategy="nullPrediction" noTrueChildStrategy="returnLastPrediction" splitCharacteristic="multiSplit">
					<MiningSchema>
						<MiningField name="x22"/>
						<MiningField name="x32"/>
						<MiningField name="x31"/>
						<MiningField name="x25"/>
						<MiningField name="x17"/>
						<MiningField name="x27"/>
						<MiningField name="x7"/>
					</MiningSchema>
					<Node score="3662.310861018872">
						<True/>
						<Node score="2208.9425569214354">
							<SimplePredicate field="double(x22)" operator="lessOrEqual" value="2.5"/>
							<Node score="-228.87521962828023">
								<SimplePredicate field="double(x32)" operator="lessOrEqual" value="6.0"/>
								<Node score="-11.994934989575881">
									<SimplePredicate field="double(x31)" operator="lessOrEqual" value="1.5"/>
									<Node score="-504.9600404787298">
										<SimplePredicate field="double(x25)" operator="lessOrEqual" value="8.5"/>
									</Node>
								</Node>
								<Node score="1279.227465565122">
									<SimplePredicate field="double(x17)" operator="lessOrEqual" value="2.0"/>
								</Node>
							</Node>
							<Node score="479.9683340487518">
								<SimplePredicate field="double(x31)" operator="lessOrEqual" value="1.5"/>
								<Node score="-115.6205610106269">
									<SimplePredicate field="double(x25)" operator="lessOrEqual" value="8.5"/>
								</Node>
							</Node>
							<Node score="1643.2727684538172">
								<SimplePredicate field="double(x27)" operator="lessOrEqual" value="2.0"/>
							</Node>
						</Node>
						<Node score="2646.9587122689913">
							<SimplePredicate field="double(x22)" operator="lessOrEqual" value="12.0"/>
							<Node score="-246.29289834728866">
								<SimplePredicate field="double(x25)" operator="lessOrEqual" value="8.0"/>
								<Node score="819.7400159418967">
									<SimplePredicate field="double(x17)" operator="lessOrEqual" value="4128.0"/>
								</Node>
							</Node>
							<Node score="2313.225090045392">
								<SimplePredicate field="double(x7)" operator="lessOrEqual" value="8.5"/>
							</Node>
						</Node>
						<Node score="8197.976605876243">
							<SimplePredicate field="double(x17)" operator="lessOrEqual" value="160.0"/>
						</Node>
						<Node score="3873.810028720782">
							<SimplePredicate field="double(x17)" operator="lessOrEqual" value="375.5"/>
						</Node>
					</Node>
				</TreeModel>
			</Segment>
			<Segment id="21">
				<True/>
				<TreeModel functionName="regression" missingValueStrategy="nullPrediction" noTrueChildStrategy="returnLastPrediction" splitCharacteristic="multiSplit">
					<MiningSchema>
						<MiningField name="x22"/>
						<MiningField name="x32"/>
						<MiningField name="x31"/>
						<MiningField name="x25"/>
						<MiningField name="x17"/>
						<MiningField name="x27"/>
						<MiningField name="x6"/>
						<MiningField name="x23"/>
						<MiningField name="x33"/>
					</MiningSchema>
					<Node score="3625.687752408683">
						<True/>
						<Node score="2186.853131352221">
							<SimplePredicate field="double(x22)" operator="lessOrEqual" value="2.5"/>
							<Node score="-226.58646743199841">
								<SimplePredicate field="double(x32)" operator="lessOrEqual" value="6.0"/>
								<Node score="-63.558360254494325">
									<SimplePredicate field="double(x31)" operator="lessOrEqual" value="1.5"/>
									<Node score="-503.11442027896754">
										<SimplePredicate field="double(x33)" operator="lessOrEqual" value="2.5"/>
									</Node>
								</Node>
								<Node score="1266.4351909094707">
									<SimplePredicate field="double(x17)" operator="lessOrEqual" value="2.0"/>
								</Node>
							</Node>
							<Node score="475.1686507082642">
								<SimplePredicate field="double(x31)" operator="lessOrEqual" value="1.5"/>
								<Node score="-114.46435540052069">
									<SimplePredicate field="double(x25)" operator="lessOrEqual" value="8.5"/>
								</Node>
							</Node>
							<Node score="1626.8400407692793">
								<SimplePredicate field="double(x27)" operator="lessOrEqual" value="2.0"/>
							</Node>
						</Node>
						<Node score="3232.7903934294272">
							<SimplePredicate field="double(x6)" operator="lessOrEqual" value="12.0"/>
							<Node score="-243.82996936381574">
								<SimplePredicate field="double(x27)" operator="lessOrEqual" value="1.5"/>
								<Node score="811.5426157824777">
									<SimplePredicate field="double(x23)" operator="lessOrEqual" value="4.5"/>
								</Node>
							</Node>
							<Node score="2339.626229870007">
								<SimplePredicate field="double(x23)" operator="lessOrEqual" value="8.5"/>
							</Node>
						</Node>
						<Node score="8115.996839817481">
							<SimplePredicate field="double(x17)" operator="lessOrEqual" value="160.0"/>
						</Node>
						<Node score="3835.0719284335746">
							<SimplePredicate field="double(x17)" operator="lessOrEqual" value="375.5"/>
						</Node>
					</Node>
				</TreeModel>
			</Segment>
			<Segment id="22">
				<True/>
				<TreeModel functionName="regression" missingValueStrategy="nullPrediction" noTrueChildStrategy="returnLastPrediction" splitCharacteristic="multiSplit">
					<MiningSchema>
						<MiningField name="x22"/>
						<MiningField name="x32"/>
						<MiningField name="x31"/>
						<MiningField name="x25"/>
						<MiningField name="x17"/>
						<MiningField name="x27"/>
						<MiningField name="x24"/>
					</MiningSchema>
					<Node score="3589.430874884596">
						<True/>
						<Node score="2164.9846000386983">
							<SimplePredicate field="double(x22)" operator="lessOrEqual" value="2.5"/>
							<Node score="-224.32060275767878">
								<SimplePredicate field="double(x32)" operator="lessOrEqual" value="6.0"/>
								<Node score="-11.239402037135278">
									<SimplePredicate field="double(x31)" operator="lessOrEqual" value="1.5"/>
									<Node score="-494.9397852372107">
										<SimplePredicate field="double(x25)" operator="lessOrEqual" value="8.5"/>
									</Node>
								</Node>
								<Node score="1253.7708390003759">
									<SimplePredicate field="double(x17)" operator="lessOrEqual" value="2.0"/>
								</Node>
							</Node>
							<Node score="470.4169642011813">
								<SimplePredicate field="double(x31)" operator="lessOrEqual" value="1.5"/>
								<Node score="-113.31971184651543">
									<SimplePredicate field="double(x25)" operator="lessOrEqual" value="8.5"/>
								</Node>
							</Node>
							<Node score="1610.5716403615863">
								<SimplePredicate field="double(x27)" operator="lessOrEqual" value="2.0"/>
							</Node>
						</Node>
						<Node score="2596.1004582214246">
							<SimplePredicate field="double(x32)" operator="lessOrEqual" value="12.0"/>
							<Node score="803.4271896246528">
								<SimplePredicate field="double(x27)" operator="lessOrEqual" value="1.5"/>
								<Node score="-241.39166967017763">
									<SimplePredicate field="double(x24)" operator="lessOrEqual" value="4.5"/>
								</Node>
							</Node>
							<Node score="2266.69657684624">
								<SimplePredicate field="double(x24)" operator="lessOrEqual" value="8.0"/>
							</Node>
						</Node>
						<Node score="8034.836871419306">
							<SimplePredicate field="double(x17)" operator="lessOrEqual" value="160.0"/>
						</Node>
						<Node score="3796.7212091492383">
							<SimplePredicate field="double(x17)" operator="lessOrEqual" value="375.5"/>
						</Node>
					</Node>
				</TreeModel>
			</Segment>
			<Segment id="23">
				<True/>
				<TreeModel functionName="regression" missingValueStrategy="nullPrediction" noTrueChildStrategy="returnLastPrediction" splitCharacteristic="multiSplit">
					<MiningSchema>
						<MiningField name="x22"/>
						<MiningField name="x32"/>
						<MiningField name="x31"/>
						<MiningField name="x25"/>
						<MiningField name="x17"/>
						<MiningField name="x27"/>
						<MiningField name="x23"/>
						<MiningField name="x24"/>
					</MiningSchema>
					<Node score="3553.53656613575">
						<True/>
						<Node score="2143.3347540383115">
							<SimplePredicate field="double(x22)" operator="lessOrEqual" value="2.5"/>
							<Node score="1241.2331306103722">
								<SimplePredicate field="double(x32)" operator="lessOrEqual" value="6.0"/>
								<Node score="-29.92578489072195">
									<SimplePredicate field="double(x31)" operator="lessOrEqual" value="1.5"/>
									<Node score="-491.0709370622893">
										<SimplePredicate field="double(x25)" operator="lessOrEqual" value="6.0"/>
									</Node>
								</Node>
								<Node score="-222.07739673010153">
									<SimplePredicate field="double(x24)" operator="lessOrEqual" value="10.0"/>
								</Node>
							</Node>
							<Node score="465.7127945591696">
								<SimplePredicate field="double(x31)" operator="lessOrEqual" value="1.5"/>
								<Node score="-112.18651472805023">
									<SimplePredicate field="double(x25)" operator="lessOrEqual" value="8.5"/>
								</Node>
							</Node>
							<Node score="1594.4659239579707">
								<SimplePredicate field="double(x27)" operator="lessOrEqual" value="2.0"/>
							</Node>
						</Node>
						<Node score="3174.5014849129184">
							<SimplePredicate field="double(x32)" operator="lessOrEqual" value="12.0"/>
							<Node score="795.3929177284062">
								<SimplePredicate field="double(x27)" operator="lessOrEqual" value="1.5"/>
								<Node score="-238.97775297347584">
									<SimplePredicate field="double(x22)" operator="lessOrEqual" value="6.0"/>
								</Node>
							</Node>
							<Node score="2292.920262522115">
								<SimplePredicate field="double(x23)" operator="lessOrEqual" value="8.5"/>
							</Node>
						</Node>
						<Node score="7954.488502705113">
							<SimplePredicate field="double(x17)" operator="lessOrEqual" value="160.0"/>
						</Node>
						<Node score="3758.7539970577463">
							<SimplePredicate field="double(x17)" operator="lessOrEqual" value="375.5"/>
						</Node>
					</Node>
				</TreeModel>
			</Segment>
			<Segment id="24">
				<True/>
				<TreeModel functionName="regression" missingValueStrategy="nullPrediction" noTrueChildStrategy="returnLastPrediction" splitCharacteristic="multiSplit">
					<MiningSchema>
						<MiningField name="x22"/>
						<MiningField name="x32"/>
						<MiningField name="x31"/>
						<MiningField name="x25"/>
						<MiningField name="x17"/>
						<MiningField name="x27"/>
						<MiningField name="x6"/>
						<MiningField name="x24"/>
						<MiningField name="x33"/>
						<MiningField name="x34"/>
					</MiningSchema>
					<Node score="7874.943617678062">
						<True/>
						<Node score="2121.9014064979287">
							<SimplePredicate field="double(x22)" operator="lessOrEqual" value="2.5"/>
							<Node score="-219.85662276280073">
								<SimplePredicate field="double(x32)" operator="lessOrEqual" value="6.0"/>
								<Node score="-60.92886381337529">
									<SimplePredicate field="double(x31)" operator="lessOrEqual" value="1.5"/>
									<Node score="-488.2231688531842">
										<SimplePredicate field="double(x33)" operator="lessOrEqual" value="2.5"/>
									</Node>
								</Node>
								<Node score="1228.8207993042683">
									<SimplePredicate field="double(x17)" operator="lessOrEqual" value="2.0"/>
								</Node>
							</Node>
							<Node score="461.05566661357807">
								<SimplePredicate field="double(x31)" operator="lessOrEqual" value="1.5"/>
								<Node score="-111.06464958076977">
									<SimplePredicate field="double(x25)" operator="lessOrEqual" value="8.5"/>
								</Node>
							</Node>
							<Node score="1578.521264718391">
								<SimplePredicate field="double(x27)" operator="lessOrEqual" value="2.0"/>
							</Node>
						</Node>
						<Node score="2221.100408452557">
							<SimplePredicate field="double(x6)" operator="lessOrEqual" value="12.0"/>
							<Node score="787.4389885511223">
								<SimplePredicate field="double(x25)" operator="lessOrEqual" value="8.0"/>
								<Node score="-236.58797544374113">
									<SimplePredicate field="double(x24)" operator="lessOrEqual" value="4.5"/>
								</Node>
							</Node>
							<Node score="2546.2307163224436">
								<SimplePredicate field="double(x34)" operator="lessOrEqual" value="8.0"/>
							</Node>
						</Node>
						<Node score="3518.001200474393">
							<SimplePredicate field="double(x31)" operator="lessOrEqual" value="1.5"/>
							<Node score="3721.166457087169">
								<SimplePredicate field="double(x17)" operator="lessOrEqual" value="375.5"/>
							</Node>
						</Node>
					</Node>
				</TreeModel>
			</Segment>
			<Segment id="25">
				<True/>
				<TreeModel functionName="regression" missingValueStrategy="nullPrediction" noTrueChildStrategy="returnLastPrediction" splitCharacteristic="multiSplit">
					<MiningSchema>
						<MiningField name="x22"/>
						<MiningField name="x32"/>
						<MiningField name="x31"/>
						<MiningField name="x25"/>
						<MiningField name="x17"/>
						<MiningField name="x27"/>
						<MiningField name="x6"/>
						<MiningField name="x23"/>
					</MiningSchema>
					<Node score="7796.1941815012815">
						<True/>
						<Node score="2100.682392432949">
							<SimplePredicate field="double(x22)" operator="lessOrEqual" value="2.5"/>
							<Node score="-217.6580565351728">
								<SimplePredicate field="double(x32)" operator="lessOrEqual" value="6.0"/>
								<Node score="-10.218461529722958">
									<SimplePredicate field="double(x31)" operator="lessOrEqual" value="1.5"/>
									<Node score="-480.2774017416139">
										<SimplePredicate field="double(x25)" operator="lessOrEqual" value="8.5"/>
									</Node>
								</Node>
								<Node score="1216.5325913112258">
									<SimplePredicate field="double(x17)" operator="lessOrEqual" value="2.0"/>
								</Node>
							</Node>
							<Node score="456.44510994744195">
								<SimplePredicate field="double(x31)" operator="lessOrEqual" value="1.5"/>
								<Node score="-109.95400308496205">
									<SimplePredicate field="double(x25)" operator="lessOrEqual" value="8.5"/>
								</Node>
							</Node>
							<Node score="1562.7360520712068">
								<SimplePredicate field="double(x27)" operator="lessOrEqual" value="2.0"/>
							</Node>
						</Node>
						<Node score="3117.294162900565">
							<SimplePredicate field="double(x6)" operator="lessOrEqual" value="12.0"/>
							<Node score="-234.22209568930373">
								<SimplePredicate field="double(x27)" operator="lessOrEqual" value="1.5"/>
								<Node score="779.5645986656109">
									<SimplePredicate field="double(x23)" operator="lessOrEqual" value="4.5"/>
								</Node>
							</Node>
							<Node score="2247.1456552116433">
								<SimplePredicate field="double(x23)" operator="lessOrEqual" value="8.5"/>
							</Node>
						</Node>
						<Node score="3482.821188469649">
							<SimplePredicate field="double(x31)" operator="lessOrEqual" value="1.5"/>
							<Node score="3683.954792516297">
								<SimplePredicate field="double(x17)" operator="lessOrEqual" value="375.5"/>
							</Node>
						</Node>
					</Node>
				</TreeModel>
			</Segment>
			<Segment id="26">
				<True/>
				<TreeModel functionName="regression" missingValueStrategy="nullPrediction" noTrueChildStrategy="returnLastPrediction" splitCharacteristic="multiSplit">
					<MiningSchema>
						<MiningField name="x22"/>
						<MiningField name="x32"/>
						<MiningField name="x31"/>
						<MiningField name="x25"/>
						<MiningField name="x17"/>
						<MiningField name="x27"/>
						<MiningField name="x23"/>
						<MiningField name="x7"/>
						<MiningField name="x33"/>
					</MiningSchema>
					<Node score="7718.232239686268">
						<True/>
						<Node score="2079.67556850862">
							<SimplePredicate field="double(x22)" operator="lessOrEqual" value="2.5"/>
							<Node score="-215.48147596982025">
								<SimplePredicate field="double(x32)" operator="lessOrEqual" value="6.0"/>
								<Node score="-59.2772726795205">
									<SimplePredicate field="double(x31)" operator="lessOrEqual" value="1.5"/>
									<Node score="-478.5381631472353">
										<SimplePredicate field="double(x33)" operator="lessOrEqual" value="2.5"/>
									</Node>
								</Node>
								<Node score="1204.3672653981134">
									<SimplePredicate field="double(x17)" operator="lessOrEqual" value="2.0"/>
								</Node>
							</Node>
							<Node score="451.8806588479676">
								<SimplePredicate field="double(x31)" operator="lessOrEqual" value="1.5"/>
								<Node score="-108.8544630541124">
									<SimplePredicate field="double(x25)" operator="lessOrEqual" value="8.5"/>
								</Node>
							</Node>
							<Node score="1547.108691550495">
								<SimplePredicate field="double(x27)" operator="lessOrEqual" value="2.0"/>
							</Node>
						</Node>
						<Node score="2497.330120931892">
							<SimplePredicate field="double(x32)" operator="lessOrEqual" value="12.0"/>
							<Node score="-231.8798747324107">
								<SimplePredicate field="double(x25)" operator="lessOrEqual" value="8.0"/>
								<Node score="771.7689526789549">
									<SimplePredicate field="double(x23)" operator="lessOrEqual" value="4.5"/>
								</Node>
							</Node>
							<Node score="2176.4179478159153">
								<SimplePredicate field="double(x7)" operator="lessOrEqual" value="8.5"/>
							</Node>
						</Node>
						<Node score="3447.9929765849524">
							<SimplePredicate field="double(x31)" operator="lessOrEqual" value="1.5"/>
							<Node score="3647.115244591134">
								<SimplePredicate field="double(x17)" operator="lessOrEqual" value="375.5"/>
							</Node>
						</Node>
					</Node>
				</TreeModel>
			</Segment>
			<Segment id="27">
				<True/>
				<TreeModel functionName="regression" missingValueStrategy="nullPrediction" noTrueChildStrategy="returnLastPrediction" splitCharacteristic="multiSplit">
					<MiningSchema>
						<MiningField name="x22"/>
						<MiningField name="x32"/>
						<MiningField name="x31"/>
						<MiningField name="x25"/>
						<MiningField name="x17"/>
						<MiningField name="x27"/>
						<MiningField name="x23"/>
						<MiningField name="x24"/>
						<MiningField name="x7"/>
					</MiningSchema>
					<Node score="3413.513046819103">
						<True/>
						<Node score="2058.8788128235333">
							<SimplePredicate field="double(x22)" operator="lessOrEqual" value="2.5"/>
							<Node score="1192.3235927441324">
								<SimplePredicate field="double(x32)" operator="lessOrEqual" value="6.0"/>
								<Node score="-9.523504187630465">
									<SimplePredicate field="double(x31)" operator="lessOrEqual" value="1.5"/>
									<Node score="-470.7469425455416">
										<SimplePredicate field="double(x25)" operator="lessOrEqual" value="8.5"/>
									</Node>
								</Node>
								<Node score="-213.32666121012167">
									<SimplePredicate field="double(x7)" operator="lessOrEqual" value="10.0"/>
								</Node>
							</Node>
							<Node score="447.361852259488">
								<SimplePredicate field="double(x31)" operator="lessOrEqual" value="1.5"/>
								<Node score="-107.76591842357125">
									<SimplePredicate field="double(x25)" operator="lessOrEqual" value="8.5"/>
								</Node>
							</Node>
							<Node score="1531.6376046349903">
								<SimplePredicate field="double(x27)" operator="lessOrEqual" value="2.0"/>
							</Node>
						</Node>
						<Node score="3061.1479200622407">
							<SimplePredicate field="double(x32)" operator="lessOrEqual" value="12.0"/>
							<Node score="764.0512631521652">
								<SimplePredicate field="double(x25)" operator="lessOrEqual" value="8.0"/>
								<Node score="-229.56107598508663">
									<SimplePredicate field="double(x24)" operator="lessOrEqual" value="4.5"/>
								</Node>
							</Node>
							<Node score="2202.2838490874847">
								<SimplePredicate field="double(x23)" operator="lessOrEqual" value="8.5"/>
							</Node>
						</Node>
						<Node score="7641.049917289405">
							<SimplePredicate field="double(x17)" operator="lessOrEqual" value="160.0"/>
						</Node>
						<Node score="3610.6440921452227">
							<SimplePredicate field="double(x17)" operator="lessOrEqual" value="375.5"/>
						</Node>
					</Node>
				</TreeModel>
			</Segment>
			<Segment id="28">
				<True/>
				<TreeModel functionName="regression" missingValueStrategy="nullPrediction" noTrueChildStrategy="returnLastPrediction" splitCharacteristic="multiSplit">
					<MiningSchema>
						<MiningField name="x22"/>
						<MiningField name="x32"/>
						<MiningField name="x31"/>
						<MiningField name="x25"/>
						<MiningField name="x17"/>
						<MiningField name="x27"/>
						<MiningField name="x23"/>
						<MiningField name="x33"/>
					</MiningSchema>
					<Node score="7564.6394181165115">
						<True/>
						<Node score="1613.5453633954926">
							<SimplePredicate field="double(x22)" operator="lessOrEqual" value="2.5"/>
							<Node score="-211.19339459802157">
								<SimplePredicate field="double(x32)" operator="lessOrEqual" value="6.0"/>
								<Node score="-57.66681803413311">
									<SimplePredicate field="double(x31)" operator="lessOrEqual" value="1.5"/>
									<Node score="-469.0453120903065">
										<SimplePredicate field="double(x33)" operator="lessOrEqual" value="2.5"/>
									</Node>
								</Node>
								<Node score="1180.400356816691">
									<SimplePredicate field="double(x17)" operator="lessOrEqual" value="2.0"/>
								</Node>
							</Node>
							<Node score="442.8882337368932">
								<SimplePredicate field="double(x31)" operator="lessOrEqual" value="1.5"/>
								<Node score="-106.68825923933555">
									<SimplePredicate field="double(x25)" operator="lessOrEqual" value="8.5"/>
								</Node>
							</Node>
							<Node score="2236.1783714457833">
								<SimplePredicate field="double(x25)" operator="lessOrEqual" value="12.0"/>
							</Node>
						</Node>
						<Node score="2449.3796878195044">
							<SimplePredicate field="double(x22)" operator="lessOrEqual" value="12.0"/>
							<Node score="-227.26546522523574">
								<SimplePredicate field="double(x27)" operator="lessOrEqual" value="1.5"/>
								<Node score="756.4107505206435">
									<SimplePredicate field="double(x23)" operator="lessOrEqual" value="4.5"/>
								</Node>
							</Node>
							<Node score="2132.63092984688">
								<SimplePredicate field="double(x33)" operator="lessOrEqual" value="8.5"/>
							</Node>
						</Node>
						<Node score="3379.377916350912">
							<SimplePredicate field="double(x31)" operator="lessOrEqual" value="1.5"/>
							<Node score="3574.5376512237704">
								<SimplePredicate field="double(x17)" operator="lessOrEqual" value="375.5"/>
							</Node>
						</Node>
					</Node>
				</TreeModel>
			</Segment>
			<Segment id="29">
				<True/>
				<TreeModel functionName="regression" missingValueStrategy="nullPrediction" noTrueChildStrategy="returnLastPrediction" splitCharacteristic="multiSplit">
					<MiningSchema>
						<MiningField name="x22"/>
						<MiningField name="x32"/>
						<MiningField name="x31"/>
						<MiningField name="x25"/>
						<MiningField name="x17"/>
						<MiningField name="x27"/>
						<MiningField name="x23"/>
						<MiningField name="x7"/>
					</MiningSchema>
					<Node score="3345.584137187403">
						<True/>
						<Node score="2022.1545710613434">
							<SimplePredicate field="double(x22)" operator="lessOrEqual" value="2.5"/>
							<Node score="1168.596353248524">
								<SimplePredicate field="double(x32)" operator="lessOrEqual" value="6.0"/>
								<Node score="-8.851600965412786">
									<SimplePredicate field="double(x31)" operator="lessOrEqual" value="1.5"/>
									<Node score="-461.4056317185506">
										<SimplePredicate field="double(x25)" operator="lessOrEqual" value="8.5"/>
									</Node>
								</Node>
								<Node score="-209.0814606520408">
									<SimplePredicate field="double(x7)" operator="lessOrEqual" value="10.0"/>
								</Node>
							</Node>
							<Node score="594.3659270603825">
								<SimplePredicate field="double(x31)" operator="lessOrEqual" value="1.5"/>
								<Node score="6.447054630387293">
									<SimplePredicate field="double(x23)" operator="lessOrEqual" value="8.5"/>
								</Node>
							</Node>
							<Node score="1497.5173477773267">
								<SimplePredicate field="double(x27)" operator="lessOrEqual" value="2.0"/>
							</Node>
						</Node>
						<Node score="3006.0426439834227">
							<SimplePredicate field="double(x32)" operator="lessOrEqual" value="12.0"/>
							<Node score="-224.99281057298333">
								<SimplePredicate field="double(x25)" operator="lessOrEqual" value="8.0"/>
								<Node score="748.8466430154373">
									<SimplePredicate field="double(x17)" operator="lessOrEqual" value="4128.0"/>
								</Node>
							</Node>
							<Node score="2158.31665494112">
								<SimplePredicate field="double(x23)" operator="lessOrEqual" value="8.5"/>
							</Node>
						</Node>
						<Node score="7488.993023935346">
							<SimplePredicate field="double(x17)" operator="lessOrEqual" value="160.0"/>
						</Node>
						<Node score="3538.7922747115326">
							<SimplePredicate field="double(x17)" operator="lessOrEqual" value="375.5"/>
						</Node>
					</Node>
				</TreeModel>
			</Segment>
			<Segment id="30">
				<True/>
				<TreeModel functionName="regression" missingValueStrategy="nullPrediction" noTrueChildStrategy="returnLastPrediction" splitCharacteristic="multiSplit">
					<MiningSchema>
						<MiningField name="x22"/>
						<MiningField name="x32"/>
						<MiningField name="x31"/>
						<MiningField name="x25"/>
						<MiningField name="x17"/>
						<MiningField name="x6"/>
						<MiningField name="x23"/>
						<MiningField name="x7"/>
						<MiningField name="x33"/>
					</MiningSchema>
					<Node score="7414.103093695992">
						<True/>
						<Node score="1579.28691294406">
							<SimplePredicate field="double(x22)" operator="lessOrEqual" value="2.5"/>
							<Node score="-206.99064604552115">
								<SimplePredicate field="double(x32)" operator="lessOrEqual" value="6.0"/>
								<Node score="-56.09652578263138">
									<SimplePredicate field="double(x31)" operator="lessOrEqual" value="1.5"/>
									<Node score="-459.7408026522213">
										<SimplePredicate field="double(x33)" operator="lessOrEqual" value="2.5"/>
									</Node>
								</Node>
								<Node score="1156.910389716039">
									<SimplePredicate field="double(x17)" operator="lessOrEqual" value="2.0"/>
								</Node>
							</Node>
							<Node score="435.4552864910703">
								<SimplePredicate field="double(x31)" operator="lessOrEqual" value="1.5"/>
								<Node score="-106.17577958693774">
									<SimplePredicate field="double(x25)" operator="lessOrEqual" value="8.5"/>
								</Node>
							</Node>
							<Node score="2198.841414253552">
								<SimplePredicate field="double(x25)" operator="lessOrEqual" value="12.0"/>
							</Node>
						</Node>
						<Node score="2402.360806626295">
							<SimplePredicate field="double(x6)" operator="lessOrEqual" value="12.0"/>
							<Node score="-222.74288246725348">
								<SimplePredicate field="double(x25)" operator="lessOrEqual" value="8.0"/>
								<Node score="741.3581765852829">
									<SimplePredicate field="double(x23)" operator="lessOrEqual" value="4.5"/>
								</Node>
							</Node>
							<Node score="2089.7214539989996">
								<SimplePredicate field="double(x7)" operator="lessOrEqual" value="8.5"/>
							</Node>
						</Node>
						<Node score="3312.128295815529">
							<SimplePredicate field="double(x31)" operator="lessOrEqual" value="1.5"/>
							<Node score="3503.4043519644174">
								<SimplePredicate field="double(x17)" operator="lessOrEqual" value="375.5"/>
							</Node>
						</Node>
					</Node>
				</TreeModel>
			</Segment>
			<Segment id="31">
				<True/>
				<TreeModel functionName="regression" missingValueStrategy="nullPrediction" noTrueChildStrategy="returnLastPrediction" splitCharacteristic="multiSplit">
					<MiningSchema>
						<MiningField name="x22"/>
						<MiningField name="x32"/>
						<MiningField name="x31"/>
						<MiningField name="x25"/>
						<MiningField name="x17"/>
						<MiningField name="x27"/>
						<MiningField name="x23"/>
						<MiningField name="x33"/>
					</MiningSchema>
					<Node score="7339.962062759033">
						<True/>
						<Node score="1986.1401562212895">
							<SimplePredicate field="double(x22)" operator="lessOrEqual" value="2.5"/>
							<Node score="1145.3412858188785">
								<SimplePredicate field="double(x32)" operator="lessOrEqual" value="6.0"/>
								<Node score="-8.202119697932403">
									<SimplePredicate field="double(x31)" operator="lessOrEqual" value="1.5"/>
									<Node score="-452.24971475239283">
										<SimplePredicate field="double(x25)" operator="lessOrEqual" value="8.5"/>
									</Node>
								</Node>
								<Node score="-204.92073958506535">
									<SimplePredicate field="double(x33)" operator="lessOrEqual" value="10.0"/>
								</Node>
							</Node>
							<Node score="584.7447537574657">
								<SimplePredicate field="double(x31)" operator="lessOrEqual" value="1.5"/>
								<Node score="5.337998845205062">
									<SimplePredicate field="double(x23)" operator="lessOrEqual" value="8.5"/>
								</Node>
							</Node>
							<Node score="1464.0940715930724">
								<SimplePredicate field="double(x27)" operator="lessOrEqual" value="2.0"/>
							</Node>
						</Node>
						<Node score="2951.958609477326">
							<SimplePredicate field="double(x22)" operator="lessOrEqual" value="12.0"/>
							<Node score="-220.51545364258095">
								<SimplePredicate field="double(x25)" operator="lessOrEqual" value="8.0"/>
								<Node score="733.9445948194299">
									<SimplePredicate field="double(x23)" operator="lessOrEqual" value="4.5"/>
								</Node>
							</Node>
							<Node score="2115.226245846592">
								<SimplePredicate field="double(x23)" operator="lessOrEqual" value="8.5"/>
							</Node>
						</Node>
						<Node score="3279.007012857374">
							<SimplePredicate field="double(x31)" operator="lessOrEqual" value="1.5"/>
							<Node score="3468.3703084447734">
								<SimplePredicate field="double(x17)" operator="lessOrEqual" value="375.5"/>
							</Node>
						</Node>
					</Node>
				</TreeModel>
			</Segment>
			<Segment id="32">
				<True/>
				<TreeModel functionName="regression" missingValueStrategy="nullPrediction" noTrueChildStrategy="returnLastPrediction" splitCharacteristic="multiSplit">
					<MiningSchema>
						<MiningField name="x22"/>
						<MiningField name="x32"/>
						<MiningField name="x31"/>
						<MiningField name="x25"/>
						<MiningField name="x17"/>
						<MiningField name="x27"/>
						<MiningField name="x24"/>
						<MiningField name="x16"/>
						<MiningField name="x33"/>
					</MiningSchema>
					<Node score="7266.562442131442">
						<True/>
						<Node score="1545.7208265909192">
							<SimplePredicate field="double(x22)" operator="lessOrEqual" value="2.5"/>
							<Node score="-202.87153218921387">
								<SimplePredicate field="double(x32)" operator="lessOrEqual" value="6.0"/>
								<Node score="-54.56544413771683">
									<SimplePredicate field="double(x31)" operator="lessOrEqual" value="1.5"/>
									<Node score="-450.6208974781721">
										<SimplePredicate field="double(x33)" operator="lessOrEqual" value="2.5"/>
									</Node>
								</Node>
								<Node score="1133.8878729606897">
									<SimplePredicate field="double(x17)" operator="lessOrEqual" value="2.0"/>
								</Node>
							</Node>
							<Node score="428.15031986314625">
								<SimplePredicate field="double(x31)" operator="lessOrEqual" value="1.5"/>
								<Node score="-105.65024074194726">
									<SimplePredicate field="double(x25)" operator="lessOrEqual" value="8.5"/>
								</Node>
							</Node>
							<Node score="2162.212059395086">
								<SimplePredicate field="double(x25)" operator="lessOrEqual" value="12.0"/>
							</Node>
						</Node>
						<Node score="2356.255233475311">
							<SimplePredicate field="double(x32)" operator="lessOrEqual" value="12.0"/>
							<Node score="726.6051488712355">
								<SimplePredicate field="double(x27)" operator="lessOrEqual" value="1.5"/>
								<Node score="-218.31029910615518">
									<SimplePredicate field="double(x16)" operator="lessOrEqual" value="20.0"/>
								</Node>
							</Node>
							<Node score="2047.6719770005461">
								<SimplePredicate field="double(x24)" operator="lessOrEqual" value="8.0"/>
							</Node>
						</Node>
						<Node score="3246.2169427288">
							<SimplePredicate field="double(x31)" operator="lessOrEqual" value="1.5"/>
							<Node score="3433.6866053603253">
								<SimplePredicate field="double(x17)" operator="lessOrEqual" value="375.5"/>
							</Node>
						</Node>
					</Node>
				</TreeModel>
			</Segment>
			<Segment id="33">
				<True/>
				<TreeModel functionName="regression" missingValueStrategy="nullPrediction" noTrueChildStrategy="returnLastPrediction" splitCharacteristic="multiSplit">
					<MiningSchema>
						<MiningField name="x22"/>
						<MiningField name="x32"/>
						<MiningField name="x31"/>
						<MiningField name="x25"/>
						<MiningField name="x17"/>
						<MiningField name="x27"/>
						<MiningField name="x23"/>
					</MiningSchema>
					<Node score="7193.896817710129">
						<True/>
						<Node score="1950.8215463931674">
							<SimplePredicate field="double(x22)" operator="lessOrEqual" value="2.5"/>
							<Node score="-200.8428168673222">
								<SimplePredicate field="double(x32)" operator="lessOrEqual" value="6.0"/>
								<Node score="-7.574444059575853">
									<SimplePredicate field="double(x31)" operator="lessOrEqual" value="1.5"/>
									<Node score="-443.2755116741251">
										<SimplePredicate field="double(x25)" operator="lessOrEqual" value="8.5"/>
									</Node>
								</Node>
								<Node score="1122.5489942310828">
									<SimplePredicate field="double(x17)" operator="lessOrEqual" value="2.0"/>
								</Node>
							</Node>
							<Node score="575.2830537220158">
								<SimplePredicate field="double(x31)" operator="lessOrEqual" value="1.5"/>
								<Node score="4.2652301951526335">
									<SimplePredicate field="double(x23)" operator="lessOrEqual" value="8.5"/>
								</Node>
							</Node>
							<Node score="1431.353817327786">
								<SimplePredicate field="double(x27)" operator="lessOrEqual" value="2.0"/>
							</Node>
						</Node>
						<Node score="2898.8764710477994">
							<SimplePredicate field="double(x32)" operator="lessOrEqual" value="12.0"/>
							<Node score="-216.12719611509362">
								<SimplePredicate field="double(x27)" operator="lessOrEqual" value="1.5"/>
								<Node score="719.3390973825232">
									<SimplePredicate field="double(x23)" operator="lessOrEqual" value="4.5"/>
								</Node>
							</Node>
							<Node score="2072.995149946953">
								<SimplePredicate field="double(x23)" operator="lessOrEqual" value="8.5"/>
							</Node>
						</Node>
						<Node score="3213.754773301512">
							<SimplePredicate field="double(x31)" operator="lessOrEqual" value="1.5"/>
							<Node score="3399.3497393067223">
								<SimplePredicate field="double(x17)" operator="lessOrEqual" value="375.5"/>
							</Node>
						</Node>
					</Node>
				</TreeModel>
			</Segment>
			<Segment id="34">
				<True/>
				<TreeModel functionName="regression" missingValueStrategy="nullPrediction" noTrueChildStrategy="returnLastPrediction" splitCharacteristic="multiSplit">
					<MiningSchema>
						<MiningField name="x22"/>
						<MiningField name="x32"/>
						<MiningField name="x31"/>
						<MiningField name="x25"/>
						<MiningField name="x17"/>
						<MiningField name="x24"/>
						<MiningField name="x16"/>
						<MiningField name="x33"/>
					</MiningSchema>
					<Node score="7121.957849533027">
						<True/>
						<Node score="1512.8332737773399">
							<SimplePredicate field="double(x22)" operator="lessOrEqual" value="2.5"/>
							<Node score="1111.323504288772">
								<SimplePredicate field="double(x32)" operator="lessOrEqual" value="6.0"/>
								<Node score="-53.07264312051477">
									<SimplePredicate field="double(x31)" operator="lessOrEqual" value="1.5"/>
									<Node score="-441.6819333866497">
										<SimplePredicate field="double(x33)" operator="lessOrEqual" value="2.5"/>
									</Node>
								</Node>
								<Node score="-198.8343886986494">
									<SimplePredicate field="double(x24)" operator="lessOrEqual" value="10.0"/>
								</Node>
							</Node>
							<Node score="420.971075244929">
								<SimplePredicate field="double(x31)" operator="lessOrEqual" value="1.5"/>
								<Node score="-105.11223882275176">
									<SimplePredicate field="double(x25)" operator="lessOrEqual" value="8.5"/>
								</Node>
							</Node>
							<Node score="2126.2764006278567">
								<SimplePredicate field="double(x25)" operator="lessOrEqual" value="12.0"/>
							</Node>
						</Node>
						<Node score="2311.0450837287544">
							<SimplePredicate field="double(x22)" operator="lessOrEqual" value="12.0"/>
							<Node score="-213.96592415394264">
								<SimplePredicate field="double(x25)" operator="lessOrEqual" value="8.0"/>
								<Node score="712.1457064086981">
									<SimplePredicate field="double(x17)" operator="lessOrEqual" value="4128.0"/>
								</Node>
							</Node>
							<Node score="2006.4653057310686">
								<SimplePredicate field="double(x16)" operator="lessOrEqual" value="24.0"/>
							</Node>
						</Node>
						<Node score="3181.617225568497">
							<SimplePredicate field="double(x31)" operator="lessOrEqual" value="1.5"/>
							<Node score="3365.356241913655">
								<SimplePredicate field="double(x17)" operator="lessOrEqual" value="375.5"/>
							</Node>
						</Node>
					</Node>
				</TreeModel>
			</Segment>
			<Segment id="35">
				<True/>
				<TreeModel functionName="regression" missingValueStrategy="nullPrediction" noTrueChildStrategy="returnLastPrediction" splitCharacteristic="multiSplit">
					<MiningSchema>
						<MiningField name="x22"/>
						<MiningField name="x32"/>
						<MiningField name="x31"/>
						<MiningField name="x25"/>
						<MiningField name="x17"/>
						<MiningField name="x27"/>
						<MiningField name="x23"/>
						<MiningField name="x7"/>
					</MiningSchema>
					<Node score="7050.738271037697">
						<True/>
						<Node score="1916.184998191462">
							<SimplePredicate field="double(x22)" operator="lessOrEqual" value="2.5"/>
							<Node score="1100.2102692458843">
								<SimplePredicate field="double(x32)" operator="lessOrEqual" value="6.0"/>
								<Node score="-6.967973187774987">
									<SimplePredicate field="double(x31)" operator="lessOrEqual" value="1.5"/>
									<Node score="-434.47941556621447">
										<SimplePredicate field="double(x25)" operator="lessOrEqual" value="8.5"/>
									</Node>
								</Node>
								<Node score="-196.84604481166247">
									<SimplePredicate field="double(x7)" operator="lessOrEqual" value="10.0"/>
								</Node>
							</Node>
							<Node score="565.978116574931">
								<SimplePredicate field="double(x31)" operator="lessOrEqual" value="1.5"/>
								<Node score="3.227820726720994">
									<SimplePredicate field="double(x23)" operator="lessOrEqual" value="8.5"/>
								</Node>
							</Node>
							<Node score="1399.2829044445182">
								<SimplePredicate field="double(x27)" operator="lessOrEqual" value="2.0"/>
							</Node>
						</Node>
						<Node score="2846.777255500034">
							<SimplePredicate field="double(x32)" operator="lessOrEqual" value="12.0"/>
							<Node score="705.0242493446111">
								<SimplePredicate field="double(x25)" operator="lessOrEqual" value="8.0"/>
								<Node score="-211.8262649124032">
									<SimplePredicate field="double(x22)" operator="lessOrEqual" value="6.0"/>
								</Node>
							</Node>
							<Node score="2031.606243384322">
								<SimplePredicate field="double(x23)" operator="lessOrEqual" value="8.5"/>
							</Node>
						</Node>
						<Node score="3149.801053312812">
							<SimplePredicate field="double(x31)" operator="lessOrEqual" value="1.5"/>
							<Node score="3331.7026794945186">
								<SimplePredicate field="double(x17)" operator="lessOrEqual" value="375.5"/>
							</Node>
						</Node>
					</Node>
				</TreeModel>
			</Segment>
			<Segment id="36">
				<True/>
				<TreeModel functionName="regression" missingValueStrategy="nullPrediction" noTrueChildStrategy="returnLastPrediction" splitCharacteristic="multiSplit">
					<MiningSchema>
						<MiningField name="x22"/>
						<MiningField name="x32"/>
						<MiningField name="x31"/>
						<MiningField name="x25"/>
						<MiningField name="x17"/>
						<MiningField name="x24"/>
						<MiningField name="x33"/>
					</MiningSchema>
					<Node score="6980.23088832732">
						<True/>
						<Node score="1480.6106994326394">
							<SimplePredicate field="double(x22)" operator="lessOrEqual" value="2.5"/>
							<Node score="1089.2081665534254">
								<SimplePredicate field="double(x32)" operator="lessOrEqual" value="6.0"/>
								<Node score="-51.61721407267501">
									<SimplePredicate field="double(x31)" operator="lessOrEqual" value="1.5"/>
									<Node score="-432.920319897123">
										<SimplePredicate field="double(x33)" operator="lessOrEqual" value="2.5"/>
									</Node>
								</Node>
								<Node score="-194.87758436354628">
									<SimplePredicate field="double(x24)" operator="lessOrEqual" value="10.0"/>
								</Node>
							</Node>
							<Node score="413.91533480597155">
								<SimplePredicate field="double(x31)" operator="lessOrEqual" value="1.5"/>
								<Node score="-104.56235322166488">
									<SimplePredicate field="double(x25)" operator="lessOrEqual" value="8.5"/>
								</Node>
							</Node>
							<Node score="2091.020807577133">
								<SimplePredicate field="double(x25)" operator="lessOrEqual" value="12.0"/>
							</Node>
						</Node>
						<Node score="2266.7128248886056">
							<SimplePredicate field="double(x22)" operator="lessOrEqual" value="12.0"/>
							<Node score="697.974006851165">
								<SimplePredicate field="double(x25)" operator="lessOrEqual" value="8.0"/>
								<Node score="-209.70800226327913">
									<SimplePredicate field="double(x22)" operator="lessOrEqual" value="6.0"/>
								</Node>
							</Node>
							<Node score="1966.0845902399171">
								<SimplePredicate field="double(x33)" operator="lessOrEqual" value="8.5"/>
							</Node>
						</Node>
						<Node score="3118.303042779684">
							<SimplePredicate field="double(x31)" operator="lessOrEqual" value="1.5"/>
							<Node score="3298.3856526995733">
								<SimplePredicate field="double(x17)" operator="lessOrEqual" value="375.5"/>
							</Node>
						</Node>
					</Node>
				</TreeModel>
			</Segment>
			<Segment id="37">
				<True/>
				<TreeModel functionName="regression" missingValueStrategy="nullPrediction" noTrueChildStrategy="returnLastPrediction" splitCharacteristic="multiSplit">
					<MiningSchema>
						<MiningField name="x22"/>
						<MiningField name="x32"/>
						<MiningField name="x31"/>
						<MiningField name="x25"/>
						<MiningField name="x17"/>
						<MiningField name="x27"/>
						<MiningField name="x6"/>
						<MiningField name="x23"/>
						<MiningField name="x24"/>
					</MiningSchema>
					<Node score="6910.428579444047">
						<True/>
						<Node score="1882.217041215221">
							<SimplePredicate field="double(x22)" operator="lessOrEqual" value="2.5"/>
							<Node score="-192.9288085199116">
								<SimplePredicate field="double(x32)" operator="lessOrEqual" value="6.0"/>
								<Node score="-6.38212131517048">
									<SimplePredicate field="double(x31)" operator="lessOrEqual" value="1.5"/>
									<Node score="-425.85789111605567">
										<SimplePredicate field="double(x25)" operator="lessOrEqual" value="8.5"/>
									</Node>
								</Node>
								<Node score="1078.316084887891">
									<SimplePredicate field="double(x17)" operator="lessOrEqual" value="2.0"/>
								</Node>
							</Node>
							<Node score="556.8272791711564">
								<SimplePredicate field="double(x31)" operator="lessOrEqual" value="1.5"/>
								<Node score="2.224863931562987">
									<SimplePredicate field="double(x23)" operator="lessOrEqual" value="8.5"/>
								</Node>
							</Node>
							<Node score="1367.867925085127">
